#define RED_PIN 13
#define BLUE_PIN 10
#define GREEN_PIN 12
#define RAND_PIN 2
#define PIN1 9
#define PIN2 8
#define PIN3 7
#define PIN4 6
#define PIN5 5
#define PIN6 4
#define PIN7 3
#define PIN8 30
#define YELLOW_PIN 31
#define PIN_BUTTON 11

#define BUFFER_SIZE 33
#define RECORD_DURATION_MS 1000
#define SAMPLE_RATE 8000
#define SAMPLE_INTERVAL_DIV 4
#define NUM_SAMPLES (SAMPLE_RATE * RECORD_DURATION_MS / 1000)
#define FRAME_SIZE 256
#define NUM_FRAMES 48
#define HOP_SIZE 164

#define MFCC_SIZE 13
#define DCT_MFCC_SIZE 6

#define NumberOf(arg) ((unsigned int) (sizeof (arg) / sizeof (arg [0]))) // calculates the number of layers (in this case 3)
#define _1_OPTIMIZE 0B01000000 // Highly-Recommended Optimization For RAM
//#define _2_OPTIMIZE 0B01000000 // NO_BIAS 
//#define _3_OPTIMIZE 0B01000000 
//#define Softmax                 // Comment this line to use Sigmoid (the default) activation function
#define ACTIVATION__PER_LAYER
  #define ReLU
  #define Softmax


#include <NeuralNetwork.h>
#include "arduinoMFCC.h"
#include "cnn.h"

volatile bool isRecording = false;
volatile uint16_t recordIndex = 0;
volatile int16_t audioBuffer[NUM_SAMPLES];
float all_mfccs[NUM_FRAMES][MFCC_SIZE];

volatile float firBuffer[BUFFER_SIZE];
volatile int bufferIndex = 0;
volatile int downsampleCounter = 0;

const float firCoeffs[BUFFER_SIZE] = {
  -0.0012, -0.0023, -0.0036, -0.0047, -0.0051, -0.0039, 0.0000, 0.0073,
   0.0176, 0.0301, 0.0434, 0.0553, 0.0635, 0.0669, 0.0650, 0.0584,
   0.0485, 0.0368, 0.0248, 0.0136, 0.0041, -0.0027, -0.0065, -0.0074,
  -0.0062, -0.0039, -0.0016, -0.0003, 0.0002, 0.0001, 0.0000, 0.0000, 0.0000
};

arduinoMFCC mymfcc(MFCC_SIZE, DCT_MFCC_SIZE, FRAME_SIZE, SAMPLE_RATE);
float mfcc[MFCC_SIZE];

const unsigned int layers[] = {624,32,12,4};
byte Actv_Functions[] = {0,0,1};
float *estimation;

float biases[] = {
  -0.00959068,
  0.00044593,
  -0.01020757,
  0.01542411,
  0.00248082,
  -0.00622362,
  -0.00349902,
  0.00801347,
  0.01665884,
  0.03069334,
  -0.00152961,
  -0.00162340,
  0.00540355,
  0.06402886,
  -0.01762472,
  -0.01213219,
  0.04900601,
  -0.00760389,
  0.00523527,
  -0.00011670,
  0.01171703,
  0.03858143,
  -0.00899106,
  0.03103214,
  0.02638139,
  -0.01953445,
  0.00656504,
  -0.00912224,
  0.03171035,
  0.07587449,
  0.01880297,
  0.01502964,
  0.03340446,
  0.01285507,
  0.00388913,
  -0.01828738,
  -0.01797301,
  0.02213641,
  0.00687863,
  -0.01569228,
  0.03031365,
  -0.00467125,
  0.04100292,
  0.02047901,
  -0.03648405,
  0.01332974,
  0.02775659,
  -0.00859747
};

const float weights[] PROGMEM = {
  -0.04499208, 0.03271325, 0.05440304, 0.05619596, -0.05069192, 0.05624232, 0.05767090, -0.01795414, -0.04345380, -0.01770615, 0.00521532, 0.04855567, -0.00356791, 0.02554527, -0.04472741, 0.01578635, -0.06604491, -0.08006264, -0.05599805, 0.08681871, 0.03472689, 0.00778290, -0.06057338, 0.09660814, -0.00425629, 0.08296338, -0.06450947, -0.05790721, -0.03685900, 0.06651032, -0.02718071, 0.07119404, -0.01662575, -0.05664112, -0.07025507, 0.09713081, -0.02051932, 0.08815261, -0.08506606, -0.07992096, -0.00143222, -0.04898256, 0.05080562, -0.04492999, 0.03922189, -0.00923439, -0.04042747, -0.07867993, 0.05176881, 0.09047859, 0.05148749, 0.04937160, 0.00416793, 0.06177028, 0.02963247, -0.07111161, -0.07722872, -0.04044117, -0.01979455, 0.01218712, 0.04537714, 0.05358176, 0.08386775, 0.05966558, 0.03178202, -0.04754896, -0.03657506, -0.04874911, 0.00557783, -0.07357558, 0.03030180, -0.07215463, 0.10750002, 0.06794079, -0.05724789, 0.04963092, 0.01589831, 0.05398445, 0.09404478, 0.02325152, 0.00793550, 0.08994649, -0.07138925, 0.05361739, 0.07432745, 0.08080874, 0.02011331, 0.05636283, 0.01149643, -0.06436895, -0.07998374, 0.07825328, 0.09933892, 0.02166337, -0.04263704, 0.08750574, 0.00317000, 0.02020073, 0.09735423, -0.03127581, 0.08205047, -0.06593321, -0.00736241, 0.04499741, 0.06889585, 0.09294771, 0.09018651, 0.01878109, -0.07433867, 0.06674606, 0.05162749, 0.02427195, -0.09304856, -0.01734132, -0.05086859, -0.00420551, -0.07452306, -0.07436430, 0.02383018, 0.02600560, 0.05581402, 0.06849373, 0.03191312, -0.06956984, -0.01789997, -0.03962689, -0.03612413, -0.04383788, -0.02856376, -0.09987035, 0.02664016, 0.07307127, 0.00444550, -0.06284737, 0.06545311, -0.05034781, 0.05604704, 0.02828822, 0.00527324, 0.01820563, 0.06838936, 0.01306860, 0.05650721, -0.09725279, -0.00164242, 0.02298411, -0.01063568, 0.06587297, 0.05386406, 0.08177036, -0.06874568, 0.03709170, 0.02038471, 0.05009052, -0.02239743, -0.00988329, -0.07280730, 0.01976908, 0.07469217, -0.09497596, 0.08444909, 0.07922684, -0.04146471, 0.00263268, 0.01350286, 0.00833202, -0.07133959, -0.08311429, -0.00618040, -0.06324690, -0.05686127, -0.01460107, 0.05218411, -0.09254297, -0.00442349, 0.01572314, -0.02166549, 0.00063087, 0.05509010, 0.03575514, 0.00581973, -0.02248854, 0.06570865, 0.00949229, -0.04271295, -0.08538326, 0.03162841, 0.03416267, 0.03080825, 0.01375116, 0.07510772, 0.05644765, -0.02907627, -0.01588182, -0.01298886, 0.08368687, -0.05155237, 0.06185434, -0.02763884, -0.07778639, 0.03249171, -0.04332750, 0.05781082, -0.06823075, -0.02017668, -0.06986729, -0.06149414, -0.10505807, -0.06313286, -0.07357537, 0.04806948, 0.01947842, -0.03947877, 0.07748383, -0.07840574, -0.09268107, -0.04425709, 0.04475058, -0.02099616, 0.03909090, 0.03312213, 0.05419965, -0.05837127, 0.07434632, -0.03843858, 0.00427289, 0.06928805, 0.06638891, -0.06200466, -0.05333101, -0.02810576, -0.07161274, -0.01515561, 0.04470045, -0.10261393, 0.03710490, 0.04756386, 0.05125866, -0.08597971, -0.08328287, 0.04205440, 0.03916866, 0.06454840, 0.01463105, 0.08466803, -0.06424046, -0.00430039, -0.02505756, -0.00363495, -0.03180147, 0.05994491, -0.07493507, -0.06441458, -0.00453156, 0.05479162, 0.04912743, 0.08378126, -0.01034363, -0.01885251, 0.02994683, -0.01132461, -0.07553716, 0.04458129, -0.09427702, -0.00632893, -0.07812040, 0.00674886, 0.00025628, -0.08803087, -0.09759187, -0.01419268, 0.08418134, 0.06220451, 0.03450550, 0.03881658, 0.08523690, -0.04813883, -0.07794145, 0.04541956, -0.02363757, -0.02421252, 0.07231238, 0.01191858, -0.08191665, 0.01007490, 0.02431700, -0.00382680, -0.04547391, -0.07553478, 0.05761435, 0.00018802, -0.01510955, -0.00162589, -0.05328786, 0.08884504, -0.04456180, 0.04824146, 0.05296779, 0.08318313, 0.03890495, 0.00730463, -0.03387864, -0.07098214, -0.08875831, 0.01553786, 0.03787458, -0.01472443, -0.03242403, -0.09581780, -0.05153491, -0.06202393, -0.05537448, 0.02822191, 0.03498529, 0.03681267, 0.07398257, -0.00242715, 0.08314224, 0.05932485, 0.01392353, -0.02000083, 0.00353999, -0.08406708, 0.08185512, -0.00503525, -0.06661482, -0.06230483, 0.06736495, -0.00556336, -0.06358764, -0.04681661, 0.07227702, -0.03643607, 0.01947194, 0.02580068, 0.08551083, -0.06721237, 0.01470211, 0.05634450, -0.01689512, 0.07571988, -0.05196315, 0.06958407, -0.08465282, -0.02586460, 0.06461615, -0.06179476, -0.10431868, -0.04472553, -0.06749540, -0.02851159, 0.04512544, -0.01650886, -0.08885896, -0.10289008, 0.07985770, 0.01899577, -0.08177418, -0.04587198, 0.04502555, -0.02439020, 0.02349242, -0.07224818, -0.09386532, 0.06040714, 0.07471310, 0.05716524, -0.02901103, -0.05086156, 0.01927876, 0.10124370, -0.06553717, 0.02024099, -0.08593921, 0.05509235, 0.00097853, -0.04511797, -0.02824585, -0.08399372, -0.09500373, 0.07336219, 0.08149421, -0.01922628, 0.05145610, -0.07054507, -0.01368630, 0.06521839, 0.04187952, -0.09415875, 0.04071238, 0.01752901, 0.08365144, 0.01998368, 0.06903276, 0.05874971, 0.06718680, 0.06261258, 0.06923742, 0.06625990, 0.07602308, -0.09624862, -0.00397566, -0.09189460, 0.02541696, 0.03855345, 0.02785015, -0.08163963, 0.00605000, 0.01120899, 0.07233958, -0.00844820, -0.08808923, 0.07266761, -0.02723638, -0.01392741, -0.02506741, -0.08706609, -0.01926528, -0.02790549, 0.06457186, -0.03732061, 0.03365082, -0.08359964, 0.06890804, 0.08213650, -0.04667323, 0.02820746, -0.04904544, -0.05882703, 0.09238289, -0.07830806, -0.07735807, -0.05409765, 0.04398001, -0.00618689, 0.01098567, 0.01109415, -0.04977927, 0.05142381, -0.01648470, 0.08020815, 0.03554853, 0.06034443, -0.08472432, 0.09059984, 0.06692062, -0.04296830, 0.07847436, -0.04386825, -0.05784699, -0.04948371, 0.00576879, -0.01634919, 0.03216658, -0.09973720, 0.06696183, 0.07497765, 0.06932513, -0.01209655, -0.04095274, 0.06174302, 0.00227765, 0.03346637, 0.05142146, -0.02061079, 0.08459201, 0.04125634, -0.07503193, -0.05253837, 0.05506704, 0.03968964, 0.09028082, -0.01235976, -0.07560273, 0.08098856, 0.07130082, 0.08183011, -0.05433497, 0.02357030, 0.02703716, -0.08393360, -0.01205792, 0.06933548, 0.02636682, -0.06761848, 0.00554549, -0.08425801, -0.01509978, -0.01457772, -0.04501641, -0.06462024, 0.01648808, -0.02100989, 0.04957065, 0.02784556, 0.09279674, -0.07246211, 0.06314193, -0.06842093, 0.03368961, 0.07330398, -0.06885696, 0.04543392, 0.00922354, -0.07260296, -0.04781696, 0.08683851, 0.07050417, -0.07740612, -0.08495318, -0.03711638, -0.00306848, 0.03249713, -0.06198331, 0.01961114, 0.03412453, -0.04892823, 0.07577544, 0.08986498, -0.07181568, -0.05418650, 0.01560157, 0.04195252, -0.03781636, 0.02114793, 0.09421123, 0.04256145, 0.02092412, -0.05429403, -0.00148257, -0.02522360, -0.03086654, -0.00699010, 0.00846926, 0.08008517, 0.02715443, -0.04651685, 0.04409462, 0.03991438, -0.05697731, -0.03069186, -0.06168039, -0.00240947, -0.07430771, 0.08404922, 0.07310992, -0.06170784, 0.08708432, -0.04677020, 0.08689351, 0.01634531, 0.02802668, 0.05935585, 0.06073810, 0.00322727, -0.05584728, -0.05936367, -0.00487308, -0.04339776, -0.02329799, 0.03700835, -0.03655902, -0.06420887, 0.06082040, 0.07470790, 0.04925082, 0.09230584, -0.01020952, 0.08509191, 0.00421600, -0.02435861, -0.00370822, 0.06712945, 0.07327310, 0.10076323, 0.01371980, -0.07006571, 0.06751549, -0.07568164, -0.06316552, 0.03359747, -0.02158640, 0.07109348, 0.01694980, -0.01130650, -0.02171628, 0.06787957, 0.04252761, 0.06357168, 0.02554442, 0.08300015, -0.03805512, 0.00021062, -0.03604740, -0.06401480, 0.04198653, -0.05542659, -0.08387011, 0.09517686, -0.03610821, 0.03673982, -0.01161205, 0.04602868, 0.06980059, 0.06416939, 0.08478729, 0.03193825, -0.06025910, -0.06399857, -0.01207180, -0.03818422, 0.00677289, -0.07635693, 0.01138576, -0.07299864, -0.06486875, -0.04494525, 0.05941724, 0.09776358, 0.05215258, 0.00802897, -0.07677881, 0.07426839, 0.03851126,
  -0.01319114, -0.03734096, -0.08473966, 0.08739639, -0.08052436, 0.01208021, 0.05481751, 0.03901201, -0.04651280, 0.02056068, 0.02364307, 0.08706399, 0.03880483, 0.06184635, 0.09016138, -0.07585833, -0.01395120, 0.00555320, -0.04621282, 0.07650395, 0.09112980, 0.01239219, 0.04049030, -0.05394677, 0.03741967, 0.02402063, -0.07861310, -0.03095928, -0.07369921, -0.07594532, 0.08616139, -0.03184141, -0.07598229, 0.06880493, -0.04616722, 0.08005688, -0.02069167, -0.01810888, 0.02522049, -0.07490539, 0.02215160, 0.02879869, -0.05269355, -0.06783357, 0.05247543, -0.08477584, -0.04865649, 0.04981571, -0.01808552, 0.01729876, 0.07825508, -0.00880097, -0.09344594, -0.02704347, -0.01764368, 0.06297074, 0.07082028, 0.03458846, 0.07245351, -0.07829829, -0.00356562, 0.05487894, 0.05985757, -0.00428735, -0.05628426, -0.00624761, 0.09146621, 0.03900143, 0.02133490, -0.06574357, -0.10373779, 0.01593505, 0.00053190, 0.08274166, 0.07048578, 0.06417714, 0.03034980, -0.01752828, -0.04808348, 0.07050635, -0.06117681, -0.02436242, -0.07770441, -0.04371130, -0.04065581, -0.01499374, 0.01925192, 0.01961508, -0.06643130, -0.06589045, 0.07048182, 0.07156972, 0.07764091, 0.06484234, 0.00060762, 0.00754229, -0.06453837, -0.03729451, 0.07516450, 0.02271502, -0.07581766, -0.01108285, 0.08745748, 0.02904972, 0.00449105, 0.01885463, -0.08219948, -0.04841540, 0.00822251, 0.07325799, 0.07813322, 0.05701882, 0.07437196, -0.01818357, 0.08229173, -0.04027396, 0.01525313, 0.04537022, -0.03736426, 0.07176390, -0.04940665, 0.03661708, -0.04111704, 0.05795324, 0.04143301, 0.03072491, -0.02397040, -0.07549933, -0.00103452, -0.03035434, -0.02788942, -0.08666316, 0.00944069, -0.04139011, 0.02672547, 0.02283213, 0.05816744, -0.07340185, -0.01820533, 0.01593343, 0.01722792, -0.04144779, 0.01832134, 0.00610855, 0.04874958, -0.09162798, 0.07381833, 0.00356658, -0.01681059, 0.01280816, -0.00325785, -0.00121247, -0.07801146, -0.09789772, -0.04744939, -0.05170381, -0.07833277, 0.01318337, -0.09126267, -0.04450300, 0.08663643, -0.00304170, -0.00433306, -0.00010394, 0.08558220, -0.00923602, 0.01169349, 0.01927112, -0.05475217, -0.04435514, -0.05135009, -0.01362156, 0.02696788, -0.06515412, -0.05379929, -0.02735600, -0.00853416, -0.01604158, 0.07708001, -0.09938174, -0.10111066, -0.05723938, -0.06509388, 0.05682326, -0.09334312, -0.00758450, -0.07071376, 0.08028006, 0.05082215, 0.04808498, -0.01945309, 0.01509869, -0.14328228, -0.08411705, -0.02548775, -0.06350613, 0.03486100, -0.00849148, -0.04313136, -0.08324580, -0.08057304, 0.03599678, 0.03851088, -0.09630500, -0.05320391, -0.06986957, -0.10285899, -0.03731779, -0.07907803, -0.10986406, -0.04176252, 0.04693296, -0.08461384, -0.06263232, -0.01856283, 0.07233594, -0.05444952, 0.01143942, 0.03278068, 0.00137207, -0.05550256, -0.09796862, -0.10106578, 0.06142221, -0.09360061, 0.09296980, 0.08106881, 0.02386499, 0.01160979, -0.06267611, -0.04320351, 0.05299594, -0.03603893, 0.06325813, 0.08168156, 0.00225599, 0.08582294, -0.04769001, -0.03714432, 0.09459984, 0.07015257, -0.08996789, 0.04733483, 0.08506156, -0.06657010, -0.00815745, 0.04649905, -0.02088163, 0.02453475, -0.09333484, -0.00535739, 0.05963886, 0.01770698, -0.02096082, -0.05295345, 0.06259092, 0.07347142, 0.00961548, 0.03686975, -0.02751012, -0.05157299, 0.04060272, 0.00585442, -0.08527093, 0.11254233, 0.05661057, -0.08201493, 0.05622873, 0.04124413, -0.05436993, 0.07078541, 0.07088140, -0.03863054, 0.08120108, -0.06082129, -0.01254252, 0.09229194, -0.06397448, -0.07724886, 0.04954522, -0.00551735, 0.00618220, -0.03470331, -0.07297665, 0.03722224, 0.02432520, -0.05785765, 0.06835971, -0.05011948, 0.05665875, 0.08978286, 0.07891443, 0.04416570, -0.05897651, -0.10282061, -0.09826177, -0.01532531, 0.02834628, 0.06935640, 0.10597410, 0.08980747, 0.05047755, 0.02648156, 0.08203912, 0.10094555, -0.05761527, -0.02422179, -0.09302182, -0.00990607, -0.07188275, -0.05968990, -0.05678440, 0.09592180, -0.06438175, -0.02450749, -0.03379836, -0.02636483, 0.11823199, -0.01624891, 0.05106467, -0.05933274, -0.04353667, -0.08119075, 0.01796612, -0.02831556, -0.02977374, 0.07575095, 0.06237976, -0.01912149, -0.06070064, -0.02818511, 0.02592643, -0.06074246, 0.06882663, -0.10905062, -0.09546293, -0.01564843, 0.05454613, 0.00947222, 0.09305348, -0.08653781, -0.05253408, 0.12057587, -0.06526691, 0.04634629, 0.01960043, 0.04550244, -0.11195845, 0.07084008, -0.00282858, 0.00247628, 0.08461810, -0.02811205, -0.07072316, -0.01717850, 0.03279774, 0.12221913, 0.10947402, -0.03589775, -0.03768332, 0.01520025, -0.04041042, -0.06847940, -0.07305904, 0.07370239, -0.04364504, 0.01141919, 0.05712420, 0.10788874, 0.01681440, 0.04547829, -0.07846257, -0.05194147, -0.10916022, -0.04755639, -0.09513731, 0.03703532, 0.00286352, -0.06253409, -0.03019585, 0.01276735, 0.06206648, 0.04347248, -0.04137548, 0.04609147, -0.13080165, -0.02712201, 0.01437713, -0.03711734, 0.05407492, -0.04159619, 0.01215760, 0.05873845, -0.08217960, -0.08199876, -0.03844070, -0.08777519, -0.08572128, -0.01236407, 0.04844164, -0.07570048, -0.02195307, 0.01818267, -0.07418477, 0.03247748, -0.00106871, 0.04660261, -0.07328960, -0.04361194, 0.05902161, 0.07428562, -0.07929660, 0.03418877, 0.02088512, -0.05857405, -0.08830938, 0.05195361, 0.02406648, -0.04120949, -0.04024884, 0.06868558, 0.00395083, -0.04039986, -0.00404695, -0.08785929, 0.01795719, -0.10965787, 0.02047223, -0.05130018, 0.05669934, 0.04216115, 0.08982009, 0.02214507, 0.07313149, -0.01333611, -0.01321563, -0.05388286, -0.07172247, -0.01715116, 0.08423938, 0.08078571, 0.02293593, -0.00474292, -0.06188432, 0.04030952, 0.01244522, -0.04908055, 0.06425794, 0.05316876, 0.03597393, -0.01135591, -0.06717829, 0.06256321, 0.06094918, 0.03789135, 0.04795915, 0.08287415, 0.07485698, -0.04010015, 0.06654183, -0.06061955, -0.00744613, 0.07664622, -0.06526590, -0.02045098, -0.05504124, 0.06411441, 0.06943926, 0.05465408, 0.05857734, 0.02837431, -0.06424785, 0.02756734, -0.07662944, -0.06438189, -0.07928599, 0.06599630, 0.08746172, -0.06033280, 0.08184838, -0.05281181, 0.09997615, -0.08811004, 0.07206695, 0.01722962, 0.04798900, -0.03014196, 0.05333423, 0.06394026, 0.00388026, -0.07250891, 0.02623080, -0.02572825, -0.00228676, 0.03387916, 0.08188311, -0.04253008, 0.01775121, -0.04391837, -0.04414461, 0.01427324, -0.01812235, 0.09496973, 0.01137487, 0.02958779, -0.07932317, 0.01787633, -0.00939496, 0.05717674, -0.07418763, 0.08865073, -0.09676656, -0.02156529, 0.03631385, -0.01827692, 0.04398247, -0.00977072, -0.05097717, -0.07122610, -0.07561100, 0.11183236, 0.08093096, 0.01614896, -0.09996615, -0.08071671, 0.08115374, -0.02858568, -0.01711222, -0.04429297, -0.02162975, 0.00269319, -0.07389949, -0.00912846, -0.05499190, -0.04960885, -0.00951309, -0.00666357, 0.01724857, 0.06888819, 0.01510777, 0.07688839, 0.06103802, 0.09959940, 0.10867149, -0.05103821, 0.01308924, 0.01285422, -0.03488864, -0.02762174, 0.02795705, -0.01056758, -0.06071973, 0.05505584, -0.10277420, 0.00381509, -0.06232833, -0.03180661, -0.04047076, 0.05757853, 0.03417850, 0.03168700, -0.02418372, -0.03969200, 0.05996158, 0.09145247, 0.06348477, -0.05877987, -0.06268752, -0.02857053, -0.01405769, -0.03385883, 0.04924075, 0.00397725, -0.02550798, -0.02752933, 0.08299848, 0.00650630, -0.00336388, 0.02730840, -0.02287627, -0.02115997, -0.02862388, -0.07789470, 0.05723260, -0.02733975, 0.07068787, 0.00607861, -0.07984381, -0.04131988, -0.07671223, 0.04810476, 0.02065567, -0.08072742, -0.01571759, -0.02721974, 0.04591568, 0.04456168, -0.09103163, 0.01683516, 0.05111023, -0.01914219, -0.02124263, -0.05418152, -0.09386734, 0.05115258, -0.04680547, -0.04128470, -0.00385641, -0.03477243, -0.02527466, -0.02071431, -0.01596770, -0.06383739, -0.01595954, -0.00315015, -0.00024965, 0.04087912, -0.05154807, 0.03892162, -0.08995740, -0.02473242, 0.06550222, 0.06756499, 0.05987427,
  0.05529495, 0.03375829, -0.01698433, -0.11891003, -0.00141355, 0.02494848, -0.10477141, 0.06235773, 0.00599136, 0.04096721, -0.01112164, 0.08310207, 0.07188437, -0.02466259, -0.00821409, -0.01872775, 0.06220426, -0.04519845, -0.07330436, -0.02623625, -0.02632956, -0.08074249, -0.01974386, 0.04707836, -0.07512741, 0.07044642, -0.09597338, 0.04790167, -0.05604026, -0.00157277, -0.02383036, -0.04053700, -0.00446879, 0.01909197, -0.02503983, 0.10105073, -0.08789635, -0.00254514, -0.05172974, -0.05782694, -0.02276839, 0.00314271, -0.04733685, 0.02567498, -0.04929804, 0.10022277, -0.03654730, 0.04149250, -0.04243406, -0.02901237, 0.02453598, 0.01191559, 0.05050468, -0.06402252, 0.03263619, -0.04217708, 0.00929419, -0.06968197, 0.01957540, 0.04470060, 0.06126330, 0.00030646, -0.05339886, 0.07717533, 0.06417774, -0.03479278, 0.04662022, 0.02949169, 0.09525909, 0.07409834, 0.06640800, -0.05236727, 0.05943086, 0.04230988, -0.05004294, 0.00041489, 0.07639307, -0.03643118, -0.00835736, 0.08504236, 0.03389953, 0.03142107, -0.03061829, -0.06161558, -0.03780256, -0.08068977, -0.00458659, 0.09306987, -0.06320591, -0.00961805, -0.00052298, 0.08015009, -0.02802432, -0.06102747, -0.05629026, -0.05920339, 0.01221562, -0.05986053, -0.10854093, 0.05455810, -0.06105726, -0.03223753, 0.05660769, 0.00683360, 0.08998173, -0.01462841, 0.03087046, 0.01896366, -0.08817588, 0.04205534, 0.05622734, -0.16515113, -0.02489998, 0.05729188, 0.06077477, -0.10001928, -0.01951540, 0.08211765, 0.11401287, -0.04176064, 0.05360926, -0.02929213, -0.06788800, -0.06389535, -0.02569888, -0.06651691, 0.03909191, 0.02199899, 0.13735960, 0.04760482, 0.05181616, 0.00176383, -0.12505686, -0.09527273, -0.06433015, -0.04346833, 0.09254446, -0.04888213, -0.09101592, -0.06456410, 0.06465606, 0.03643137, 0.06367817, 0.09747348, 0.12144246, 0.03227742, -0.13062254, -0.08819198, -0.07958256, -0.03482807, -0.00323780, -0.05542408, -0.05746630, 0.06752296, 0.09700936, 0.00743316, 0.10364637, -0.02785133, -0.04121720, 0.06001961, -0.05545639, -0.02506847, -0.03153157, 0.14260164, 0.12272884, -0.00726056, 0.01879693, -0.08956243, 0.02209642, 0.03468309, 0.09054294, 0.05810168, -0.02739770, -0.15978612, -0.03995157, -0.04164476, -0.00897211, 0.06096645, 0.02824908, -0.01952925, -0.07451022, 0.03493329, -0.06360532, -0.03335830, 0.07252533, -0.09168655, -0.13456281, -0.03414799, 0.04610667, 0.02190299, 0.00703334, -0.06902883, -0.02840477, 0.00553757, -0.03899056, 0.09071174, -0.02847579, -0.02029784, 0.00850175, -0.14121379, -0.02189167, 0.04340700, 0.01412680, 0.12125374, 0.05947717, 0.09161037, -0.09453340, 0.04644798, 0.00246847, -0.06625331, 0.03324708, -0.09972941, -0.10642023, -0.06044374, -0.04092257, 0.04820720, 0.05664380, -0.08112200, 0.02587601, 0.03385712, 0.03323677, 0.05601192, -0.01941106, -0.07695676, -0.06377804, 0.05084616, 0.08655400, 0.07063536, 0.10984273, 0.11070647, 0.00743030, -0.01826420, -0.03472038, 0.01238101, -0.05908548, 0.08071867, -0.02133137, 0.05939201, -0.02973614, 0.05551245, 0.07334717, -0.02054263, 0.02479061, -0.07697999, 0.08923008, 0.10974704, -0.01012428, -0.08232612, -0.05332021, 0.04987472, 0.01821291, -0.12339588, 0.08122537, 0.04397526, 0.07282171, -0.06814993, -0.04525135, -0.00415870, -0.03407226, 0.11959043, -0.03684389, -0.06818581, 0.09003387, 0.08340798, -0.09890390, 0.04205371, -0.02107842, 0.10503325, 0.05179162, -0.09769458, -0.00152304, -0.05891141, -0.08773782, 0.01962395, 0.10005543, 0.03611926, 0.07453558, 0.05369379, -0.05393003, 0.02830536, 0.06014588, -0.05155052, -0.16329543, -0.00733083, -0.02287881, 0.02457604, -0.03636830, 0.08188285, 0.05736050, -0.03516679, -0.06266227, -0.07366779, -0.13782862, 0.09751954, -0.04902266, -0.06961862, -0.06592403, 0.11612698, 0.00408457, 0.04740307, 0.10084024, 0.00750375, -0.05779107, 0.04337869, -0.04544782, -0.11906443, -0.13921152, 0.00737930, -0.19672213, -0.09312499, -0.16278304, -0.09461242, 0.00700388, 0.04155745, 0.06920950, -0.13467719, -0.09886330, -0.13701086, -0.12249926, 0.03564069, -0.14370437, -0.00928035, -0.13673566, -0.04491166, -0.02577568, -0.07558383, -0.03455896, 0.03236254, -0.11365678, 0.01616662, 0.03248442, -0.09281519, -0.09316620, -0.08077759, -0.05316015, -0.05641166, -0.12357558, -0.02122782, -0.06295574, -0.00305226, 0.07004008, -0.00578404, 0.04503355, 0.05469951, 0.03466907, -0.09884446, -0.06851728, -0.06553563, -0.06677302, 0.00181317, -0.06051026, -0.01237958, 0.10270702, 0.07706866, 0.02545607, -0.00220806, -0.04543766, -0.08996116, -0.06415839, 0.03915424, -0.10533976, 0.05490429, -0.00250788, -0.09368490, 0.09427693, 0.11218353, -0.02188388, -0.04124030, -0.04691141, -0.02595759, 0.01511546, 0.02552323, -0.02940415, 0.08018783, -0.09110118, -0.00449459, 0.02173016, 0.04269581, -0.07310066, 0.04840647, 0.04685350, -0.02631308, -0.03104122, 0.02545130, -0.01237396, -0.07356182, -0.01247099, -0.07307169, 0.00409430, -0.10521313, -0.01666012, -0.04066077, 0.05470998, -0.06890748, 0.03471331, 0.02951466, -0.08325353, 0.01880725, 0.00465857, 0.05878131, 0.01289619, 0.04620929, 0.08282787, 0.01435703, 0.00327083, 0.04859693, 0.07902662, -0.02725899, -0.02853515, -0.06289468, 0.09068396, -0.01252301, 0.06451048, -0.02393806, 0.06918168, -0.03944024, -0.06102259, 0.02664433, 0.06621017, -0.11535207, -0.02591607, 0.00004282, -0.02955963, -0.06634405, 0.08618570, 0.06817078, 0.03968102, 0.01566882, -0.10685349, 0.02350372, 0.05497563, 0.02582802, -0.08671447, -0.06657015, 0.04362599, 0.01287058, 0.01156235, -0.04453260, 0.02955663, 0.06465606, 0.04520891, -0.05361922, -0.06738146, 0.03408074, -0.00160025, -0.01411037, -0.00308066, -0.00149458, 0.00949838, 0.10103476, 0.06343574, 0.03153218, 0.03786807, -0.00398851, 0.00702408, -0.09916490, 0.02244280, -0.09808048, -0.04574559, -0.04559510, -0.06565028, 0.10445447, -0.00529568, -0.05439260, -0.08544172, 0.04163297, -0.01266070, -0.07525904, -0.06477433, -0.06111021, -0.03941238, -0.09639544, -0.03009330, 0.02895764, 0.04693368, -0.03790271, -0.02083605, 0.05748440, 0.01460431, 0.09824258, -0.05560586, 0.01739027, -0.03952428, -0.08860726, 0.02256643, -0.08273491, 0.01503592, -0.01304057, -0.08960584, -0.09279494, 0.09011067, 0.01299570, 0.06939682, -0.03756867, 0.05285951, 0.03936083, -0.05141369, -0.01846904, -0.06006709, -0.04027119, -0.02696630, 0.00712902, 0.02192311, 0.02806815, 0.09916688, -0.04041915, -0.05121888, -0.07802698, 0.07626352, -0.09144315, 0.07268035, 0.05601975, 0.04480752, 0.04207053, 0.05533424, -0.04869760, 0.09039979, 0.10267428, 0.05819716, -0.05285494, -0.11344737, 0.07184173, 0.04466552, 0.06192835, 0.02464356, -0.00442305, 0.09616915, -0.01998952, -0.06260819, 0.08379752, -0.05122129, 0.02209295, -0.06489216, -0.07033389, -0.06933613, -0.05530198, -0.00906473, 0.06666458, 0.10577421, 0.09709007, 0.10251540, 0.06229454, -0.00717835, 0.01929984, 0.04857633, 0.03784603, 0.00781055, -0.08053539, -0.04490047, 0.08534157, -0.04837848, 0.03236644, 0.00608572, -0.05596453, 0.08228565, 0.02144000, -0.01256698, 0.02756238, 0.04597984, 0.03268065, -0.08196392, 0.04662490, -0.09979849, -0.09436994, 0.07519498, -0.01751224, 0.04147721, 0.09502520, 0.09238607, 0.07591783, -0.07405756, 0.00604671, -0.07707048, 0.05955504, 0.00368890, 0.06363790, 0.07316521, 0.06427538, 0.00245000, -0.10225767, -0.00716961, 0.00979237, 0.08105594, 0.07886217, -0.04773127, 0.09774636, 0.06221653, -0.06458253, 0.08391603, -0.04757139, -0.00452975, 0.03677282, 0.00104782, 0.07349256, -0.04999170, 0.04058141, 0.04165270, 0.03045721, 0.05787462, 0.03491864, -0.07779793, 0.01426192, 0.01555816, 0.05499429, 0.04795925, 0.03490969, -0.03641445, 0.01203622, -0.05743854, 0.11385621, -0.06214382, -0.10167935, -0.04848953, -0.09300211, 0.01282277, -0.00977361, -0.03844037, -0.07031251, 0.01930559, 0.08269221, -0.01288232, 0.08413480, 0.04191723, -0.07366489,
  0.04690334, 0.00810138, 0.04043851, 0.01435823, 0.04093042, 0.06575853, 0.09882926, 0.06055369, 0.01567799, -0.02662531, 0.01164325, -0.00163367, 0.03541504, -0.07297028, 0.01960535, -0.06651820, 0.02797338, 0.10437296, 0.06381155, 0.09652685, 0.02534960, 0.03806173, 0.09988236, 0.03952389, 0.10269094, 0.03921850, -0.00607731, 0.10217571, 0.09952042, 0.05840316, 0.09855813, 0.01730759, -0.05571669, 0.12237820, 0.10918135, -0.04033577, -0.00079170, 0.10312226, -0.02358489, -0.01676953, 0.09483922, 0.07737760, 0.04184391, 0.02291699, -0.03952112, 0.02667724, -0.03020778, 0.04095842, -0.02266585, 0.09916736, 0.02344677, 0.10656066, -0.03632156, 0.09902617, 0.01821286, 0.01243328, 0.01853378, -0.06291391, 0.00531581, 0.08262227, -0.03821979, 0.03529220, 0.00332883, 0.00788649, 0.05488234, -0.07554392, 0.04369802, -0.00200604, 0.01376904, 0.01852496, -0.02600228, 0.08414111, 0.09517869, 0.02212876, 0.09764004, 0.01286105, 0.07378189, 0.03348052, -0.06347542, -0.00248443, -0.00905067, -0.06121964, 0.03173355, -0.03440085, 0.01454465, -0.04819312, -0.04339492, -0.02365819, 0.02772014, 0.05317031, 0.03973521, -0.03996170, -0.02057290, -0.03656816, 0.09057423, 0.10259174, 0.00855899, -0.07662293, 0.05710341, -0.05449997, -0.03217051, -0.01289027, -0.00886873, 0.00260564, 0.08070993, 0.02480364, 0.05493003, 0.09603985, 0.02888759, -0.02314286, -0.04368920, 0.04427189, -0.00803979, 0.07827529, 0.04431731, 0.07640728, 0.04571838, -0.01006938, 0.04370781, 0.05552682, 0.08073898, 0.02671807, -0.05006882, 0.11024720, -0.01334685, 0.07806975, 0.00666404, -0.06425308, -0.05778227, 0.01385199, 0.07074004, -0.03189841, -0.05095434, -0.03868800, -0.04350470, 0.04226483, -0.03224932, 0.00130335, 0.10709300, 0.02855035, 0.09882685, -0.05614938, 0.03113874, -0.03381207, 0.05024721, -0.00967875, 0.08405399, 0.04358174, -0.02502226, 0.06885006, 0.11113740, 0.11694307, 0.08522646, -0.02706038, 0.09564353, -0.05617456, 0.01376734, -0.04171127, -0.06380361, 0.03275828, -0.00090262, -0.00316585, -0.02981621, 0.02263944, 0.05675817, -0.00149648, -0.05034621, 0.04875709, -0.02640968, -0.07705925, 0.05002254, 0.06565725, 0.01997772, 0.08393742, 0.06956505, 0.08036017, 0.10255093, -0.03933576, -0.06106394, 0.03308756, 0.01930621, 0.04674225, -0.07365589, 0.01272103, -0.04097615, -0.03829398, 0.02152351, -0.01917727, -0.06290725, -0.04567133, 0.06288801, -0.01105471, -0.09130710, -0.00620949, -0.02123496, 0.06814405, 0.05358212, 0.04996329, -0.04838604, -0.03761464, 0.06949544, 0.08585107, 0.08351565, -0.07019405, -0.07925312, -0.05982939, -0.05381646, -0.01116346, -0.00034546, 0.08463929, -0.02472844, 0.08192825, 0.06805692, -0.06714521, 0.02609859, -0.09450993, 0.08705234, -0.08936581, -0.00917789, -0.05801269, -0.01588959, -0.02865423, -0.06534118, 0.03979532, -0.00748110, 0.10551023, -0.04296704, 0.03060979, 0.08277060, 0.06542785, 0.05999914, 0.00821511, 0.03205759, -0.05097077, 0.09080812, 0.01593304, -0.08384181, -0.03193810, 0.00659585, -0.08052380, -0.00884688, 0.02813287, 0.07723512, 0.01798461, 0.04836498, 0.08536790, 0.00387997, -0.07704516, -0.01120204, 0.02884816, 0.06428563, -0.05764336, 0.00025129, 0.00424780, -0.04393331, -0.02999076, -0.00317521, 0.07582638, -0.01617012, -0.04877162, -0.07702438, -0.00560355, -0.02374463, 0.08261988, -0.00630951, 0.03349592, 0.03859310, 0.07175109, 0.08091001, -0.06745902, -0.00704093, 0.00438031, 0.04698176, 0.03348379, -0.05316420, -0.05494330, -0.03741317, 0.01583652, 0.05449153, 0.06145636, -0.01122873, -0.10908785, -0.02211147, -0.02323723, 0.00274764, 0.06279127, 0.05770988, 0.00024420, 0.05510528, 0.03120658, 0.05358126, -0.05442424, 0.01889225, -0.07101795, -0.07857170, -0.06072877, -0.06505245, -0.03426590, 0.01011028, 0.07075893, 0.04325721, -0.06909160, 0.03354261, -0.02509022, 0.08284623, 0.07520605, -0.03577743, -0.05047853, -0.03734001, 0.07586472, -0.02752216, 0.09564803, -0.00563757, -0.05747144, 0.07245106, 0.01174723, 0.00392775, -0.05456771, 0.07037015, 0.03314630, 0.07751925, 0.07468706, 0.07161593, 0.03046397, 0.05265095, 0.03801519, -0.07768508, -0.07519519, 0.03427066, 0.07635999, 0.06340908, 0.06221729, 0.06618999, 0.03810155, 0.00002972, 0.07917780, 0.05088087, 0.05914096, 0.02523190, 0.06785792, 0.03269914, -0.00248631, 0.05718510, 0.03613338, 0.05530871, 0.01473402, 0.07815062, -0.00765288, -0.03269519, -0.03679899, 0.05242227, 0.08248249, -0.05185587, 0.02437075, -0.05185313, -0.01465567, 0.04625216, -0.03652988, -0.03995914, -0.01314803, -0.06690110, 0.05212577, -0.01426698, -0.02508874, 0.01622963, 0.06808290, -0.05964077, 0.00073715, 0.10673121, 0.02236789, 0.05038923, -0.02927010, 0.02215061, 0.03013193, -0.03609559, 0.10926422, 0.02996808, 0.12037992, 0.04001787, 0.02528822, -0.08066475, 0.00356751, 0.05244265, 0.04330158, -0.04288700, -0.11639413, -0.05311525, -0.00173249, 0.05012317, -0.06378689, 0.02045303, 0.08799104, 0.01356168, -0.02029281, -0.00243940, -0.06868791, -0.04205510, -0.01059430, 0.03154060, 0.05998444, -0.07816310, 0.00919877, -0.05767005, 0.09538748, 0.11882359, 0.06480151, 0.09303775, -0.05963218, 0.08735609, 0.07331530, -0.09170042, 0.03478382, -0.02838056, -0.08389544, 0.03765773, 0.01439309, -0.03581937, 0.01389832, 0.03694378, 0.02603678, 0.04253632, -0.05394076, 0.01863227, 0.08502668, 0.08157860, -0.02414509, -0.05213871, -0.08392009, 0.05810600, 0.08400301, -0.00706403, -0.03954604, 0.01577520, -0.02344671, 0.06501932, -0.04834741, 0.02709840, 0.07499938, -0.00931718, 0.07370361, 0.01700995, 0.06169843, -0.01247906, -0.02712908, -0.02613757, -0.03976823, 0.03772893, 0.11043165, -0.02542437, 0.10232271, -0.08283192, -0.07999509, 0.06629502, -0.06878492, 0.06451760, -0.06186498, 0.01407947, 0.09831534, 0.00009306, 0.02914207, 0.07439853, 0.04894598, 0.00843317, 0.02380970, -0.00681231, -0.07517544, 0.12379803, 0.10288958, 0.04581712, -0.00329059, -0.02479090, -0.02825532, 0.05232602, -0.01756551, -0.00028875, 0.03382645, -0.08169043, 0.01352251, 0.08833553, 0.02850157, -0.02637739, 0.05363812, 0.02976283, -0.03033508, 0.08457167, -0.08141668, 0.06206866, -0.06890738, -0.05503708, 0.05238942, -0.02330942, 0.07335334, 0.05224371, 0.09138262, -0.00322726, 0.03631761, -0.04317185, -0.02565654, 0.11105385, 0.04034051, 0.00957568, 0.06942615, 0.06700090, 0.00935825, 0.00458196, 0.01493815, -0.04257847, 0.09983476, -0.02044861, 0.03678627, 0.07440511, 0.09532207, -0.01349282, 0.02296020, -0.06170277, 0.01913023, 0.08296363, -0.02012147, -0.01872466, 0.09665940, 0.02624037, 0.09951504, 0.09921253, 0.06790900, 0.05463571, -0.04351079, 0.04074585, 0.00283570, 0.04846210, -0.04524939, -0.04851158, -0.01891522, 0.09188170, -0.04035448, -0.02982010, 0.09107562, 0.10787071, -0.01690379, 0.02777966, 0.01774286, -0.07839730, 0.09619208, -0.02156025, 0.07140630, 0.04903369, 0.01771669, 0.08073255, 0.06854545, -0.04217527, 0.03677677, 0.03406871, -0.08548452, 0.03266188, -0.03988728, -0.04683610, 0.01418958, -0.07302182, 0.06014417, 0.02010845, -0.03724707, 0.06392685, 0.10277969, 0.08999691, 0.00072316, 0.03512018, 0.02136973, 0.03672288, -0.02348437, 0.02729687, 0.06671946, 0.04297252, -0.07471202, -0.06533718, 0.04481034, 0.02803527, 0.09103310, 0.06585281, -0.03036027, 0.09942986, -0.03806379, 0.03534230, 0.03027326, 0.01178412, 0.00310133, 0.05224766, -0.06617045, -0.05677851, -0.02064621, 0.08879451, 0.02812418, 0.05370414, 0.10112417, -0.01375165, -0.06161643, -0.05653215, 0.05914096, -0.00653370, -0.06180087, -0.03131324, 0.00898270, -0.03792069, 0.08891799, 0.09255477, -0.08057719, -0.08612321, 0.07388193, -0.03055171, 0.06468398, -0.03623553, 0.02692248, 0.00009411, 0.02207533, -0.04366778, -0.08681402, 0.07879369, 0.02151196, 0.05283034, -0.00564815, 0.06591257, 0.02062262, 0.03363603, 0.05002141, 0.07327855, 0.04689929,
  0.02679726, 0.10957386, -0.07964796, 0.08600017, -0.01839043, 0.14044704, 0.01369546, 0.16516027, 0.04526563, -0.01444427, 0.03834689, 0.03416478, 0.09481872, -0.01834509, 0.11604853, 0.06305335, 0.07735444, 0.00785633, 0.06615768, 0.04527886, -0.01675534, -0.01851643, -0.08456140, -0.02488064, 0.08804209, -0.04040768, 0.04223374, 0.01818338, 0.05157376, -0.06769220, 0.02173852, 0.01658535, 0.09109613, 0.12041318, 0.01442187, 0.06237233, -0.08199925, 0.02907538, 0.05116209, 0.01602775, -0.03736740, 0.10583571, 0.13364787, 0.14313932, -0.02139109, -0.05277416, 0.06305518, -0.07464071, 0.00953992, 0.09401199, -0.00283905, -0.06911229, -0.05391593, 0.02194745, 0.03841243, 0.00208738, 0.05543348, 0.11183461, 0.08713908, -0.05029440, 0.02979123, 0.00551951, -0.01897904, 0.07523593, 0.05587565, 0.06767319, 0.10560232, 0.11897475, -0.04561135, -0.04197393, 0.04140682, -0.03814549, -0.09895419, -0.10843962, 0.07272055, -0.07259793, 0.08592970, 0.08906054, 0.02280071, -0.06353483, 0.13799955, 0.04816747, -0.03176168, -0.05364962, 0.01493947, -0.01033018, -0.08731303, 0.02488093, -0.04839621, -0.08333838, -0.01369733, -0.02459780, -0.06447113, 0.05530510, 0.02671640, -0.04138307, 0.01504009, 0.04170114, -0.07511912, 0.10292973, 0.01271647, 0.07311406, -0.02619333, 0.09488927, -0.04791968, -0.06511751, 0.01726166, -0.04110918, 0.00993100, 0.05301519, 0.04928268, -0.13420419, -0.06710207, -0.08841735, -0.01375014, 0.07602345, -0.05121757, 0.12190302, 0.00000190, -0.01803690, 0.09305527, -0.06104270, -0.10327476, -0.04281426, 0.02548055, -0.10834315, 0.03549600, 0.12910780, 0.02451904, 0.07047210, 0.11951704, -0.05152329, -0.04962988, -0.00431769, -0.12271746, -0.00900698, -0.07391302, -0.02988490, -0.14226471, 0.05755687, -0.06076879, -0.04401707, -0.05152199, 0.06288788, 0.04288621, -0.00669463, 0.01221337, -0.06177688, -0.05845201, 0.01173252, -0.02765491, -0.13750869, 0.04037550, 0.04878423, 0.11039934, 0.01483405, 0.04834249, -0.01830837, -0.03432925, -0.08914922, -0.15235735, 0.02584077, 0.03526779, -0.03125292, 0.00726999, -0.04621051, -0.06165018, -0.02021039, -0.01088706, -0.01235088, -0.01244258, -0.01451159, -0.00887447, -0.16619226, -0.01535648, -0.04176217, 0.10823914, 0.08548567, 0.02491311, -0.07965188, -0.09829092, -0.06374501, -0.07801997, 0.03568715, 0.03505309, -0.06232873, -0.15005106, -0.08776607, -0.10393920, 0.13370471, 0.14028281, 0.07864179, 0.06529772, -0.15322670, 0.04335154, 0.00987931, 0.04677143, -0.09713383, -0.10122901, -0.06348597, -0.02461013, 0.00197641, 0.08784333, 0.16944039, -0.05218426, -0.01925971, 0.00722684, -0.03017557, 0.05438519, -0.07604828, 0.04331217, 0.04876857, -0.12103413, 0.01802445, 0.03212157, 0.15140356, -0.01269490, 0.06234783, 0.05327132, -0.04503915, 0.02926792, 0.02645362, 0.01275283, 0.02330370, -0.01577412, -0.07431936, -0.05675620, 0.07704891, 0.12819353, 0.15512975, 0.02943308, 0.04529540, -0.06571396, 0.05584101, -0.07922181, 0.07735442, 0.00775596, 0.00825679, -0.14084047, -0.07564675, 0.09813031, -0.00051192, 0.09876575, -0.08357330, -0.04434951, -0.01020504, 0.10006232, 0.03973689, -0.04311715, 0.01297807, -0.10092673, -0.11236069, -0.07100445, 0.07296409, -0.03112557, -0.02077507, 0.04987593, -0.09678551, -0.04597921, 0.01497947, 0.11579221, 0.01925424, 0.03809090, 0.05382560, 0.04653347, 0.04825612, -0.05053781, 0.08569407, -0.03090334, -0.08999532, -0.06505398, 0.03808257, -0.02212519, 0.08797936, 0.10141990, 0.04209155, 0.05518337, -0.00695585, -0.01014288, 0.04786100, 0.05064453, 0.01427733, 0.06860450, -0.06386755, 0.08988451, 0.02713174, -0.00562848, 0.00917370, 0.05570676, -0.01090041, 0.05100264, 0.05396571, 0.04206052, 0.02264511, 0.10052913, 0.05394587, 0.04579580, 0.08152948, -0.00531325, -0.01017608, 0.01310572, 0.14301024, -0.03152722, 0.08386838, 0.00048082, -0.02426845, 0.02312947, -0.02760196, 0.01127017, -0.01079892, -0.00516010, 0.01205384, 0.11246963, 0.06705584, 0.00039170, 0.03122378, -0.07339359, -0.00625066, 0.04308577, -0.03572306, -0.10044793, -0.11325121, -0.11947161, -0.10651029, -0.09355026, -0.07446034, 0.15992224, 0.07335548, -0.00372481, -0.14287783, -0.00357349, -0.06437200, 0.01198478, -0.00936533, -0.01204819, -0.07218724, 0.07488564, 0.05994987, 0.05375390, 0.13007104, 0.09531496, -0.01441585, -0.01955493, -0.07363888, -0.06676408, -0.01579462, -0.05132470, -0.03501690, 0.04359984, -0.02735132, -0.04306786, 0.04420843, -0.01284927, 0.14607969, 0.05356167, 0.02028387, 0.04808887, -0.05885094, -0.06064162, 0.06405830, -0.11344396, 0.01713146, 0.01228092, 0.00767169, 0.03954349, -0.01721132, 0.06290145, -0.01989163, 0.03960869, -0.12305188, 0.01234661, -0.13073801, 0.00820064, 0.07674290, 0.08324632, 0.07942984, 0.03432311, 0.00300740, 0.04881625, 0.09544159, -0.02249367, -0.03278494, -0.03050616, -0.04397644, -0.10557214, -0.08854524, 0.05183372, -0.06525999, -0.07483799, 0.06309341, -0.04583623, -0.02936861, 0.08769586, -0.01719743, -0.00902339, -0.02777973, 0.00375331, 0.02520143, 0.05279827, 0.03249538, 0.00384473, 0.07803413, 0.04032568, -0.05090372, 0.03759561, 0.08155002, -0.00064704, 0.08354570, -0.04890016, -0.05844311, -0.08830748, 0.01122199, 0.03983386, 0.00085512, 0.09382977, -0.02688564, -0.02853451, 0.09628312, -0.01735291, -0.06287529, -0.01365162, -0.07330839, -0.09195697, -0.10966666, 0.04915094, 0.07305122, -0.01870262, -0.09713015, 0.07484339, 0.00973571, 0.00169722, 0.02766634, -0.03283865, -0.00670234, -0.08967104, 0.08403247, -0.00303018, 0.05587819, 0.06148707, 0.06295368, -0.03677338, -0.03970000, -0.03369951, -0.05786891, 0.08492049, -0.03255952, -0.07382467, 0.06411722, -0.01686385, -0.05577938, 0.04759892, 0.01919876, -0.04759140, 0.10188212, 0.09401128, 0.00393738, 0.09203493, -0.01741270, -0.06980648, 0.10080672, -0.04415943, -0.06614644, 0.04759894, 0.04960381, -0.07871619, 0.05876267, -0.00639383, -0.06163715, 0.09320327, -0.05179107, 0.09867501, -0.00756107, -0.04734262, -0.05958802, -0.01867304, -0.02728080, -0.06167456, 0.07361109, 0.01992593, 0.14520797, -0.04877152, -0.00090647, 0.04721800, 0.06043404, 0.08820065, -0.00904013, 0.02575968, 0.03493095, -0.09399685, 0.02205770, 0.05708116, 0.01786516, 0.08079997, 0.03542037, -0.07450448, 0.02801589, -0.05113691, -0.01710583, 0.03174934, 0.01615833, 0.05424286, 0.07507848, 0.01630969, 0.02537130, 0.08306651, 0.03118428, 0.00447504, 0.00332564, -0.03682781, 0.08087272, 0.11087276, 0.02232029, -0.07070789, 0.00578038, 0.00484134, 0.10067327, -0.06317451, 0.07688273, -0.04726376, -0.04785346, 0.04737753, -0.03483085, 0.02467281, 0.00998958, -0.05154392, -0.06716978, 0.05533130, 0.00769937, -0.02269789, 0.07596090, 0.03057447, -0.04154198, 0.04909634, 0.03691781, 0.09560530, -0.03504015, 0.01345250, -0.03168963, -0.05283418, 0.05887149, -0.01430725, 0.06593401, -0.06153123, -0.08777179, 0.10039134, 0.03091771, -0.01034989, 0.08876055, 0.05428479, -0.03194876, 0.02091722, 0.05105609, -0.07391653, -0.09939353, -0.06424243, -0.03678796, -0.06445627, 0.01582519, -0.01222522, -0.04060993, -0.02106997, 0.05182938, -0.05381340, 0.05174267, -0.04983376, -0.07876991, -0.02599282, 0.04692462, -0.01882331, -0.03327161, 0.01845992, -0.02206059, 0.01735081, -0.08763613, -0.01991965, 0.07293075, 0.07618148, -0.09792989, 0.02030577, 0.06064238, -0.00212836, -0.04271106, 0.08008026, -0.08278949, -0.09113713, 0.02684217, -0.09905250, 0.01347588, 0.04038556, -0.03741202, 0.02881175, -0.08648254, -0.04124650, 0.04074560, 0.05076117, -0.08958998, 0.08710893, 0.09046938, -0.09632103, 0.04596198, -0.10683087, -0.04443150, 0.02249122, -0.09178434, 0.01962028, -0.02116465, -0.06373259, -0.10772412, 0.08504773, -0.00661352, 0.08360986, -0.09556653, -0.00563679, -0.02018600, -0.08405904, 0.00911267, -0.04981632, 0.05202929, 0.06464426, 0.02550328, -0.01596878, -0.02345156, -0.02373291, 0.09870929,
  -0.03602970, 0.06328698, -0.04927751, 0.00295270, 0.06173207, -0.02327548, -0.11149305, 0.05691433, -0.03887280, 0.03636397, 0.06945561, -0.13059314, -0.09404907, -0.01525263, -0.08513592, -0.00699135, -0.10068598, -0.03023887, -0.02250705, 0.07073890, 0.05502372, -0.00759944, -0.09234115, 0.05804307, -0.06186343, -0.03621714, -0.06261272, -0.04211535, -0.07390584, -0.00291947, -0.07895957, -0.06591794, -0.01333352, -0.01729341, 0.03293172, -0.03852482, 0.03678628, -0.02109980, -0.09945159, -0.03789718, 0.04511417, -0.06992880, -0.07328212, -0.01474916, -0.02533037, -0.13124911, -0.07171101, 0.03645311, 0.10427517, -0.00207120, -0.08739019, -0.04066535, 0.08307936, -0.00818022, -0.10447620, -0.07597594, 0.02232733, 0.08887739, 0.01732409, -0.11991038, 0.00332722, 0.06818532, -0.01498936, -0.19041397, -0.00856689, 0.03924200, 0.02019574, -0.02586458, -0.06683284, -0.02552061, -0.06629757, 0.02081852, 0.01210846, -0.13931687, 0.01366396, 0.01906798, -0.05244990, -0.07461918, -0.05112638, -0.08494787, 0.08197231, -0.07082326, -0.03575179, -0.11877542, -0.07508897, -0.02840747, 0.04063013, 0.09142581, 0.06561111, 0.04165709, 0.08492561, 0.03272387, -0.13855973, -0.07972590, -0.07981005, 0.01046543, -0.08662263, 0.06057624, -0.08100158, -0.07602043, -0.06515627, 0.02191277, -0.04433168, 0.02761100, -0.01147539, -0.10486317, 0.05182141, 0.13456818, 0.04752592, 0.06314491, -0.07032593, -0.04599215, 0.01846262, 0.00874986, 0.04629147, 0.03615826, 0.01887690, 0.03347321, -0.09157652, -0.00230972, -0.02983801, 0.10591942, 0.06457532, 0.01386044, -0.17053834, -0.03077101, 0.01266633, 0.01851371, -0.12701707, 0.07940847, 0.05652215, -0.07655471, 0.03792173, 0.02647476, 0.06261898, 0.00626653, -0.02388352, -0.15922925, -0.01308330, -0.00470517, 0.03338830, -0.00364724, -0.01600903, 0.02543930, -0.06952334, -0.12010667, -0.00787831, 0.06766500, 0.10066687, 0.05461130, -0.04169782, -0.02549947, -0.03735308, 0.04776474, -0.09010851, -0.07655705, -0.00377677, 0.06869949, 0.00978679, 0.03963949, 0.15313432, 0.04183607, 0.09520508, -0.03382649, -0.15154758, 0.00826052, -0.08896487, -0.00408128, -0.06501655, 0.08602235, -0.09017704, 0.07263695, -0.05395502, 0.14536971, 0.12229708, 0.00096407, -0.09099577, 0.03169019, -0.02548446, -0.03610181, -0.02948121, 0.07023916, 0.08920158, 0.05634663, 0.09554172, 0.06154870, 0.02028402, 0.14908043, -0.03180603, 0.02023906, -0.05727356, -0.16410971, -0.03007556, -0.13675918, -0.11362500, -0.07170414, -0.03885004, 0.03110190, 0.10305864, 0.04314670, 0.13869672, 0.02926440, 0.01068145, -0.09845372, -0.14363366, -0.10931459, -0.06928831, 0.04178010, -0.06775661, -0.02800422, -0.05461532, -0.02874872, -0.06404039, -0.05160240, 0.10159788, 0.08679913, -0.13717221, -0.06235036, 0.02840887, -0.05622860, 0.06214679, -0.00640150, -0.05953910, -0.03702318, -0.08994383, 0.09783308, -0.03345015, 0.09217066, 0.00891651, 0.01979521, -0.09822188, -0.05201228, -0.10696603, -0.09783478, 0.04846835, 0.08501565, 0.08419494, -0.10033438, 0.06265680, 0.05289862, 0.07524620, -0.01383950, -0.10674281, -0.12344008, -0.09301722, 0.02518171, -0.06411085, -0.03259485, 0.01757570, -0.03525922, 0.06438795, -0.06755982, 0.11438349, -0.05301491, -0.00770820, -0.09770344, -0.04453793, -0.06209153, -0.10295744, -0.02601768, 0.01923468, 0.06280187, -0.08789008, -0.11338104, -0.08654175, -0.02091435, -0.02531509, 0.06548205, -0.02578838, -0.10571455, -0.06963009, 0.02120860, 0.00315288, 0.08192195, 0.04028477, 0.03138016, 0.05876664, 0.00417877, 0.12573507, 0.10032328, -0.03031237, 0.10014803, 0.05634499, 0.06264219, -0.06795166, 0.06338046, -0.01451389, 0.08008929, 0.05581750, 0.00036282, -0.00892024, 0.10059948, -0.06937695, -0.02000624, -0.00262087, -0.04904427, 0.00465462, -0.05338552, -0.05556542, 0.00856926, -0.03927637, -0.04404991, 0.01270395, -0.02298096, 0.07097397, 0.07415058, 0.02084032, 0.04793026, -0.01540637, 0.00038438, 0.05616200, 0.01247059, 0.01646233, 0.12012855, 0.02664967, -0.04749191, 0.03713937, -0.01621270, 0.05766114, -0.06055583, -0.02659625, -0.09746752, 0.07002238, -0.03118586, -0.05952874, 0.01199946, 0.06780376, 0.07382172, -0.02202969, -0.00186614, 0.00720230, -0.07064012, 0.04290383, 0.01777020, 0.03926790, 0.13424061, 0.04385645, 0.04985724, 0.08302452, 0.01926036, 0.09398312, 0.03453866, 0.01665833, -0.04886299, -0.10289308, 0.07735171, -0.02887345, -0.04756632, 0.05278269, -0.05634983, -0.04356693, 0.07549241, -0.03869624, -0.00323622, -0.02466183, -0.08072843, 0.06285936, 0.03585064, 0.01863568, -0.05255090, -0.03804073, -0.01481827, 0.00416993, 0.00025000, 0.14213966, 0.12199628, -0.07615063, -0.10224730, -0.05028816, -0.10175932, 0.07203554, 0.07200557, 0.02315524, -0.02102358, -0.03261446, -0.08603091, -0.09389228, 0.06083253, 0.02174947, -0.01066801, 0.01942639, 0.00527484, 0.06033915, -0.04485987, -0.08438357, -0.00006867, -0.07160609, -0.07789639, -0.09417772, -0.00037993, 0.10931472, -0.05075014, 0.01309577, -0.11538849, -0.08402602, -0.04856652, -0.02196554, -0.05534501, -0.01764662, 0.06151439, -0.03012459, 0.04662672, 0.07602298, 0.09065186, 0.09165070, -0.01602750, 0.02529337, -0.01247959, -0.05512393, -0.06036650, -0.07530674, 0.01227567, -0.10520398, 0.07758555, -0.11750954, 0.01033357, 0.01307299, 0.09605952, 0.07813985, 0.01647217, -0.04970604, -0.01958996, -0.04346399, 0.06730315, -0.08280767, -0.10160880, 0.02060175, -0.11185670, -0.07672256, 0.12153211, 0.07337435, 0.05122316, -0.11420462, -0.00318301, 0.00930282, -0.01606788, 0.05116268, 0.10158102, -0.07934602, 0.08027615, -0.02850943, 0.00517006, 0.03990405, -0.01191111, 0.05949891, 0.01455365, -0.00599498, 0.04457358, -0.03980072, -0.02757597, -0.02272376, 0.00776090, 0.07813985, -0.14114754, -0.00825626, 0.10169418, 0.02245169, -0.02264619, -0.05038750, 0.04876534, -0.05721040, -0.09015971, -0.08401909, -0.10250044, -0.01040670, -0.09633279, 0.04266337, -0.10516853, 0.11847980, 0.09208719, -0.05941867, -0.06220817, 0.01280403, 0.06318975, 0.04481643, -0.08609450, -0.01005924, -0.00735779, -0.00004633, -0.06370677, 0.04981371, 0.07784599, -0.01692509, 0.03384576, -0.02691789, 0.02281890, 0.04798998, -0.07931167, 0.01274117, -0.03386440, 0.03440724, -0.10606772, 0.00614611, -0.01178861, 0.02809305, -0.03035130, 0.05746411, -0.06446134, 0.04723199, -0.07127692, 0.08098248, 0.06478629, -0.08773919, 0.01629036, 0.07958696, -0.06290956, 0.01319908, -0.07404139, 0.03325730, 0.07575336, 0.02382797, 0.00232757, -0.05187482, 0.03218238, 0.02176705, -0.04984874, -0.07881905, -0.07943933, -0.11386424, -0.06586809, 0.03635711, 0.04729979, 0.00254058, -0.06807805, -0.05049310, -0.01390340, -0.09142883, -0.11203218, 0.00943875, -0.01970524, 0.00454364, -0.16194631, -0.01699918, 0.03873564, -0.05565803, -0.03098481, -0.10412414, -0.09621744, 0.07968364, 0.06226306, -0.10283478, -0.09480093, -0.05623165, -0.01862648, -0.05279683, 0.01052229, -0.06421520, 0.00094433, 0.06062435, 0.04988280, -0.11219138, -0.08403872, -0.04014249, -0.02024687, -0.06216690, -0.07939275, 0.04372326, -0.04972204, -0.07542950, -0.00056601, 0.08816295, -0.07714258, 0.00553516, -0.07531086, -0.09261949, 0.00410415, -0.01117434, -0.05364165, -0.05946723, -0.03349242, -0.08070424, -0.08792184, 0.09397884, -0.00752188, -0.07810395, -0.10496964, 0.05175542, -0.05745200, -0.02732795, -0.01762627, 0.03541701, -0.02653917, -0.09408848, -0.11984254, 0.04779507, -0.05148127, 0.03769829, 0.09553707, 0.08430760, -0.07846089, -0.06538912, -0.08671518, -0.08677896, -0.08882824, 0.00546649, 0.06661573, -0.12784687, -0.06163264, -0.02101217, 0.00055437, 0.05087857, 0.06617258, 0.00563396, 0.04489278, 0.03726458, -0.08606305, 0.05812153, 0.05109470, -0.01587607, -0.15664168, 0.05518927, -0.06653640, -0.04879227, -0.09585866, 0.03671092, 0.06564043, -0.04324255, -0.06431697, 0.03299250, -0.10216205, 0.00695035, 0.07505768, -0.16982158, -0.09708343,
  -0.08892269, 0.08683550, -0.06123597, -0.02094658, 0.06027723, 0.10398152, -0.02085527, -0.01032875, -0.03660109, 0.09196793, -0.04528499, 0.10889523, -0.05659748, -0.06729800, 0.04696278, 0.05332044, 0.08702391, -0.01011752, 0.02406820, -0.06111901, 0.00439045, -0.01024942, 0.04713973, 0.02113656, 0.12645669, -0.00539555, -0.08487672, 0.05269187, 0.02289793, 0.11343208, 0.00936819, 0.07177314, 0.05026285, 0.08182881, 0.02122499, 0.04963561, -0.07359400, -0.05363598, 0.06439149, 0.03578368, 0.10233291, -0.06147448, -0.03256306, -0.03026395, 0.03030659, -0.02176427, -0.03845231, 0.02599366, 0.01067958, -0.03796978, -0.01037550, 0.06416865, 0.03089849, 0.02212724, 0.04115346, -0.00346986, -0.04923141, 0.12855671, -0.03012714, 0.01586531, 0.08603264, -0.06082811, 0.07347418, -0.01405821, 0.04448307, 0.05387239, 0.05859194, 0.08941209, -0.04854556, 0.07814233, -0.02269512, 0.03031207, -0.04958726, 0.07673389, 0.08382469, 0.08978664, -0.02127887, -0.03790789, 0.04250463, -0.01681523, 0.00835810, 0.10184281, -0.03818861, 0.08329473, 0.11290497, 0.09566452, 0.05210247, -0.04686022, 0.04405849, 0.09547739, 0.08056484, -0.08228049, 0.06508028, -0.01044825, -0.03223465, -0.01367394, 0.10326912, 0.03970548, 0.04869022, 0.08511548, 0.07132576, -0.03753782, 0.05312325, 0.07419080, -0.00695563, -0.06435793, 0.06340861, -0.01625530, 0.06160187, 0.13391498, 0.01121092, 0.07778026, -0.07481623, -0.04965370, 0.05993396, -0.05951665, -0.04371250, -0.03086696, 0.09209517, -0.03141170, 0.02537245, -0.02904223, 0.04202263, 0.09022641, 0.09160253, 0.09807617, -0.00292620, 0.10490336, 0.06636449, 0.06325840, 0.08921962, -0.04162817, -0.05484782, -0.02150563, 0.09941449, 0.10571809, 0.06982850, -0.00541476, 0.04736929, -0.06804277, -0.03961693, -0.02800793, -0.01977711, 0.05207813, 0.03487309, 0.06052282, 0.08043468, 0.01022672, -0.04901734, 0.09661837, 0.03341662, -0.09369351, 0.09925807, -0.02613763, 0.08658847, 0.02080839, 0.07235353, 0.05863810, -0.00017580, -0.02252548, -0.04690826, -0.07492104, 0.02615299, 0.04379877, 0.02642437, 0.00628841, -0.04892876, 0.03157761, -0.02786350, 0.06053353, 0.06711500, -0.09825724, -0.01964547, -0.04833018, 0.03104225, -0.00098540, -0.02050167, -0.01432287, 0.07642146, -0.09638172, 0.07017930, 0.05597933, -0.05694803, -0.01388776, 0.02539458, 0.06592469, -0.03375251, 0.07252861, -0.00919222, -0.06217175, 0.03183249, -0.07064315, 0.03850503, 0.00517923, 0.05720111, 0.02881069, -0.10102008, 0.02253301, 0.02294256, 0.01741498, -0.02590871, -0.09374154, 0.07367344, 0.07767095, 0.04187936, -0.04971131, -0.07637162, -0.00337286, 0.07902099, 0.00297438, 0.02523164, 0.02742425, 0.05219005, 0.09485239, 0.07340015, -0.01595813, -0.04709293, 0.07624019, -0.05033385, -0.01711499, 0.00285038, 0.00134389, 0.02747864, 0.06843987, -0.06918781, 0.02730359, -0.07300809, -0.08519837, -0.08622188, 0.01372879, -0.06453791, -0.05938997, -0.05163312, 0.00097717, 0.08725766, -0.00796568, -0.08428940, -0.09239916, -0.03252738, -0.05648247, -0.00008060, 0.02294001, -0.03705213, -0.02472265, 0.07274143, -0.06632683, 0.03612730, 0.00624275, 0.07164901, -0.07314777, 0.07635556, 0.08021604, 0.04049183, 0.06265818, 0.04945147, -0.06700623, 0.07963382, -0.05161135, -0.08645041, -0.01369872, -0.00714150, -0.05129610, -0.03837760, -0.08646661, 0.00180525, 0.01988138, 0.02030051, -0.08398142, 0.08314322, 0.02616694, -0.01678333, 0.05462673, -0.08937696, -0.06092363, 0.05241834, -0.04522140, 0.00985017, -0.03020994, -0.00548088, -0.06488526, 0.00179477, 0.06138625, 0.00808351, 0.05198565, 0.03823169, -0.00256450, 0.03895374, 0.05422084, 0.04032006, 0.07342421, 0.01904839, 0.08533604, 0.05142406, 0.04072205, -0.09497900, -0.08946837, -0.04040471, 0.01575506, -0.07929872, -0.08209414, -0.09493989, 0.08066400, 0.00048530, -0.04817357, -0.00620266, 0.02120990, -0.05853621, 0.00146772, 0.02956518, 0.04071931, 0.04198484, -0.09469483, -0.08198901, 0.04244580, 0.04394793, -0.02767720, 0.00036975, 0.01592811, -0.01880668, 0.02790059, 0.04869543, 0.01951987, -0.07127006, 0.06217879, -0.08748618, -0.00353945, 0.07907723, -0.06560196, 0.06494026, -0.02134300, -0.03009260, 0.07691662, 0.06006571, -0.04814131, -0.03613700, 0.07617437, -0.02908180, 0.06618286, 0.03623924, -0.05178962, -0.01268233, 0.08130036, -0.01195755, 0.02420767, -0.07626136, 0.10576386, -0.02362744, -0.00768963, -0.04579449, 0.09158625, -0.00453623, 0.00621515, 0.05273289, -0.09165778, 0.08240243, 0.08460873, -0.05411063, 0.07147596, -0.02348894, 0.02400111, 0.05090800, -0.01047753, 0.08664325, -0.07624162, 0.02098622, 0.05201535, -0.05367496, 0.05849610, 0.00638160, 0.02089805, -0.05801830, 0.01000908, 0.09102432, 0.03203402, 0.04395750, 0.00672406, -0.06841758, 0.04805494, -0.04866347, -0.01887045, -0.06162038, 0.04760190, 0.05017987, -0.01745169, 0.01763174, 0.09248927, 0.07727604, -0.02014980, -0.04044004, -0.03509332, -0.06870741, 0.01949266, 0.02478488, -0.01961313, -0.08585020, 0.01756348, 0.08081961, 0.02249606, -0.08906099, 0.08027019, -0.08082894, 0.04928470, 0.02414305, 0.03475980, 0.05673827, -0.05502583, 0.05990410, 0.03644529, -0.04521317, 0.00892973, -0.03041423, 0.03655658, 0.01824268, -0.05712781, -0.01102739, -0.00579754, -0.05366592, 0.06796733, 0.04251097, 0.01002029, -0.02433559, 0.06060474, 0.00377717, -0.03956375, 0.07733526, 0.05924361, 0.03680841, -0.05352120, -0.06771773, 0.02836928, 0.06029202, -0.01375104, 0.09111010, -0.02063004, 0.04425714, 0.04344703, 0.00785022, 0.07103133, 0.08332320, 0.00659533, -0.05084268, 0.00520906, -0.00372775, -0.00700503, 0.07453594, -0.03086274, -0.07243294, -0.07387709, -0.07807399, -0.04520846, 0.06790388, 0.08462715, 0.09763261, 0.07670308, -0.02748542, 0.08859945, -0.03940546, -0.07982495, 0.08994710, 0.01166651, 0.06818156, 0.02909582, -0.04350873, -0.07886549, -0.08240978, 0.06759077, -0.03413815, 0.04376245, -0.04128698, -0.02361276, -0.01210215, -0.07148308, -0.02455145, 0.00644519, 0.10806462, 0.07980147, 0.03474118, -0.06224569, 0.07897122, 0.06175631, 0.07621776, 0.05754777, 0.01256875, -0.03550731, 0.06202459, -0.06902549, 0.03175411, -0.07937069, -0.03987269, -0.03760967, -0.08732512, 0.09318154, 0.05895502, -0.05585512, -0.06861851, -0.02781070, 0.06699453, 0.05780174, -0.02115799, 0.01182933, 0.03055338, 0.06084072, 0.10402608, 0.00406679, -0.04145161, -0.00644175, -0.01046195, 0.10260873, 0.07801570, 0.01644836, 0.08191459, 0.03292124, -0.06614701, 0.06273365, 0.06163888, -0.06882538, -0.01244822, 0.06408636, 0.11482606, -0.05605754, 0.00820602, -0.02937616, -0.02416098, -0.05785602, -0.02985481, 0.03320298, -0.02807119, 0.05130511, -0.01326743, 0.08587615, -0.08331107, -0.04439974, -0.06555163, 0.02207750, 0.05031370, 0.09051938, 0.07176725, 0.06024371, 0.08344237, -0.04277854, -0.01616119, 0.05717046, 0.06056331, 0.01604543, -0.04695673, -0.04771235, -0.02768063, -0.00790395, 0.02250345, 0.04820037, 0.06762864, -0.02257821, 0.01244426, 0.08762810, 0.02417510, 0.05969505, -0.05336098, 0.02869690, 0.09130289, 0.05945656, -0.05755644, 0.04589658, -0.00402873, 0.00090990, 0.03352724, -0.04274725, 0.04394558, -0.04735423, 0.07342435, 0.01400301, 0.03460552, 0.00629887, -0.01587559, 0.06013685, -0.03195159, -0.03111011, 0.07690240, -0.01675572, 0.10848450, 0.05964991, 0.03488588, 0.08528907, 0.09654351, 0.12749688, 0.03863122, -0.06735066, 0.08041473, -0.03322523, -0.02959889, -0.04653732, 0.04720249, -0.04787148, -0.00963853, -0.05624562, 0.06414554, 0.06076485, 0.01824379, 0.06678785, -0.01684885, 0.02322321, 0.02643668, -0.07766608, 0.05909424, 0.03919406, 0.06162789, -0.03458698, 0.07908817, 0.03840673, -0.08341696, 0.10520081, -0.01341546, -0.01206447, -0.06144935, 0.05395183, 0.01358122, -0.05986748, -0.02511757, -0.00250606, 0.10392308, 0.01121106, -0.01773762, 0.07045547, 0.13168387, 0.04178284,
  0.05659245, -0.07227877, 0.08849996, -0.00804409, -0.07051281, -0.07403913, 0.01978979, 0.07873007, -0.10212449, 0.07960176, 0.02135105, -0.01436820, 0.00209242, -0.06546730, 0.04936860, 0.00430505, -0.01649955, 0.03457563, 0.02209626, -0.07704561, -0.01232623, -0.05051806, 0.09048633, 0.04244761, -0.07856558, 0.01792958, 0.05838447, -0.01672280, 0.00825175, 0.00424152, -0.02554630, -0.06237281, -0.00679594, 0.10650951, 0.03825238, -0.01235752, -0.07409564, -0.10127237, 0.10036694, -0.05865299, -0.04906210, -0.03471667, -0.08512180, -0.07607043, -0.03612947, -0.02489129, 0.12506548, 0.10147025, 0.09384106, -0.10297260, -0.07517343, -0.06131426, -0.08934762, 0.04440398, -0.00214849, -0.10389918, 0.01009670, -0.05538437, -0.05284863, 0.09589417, -0.00611302, -0.01226750, -0.07776330, -0.08628661, 0.00912967, -0.05209434, 0.07765198, -0.01011217, 0.02281616, 0.06283702, -0.01653503, 0.01070557, -0.02031197, 0.05916906, -0.08480780, 0.06157287, 0.00884095, -0.06317580, -0.01558709, 0.11625759, -0.10011638, -0.04800894, -0.03084867, 0.05217313, 0.07245786, -0.00746460, -0.07893066, -0.05695141, 0.01045331, -0.00296274, 0.06136005, -0.04327519, -0.00045157, -0.08263043, -0.03651159, 0.00939348, -0.02611482, 0.05873261, -0.01124418, 0.01691006, -0.06223249, -0.06172914, -0.05699743, -0.03661603, -0.04760023, -0.00065323, -0.04830877, 0.06176163, -0.03224178, 0.00467829, 0.08572544, 0.07002871, -0.03287143, -0.02671846, 0.04920540, -0.05815873, -0.00452574, -0.02431878, -0.08263454, -0.08597603, -0.03594876, -0.07822009, -0.00676873, 0.07998803, -0.01381183, 0.07915665, -0.06025349, -0.05231662, -0.04987571, -0.02280926, 0.06466324, 0.09450319, 0.09269091, 0.03206138, -0.04198766, -0.03196859, -0.04455109, 0.06498903, -0.05934292, -0.03730050, 0.06514820, -0.04182989, -0.07625429, 0.08386699, 0.07874311, 0.00945723, -0.02894023, 0.01286750, -0.05340217, 0.02945118, 0.08600518, -0.01061227, -0.05681198, 0.01113183, 0.01590598, 0.04707151, 0.07229102, -0.05207570, 0.03670418, -0.04402364, 0.04710565, 0.03254397, -0.01467524, 0.10444897, -0.06874049, -0.06659397, 0.02262633, 0.08403113, 0.07079813, 0.08477362, -0.04592123, -0.03086893, -0.09550123, -0.06690697, -0.01390490, -0.03226534, -0.05364649, -0.05858108, 0.04956711, 0.00713520, -0.08503269, 0.04920437, -0.08182579, 0.07147951, 0.02586520, 0.05041082, 0.00439577, -0.07437113, 0.02515792, 0.03702540, 0.06925589, 0.00135788, 0.06198540, -0.06232657, -0.01685913, -0.03426350, -0.01286617, -0.00556667, -0.11937476, 0.02808296, -0.08668406, -0.08399031, 0.03795893, -0.05411382, 0.07930060, -0.06396641, 0.07474940, -0.02265423, -0.01603599, -0.06792725, 0.07172274, -0.02093967, -0.07260502, -0.03943822, -0.04955053, 0.04477955, -0.05994510, 0.00565333, -0.08621415, 0.00166280, 0.07160610, 0.08020789, 0.00855494, -0.05900272, -0.02957712, -0.02787202, -0.07433148, -0.08378728, 0.05578766, 0.00775372, 0.07885803, 0.05163671, 0.09045084, 0.05405803, -0.03496794, -0.05534353, 0.07481800, -0.04151672, -0.03203173, -0.10272932, -0.02064403, 0.00303050, -0.03672374, 0.02992838, 0.09192194, 0.09696646, -0.05694106, 0.08129081, -0.06901754, 0.00907050, -0.03054764, -0.06288858, -0.05498329, 0.03806940, 0.02557996, -0.03807474, 0.08421890, -0.01572918, -0.01806594, -0.04198442, -0.06354026, 0.01815219, 0.02303895, 0.05161840, -0.10358397, -0.03907545, -0.03450181, -0.08364820, 0.04466401, 0.13744284, 0.06240256, -0.00766582, -0.06272101, 0.07071735, 0.09310947, -0.03636044, 0.02074859, 0.01377795, -0.04711360, -0.03797805, 0.05802929, -0.05578555, 0.02654020, 0.01570511, 0.11673028, -0.07001404, 0.03459823, 0.05948002, -0.02872881, 0.06670237, -0.07400503, 0.04545983, -0.05720611, 0.07616361, 0.04854065, 0.03705654, -0.03448353, 0.11608452, 0.00697151, -0.04113791, -0.01842390, 0.09935093, -0.00172518, 0.04476424, -0.07481718, -0.08852635, 0.08471104, -0.06331372, -0.00456177, 0.13179246, 0.10404504, 0.06969438, 0.06081441, 0.04995428, -0.00461508, 0.04291530, -0.00192143, -0.03677666, 0.04642167, -0.03484854, 0.03510759, -0.02079676, -0.02201000, -0.01200254, -0.07838808, -0.05520834, 0.04861127, 0.05186245, 0.08079962, -0.07247856, 0.02643365, -0.01753168, -0.00700132, 0.08334426, 0.09817369, 0.09868233, 0.08485547, 0.06327976, 0.06614677, -0.03453848, 0.02488573, -0.02318139, -0.09554921, 0.04332114, 0.08300509, 0.04834371, 0.07880153, 0.13441417, 0.08928149, -0.05073520, -0.07230593, -0.06951688, 0.04914817, -0.00229024, 0.09826841, -0.04844703, 0.05845688, 0.01179843, 0.05404223, 0.08223166, 0.00636096, -0.06582300, 0.01441550, 0.08688431, 0.09116589, -0.10155278, 0.08800443, -0.04200711, 0.05371134, 0.01917684, 0.01118661, -0.07980131, -0.06373592, 0.05095974, 0.09305049, 0.05137332, 0.07572201, 0.03189191, 0.01523210, 0.09752637, 0.13924812, -0.01604529, 0.06134755, -0.05986593, -0.01121099, -0.02856516, 0.09017421, 0.06189882, 0.10906030, -0.01911330, 0.02660109, -0.06113553, 0.01332174, 0.10397788, 0.01666796, -0.01451961, 0.03341231, -0.05519019, 0.01467241, 0.01656240, -0.04361166, 0.05216654, -0.08363735, 0.09418837, -0.06578724, -0.01541436, 0.03158081, -0.06013155, 0.08295903, 0.01703073, 0.08033196, 0.07437876, 0.06614966, -0.03630534, 0.04335218, 0.02641456, 0.04705712, -0.09763769, 0.10605576, 0.07558904, 0.10502841, 0.08922481, -0.01178662, 0.06382153, -0.01086121, 0.04229954, 0.01001326, 0.06967496, 0.00128861, 0.08035828, 0.07681409, 0.01476410, 0.08095919, 0.11086335, 0.02472159, 0.06145148, 0.07151766, -0.03974337, 0.03575491, -0.05979334, -0.07723194, -0.07641778, 0.04089733, -0.10501429, 0.03831032, 0.00687426, -0.04518495, -0.01276428, 0.08675265, 0.03860149, 0.01890525, 0.05936643, 0.05858277, 0.06982698, 0.07075308, 0.06785145, -0.06626276, 0.05804221, 0.12848613, 0.01555300, -0.02403886, -0.01530323, -0.09437080, -0.06609695, 0.02373840, -0.07486668, 0.00432164, -0.06574395, 0.01948872, 0.05704051, 0.03202804, 0.04356803, 0.00384901, 0.04760520, 0.01153002, 0.00953481, -0.01685548, -0.02426644, 0.06793706, 0.03793431, -0.04939835, -0.05395281, -0.02243894, 0.02482250, -0.01684312, -0.00031991, -0.05644654, 0.08764315, -0.03484722, 0.06798307, 0.07172220, -0.06472089, 0.10993192, -0.04516323, 0.04278514, 0.01999563, 0.00570511, -0.06494732, 0.07546939, -0.05891732, -0.02006860, 0.04248159, 0.11978892, -0.00600463, -0.10166176, 0.01242711, 0.06339511, -0.02917960, 0.06323981, -0.08225670, -0.00891543, 0.05442692, 0.04223209, -0.07993126, -0.05874474, -0.04427024, 0.00426566, -0.05448363, -0.11245368, 0.02026666, -0.03441444, 0.04522815, 0.08412090, 0.02976869, 0.02899255, 0.00804152, 0.06173176, -0.04980180, 0.03366369, -0.01518492, -0.03478518, 0.05962000, -0.02333750, -0.00838502, -0.12298292, 0.04073377, 0.00584874, 0.03345528, -0.06132759, 0.04229553, 0.04871953, -0.01735846, 0.03626332, 0.08713107, -0.00926211, 0.05227286, -0.04599547, 0.07267080, -0.02124864, -0.04313977, -0.03412295, -0.05408588, -0.05072972, 0.01181801, 0.00800428, -0.06983974, -0.06135107, -0.05351141, 0.06072652, -0.07085798, -0.08668178, -0.05281638, -0.04339464, 0.05867140, -0.01854536, -0.02118964, 0.09006343, -0.07023884, 0.06717199, 0.07765172, -0.01233521, 0.03185112, -0.00382385, -0.08647429, -0.10072254, -0.04381801, 0.08348086, 0.08472167, 0.01024841, -0.07852817, 0.06559563, -0.00543617, -0.05973548, -0.02283242, -0.00186985, 0.06046409, 0.05031184, 0.00347170, 0.01327722, 0.04558969, -0.03789641, -0.03364991, 0.01638655, 0.05453335, -0.07456238, 0.08102221, 0.00017702, -0.02883143, 0.07269495, 0.03236741, 0.07685749, -0.06726602, 0.08922472, -0.01883072, 0.02050542, -0.04359798, -0.07238803, -0.05854417, -0.08412270, 0.00838592, 0.02954709, -0.06893755, -0.10221414, -0.09196340, -0.02562498, 0.03245763, -0.05984768, -0.07821713, 0.00615823, 0.03563007, -0.01919423, 0.00049947, -0.00759374, -0.00612650,
  -0.08627821, 0.04087625, 0.02444172, -0.07144959, 0.06980864, 0.08089110, -0.06082918, 0.00500691, 0.13273349, 0.05951911, -0.08356468, 0.03564763, -0.04206390, -0.08010878, -0.05365046, -0.08280448, -0.03119416, -0.03984152, 0.09373342, -0.04027006, -0.10649863, 0.06095798, -0.02869555, 0.01885856, -0.05674661, 0.06481806, -0.01151530, 0.05379612, 0.01544278, -0.03718932, 0.00066594, 0.02653551, 0.07669166, 0.04103681, 0.10239533, -0.03342533, 0.00140455, -0.02614684, 0.00751134, 0.08025339, -0.06782774, -0.06797728, 0.07714699, -0.02605970, -0.01860080, -0.01115272, -0.01474059, -0.06564357, -0.09182969, 0.00730554, -0.01717222, 0.00865192, -0.08476676, 0.07969677, 0.07885075, 0.11513954, 0.08192360, 0.01968067, -0.05884352, 0.01688968, -0.00597475, -0.05573210, 0.06556186, 0.08263920, -0.06813412, 0.01789333, 0.02505018, 0.02476530, -0.06826039, 0.08470841, 0.06832012, -0.03296064, 0.03494066, 0.00372239, 0.00219347, 0.05358233, 0.05808466, -0.08115590, 0.01755820, 0.08677073, -0.09191573, -0.00724761, -0.08405161, 0.10079669, -0.06782102, 0.03418779, -0.02306974, -0.07021163, 0.01515719, -0.05065884, 0.01850799, 0.06020362, 0.00117870, 0.05962645, 0.05538679, 0.10923089, -0.04753835, 0.00817539, -0.07767294, -0.04377986, 0.07709223, -0.07274831, -0.03907286, -0.07976408, -0.05379569, 0.04622161, -0.00304353, 0.08287362, 0.07942414, 0.01827135, 0.07291519, 0.02703319, 0.10180664, 0.05645271, 0.09684763, 0.09390964, 0.08304136, -0.07960879, -0.07658484, 0.05231856, -0.12873212, -0.11135921, 0.02513796, -0.09498730, -0.02240368, -0.01919127, 0.00376167, 0.01397655, 0.08871591, -0.05103491, -0.04901598, -0.02964582, -0.02317285, -0.06484672, 0.02457431, -0.05496591, 0.06097316, -0.07098547, -0.02815447, -0.01833952, -0.06103460, -0.02699104, -0.00473538, -0.03799896, 0.00184668, -0.05854214, 0.04694765, -0.03477589, 0.02119341, 0.04883449, -0.02684968, 0.01779708, -0.06310239, -0.00049608, -0.09829697, -0.00400246, 0.06444804, -0.01734484, -0.01098633, 0.07003967, 0.01226422, -0.04952888, 0.05011437, 0.11216063, 0.06645054, -0.08294243, -0.09456067, 0.01195558, 0.06517301, -0.02216709, -0.10552610, -0.04161608, -0.11357494, 0.01002618, 0.09964573, -0.09566387, -0.04758992, -0.09113103, -0.10565048, -0.10037928, -0.02542550, 0.06633759, -0.10186045, -0.07333381, -0.01255002, -0.11102878, -0.09594072, -0.00231040, -0.04308473, -0.01964848, -0.05407395, 0.05765121, -0.04340136, 0.03315742, -0.06065396, -0.06756380, -0.02851256, -0.05842412, -0.07949597, -0.04872345, 0.03397611, -0.02401499, 0.01048985, -0.07466400, -0.06511164, 0.06833521, 0.01310959, -0.03964388, -0.10970434, -0.00686195, -0.06248103, -0.04016506, 0.01536793, 0.07535740, 0.04007876, 0.00863728, 0.04228640, -0.06661134, 0.04895913, 0.03804943, 0.09367415, 0.04106778, -0.08768410, 0.00425424, -0.02562361, 0.13655740, 0.12863992, 0.10172346, -0.09396653, -0.08868715, -0.03564924, -0.11526104, 0.02476847, 0.10382823, -0.03642445, 0.00687623, 0.03411952, 0.02377492, 0.12939095, 0.07796150, -0.06586391, 0.03453911, 0.06901737, 0.03891558, -0.07274304, 0.04253181, 0.01731918, 0.02071064, -0.01220192, 0.01821420, 0.03465853, 0.06766582, 0.05453284, 0.05528945, 0.01624826, 0.04353457, -0.03286368, 0.07321851, -0.00401308, 0.10533898, -0.08423838, 0.00034496, 0.05444507, -0.05142752, 0.01834342, 0.01018889, -0.05984979, -0.00067374, 0.03291512, -0.05746878, -0.01532521, -0.07647693, 0.07112638, 0.09320692, 0.08018753, 0.06563958, 0.03248085, 0.05026060, 0.11557934, 0.05445934, -0.04329727, -0.07488377, -0.01156984, -0.10126625, -0.02849194, 0.00030313, 0.04960221, 0.05963044, -0.04906353, 0.09489922, 0.07748266, -0.01386318, 0.04826560, -0.10225187, -0.09983063, -0.07492752, -0.00158272, 0.00787095, 0.08131839, 0.06728235, -0.05860626, 0.00427380, -0.05006757, 0.12491191, 0.12573838, 0.01009012, -0.12890457, -0.01115469, -0.11304366, -0.07714844, -0.06891759, 0.09440343, -0.03127898, 0.11241120, -0.06497317, 0.07921261, 0.15708034, 0.04317211, -0.01727546, 0.00023642, -0.06169539, -0.08750851, 0.04752737, 0.09738494, 0.03405176, 0.08405313, 0.07988906, 0.03969211, -0.04328236, 0.06348076, 0.11414891, 0.01041514, 0.01308027, -0.09742618, 0.02028971, 0.03225681, 0.09521139, 0.08241664, -0.08746184, -0.07539870, 0.10868675, -0.00367925, 0.07524401, -0.03537424, -0.05013286, -0.13508943, -0.11450976, -0.07549307, -0.07374642, 0.02910179, 0.00965838, -0.04399774, 0.00926491, -0.00036025, 0.02709584, -0.01840485, 0.14216335, -0.03499584, -0.03779993, -0.07321802, 0.03043469, -0.06551195, 0.03780050, -0.00128255, 0.01866001, 0.04716778, -0.05297720, 0.02853308, 0.03906909, 0.01773491, 0.03515553, -0.10575800, -0.08144892, -0.11650491, 0.05556005, -0.12356597, 0.07771920, 0.07648820, -0.01745340, 0.08790763, 0.02827465, 0.00643899, 0.06692145, 0.03111365, -0.12036966, -0.01901951, -0.07413669, 0.05410755, -0.01938412, 0.07870932, -0.03589820, 0.09035692, 0.05075244, -0.01803068, 0.03793330, -0.00184076, 0.04772593, -0.01973699, -0.05561487, 0.07123652, 0.07426185, -0.11313448, 0.00518274, 0.09118679, 0.03376285, -0.05820976, -0.06238001, 0.06232912, -0.00671020, 0.02787605, 0.08075885, 0.02697055, -0.00037343, -0.01746546, 0.06847318, -0.03953227, 0.09799752, -0.04337372, 0.01522658, 0.08430241, -0.00264690, -0.00270526, 0.12744524, -0.08307982, -0.08070141, -0.10350104, -0.09679171, 0.05905097, -0.04036580, 0.01093227, -0.05714194, -0.07353156, -0.04185684, -0.02207899, 0.06443864, 0.12653564, 0.00579760, 0.05868671, 0.06878871, 0.06408419, -0.04601876, 0.01301568, 0.04252603, 0.01477655, -0.00397784, -0.04461674, 0.01901860, -0.04607597, -0.02228220, 0.08663968, -0.03644149, 0.02579812, 0.00358767, -0.04664666, -0.03460993, -0.00365156, -0.06492701, 0.06118076, 0.05536958, 0.08496296, -0.08111130, 0.03613463, 0.02045161, 0.01125294, -0.02477329, 0.06953257, 0.00253089, 0.10050222, -0.08367681, -0.03531835, -0.02102930, -0.10391473, -0.09718096, -0.02329836, 0.03360132, 0.08094649, -0.03385688, 0.02196228, -0.00413028, 0.07104637, -0.06947879, -0.00784621, 0.04636799, 0.03667882, 0.05262493, -0.07436915, 0.09227382, 0.08121444, -0.07884562, -0.03226490, 0.06836852, 0.07086290, 0.08138982, -0.08016341, 0.02749899, 0.05914976, -0.02023149, -0.02497834, -0.06240267, 0.07556716, -0.05312807, 0.02314114, 0.06041176, 0.09142898, -0.03318008, -0.07867556, 0.08857781, -0.02480479, -0.03057500, -0.06840618, -0.02476373, 0.01095988, 0.01606156, -0.05053657, 0.00199710, -0.02622069, 0.04151865, 0.11001015, 0.03884324, 0.06363802, 0.09836160, 0.04133514, 0.04238202, 0.07156768, -0.06431045, 0.07783560, -0.00234069, 0.04765702, -0.06133175, 0.03179216, 0.06397741, -0.04077933, 0.03559406, -0.07989083, -0.08379129, 0.00797763, 0.00146255, -0.01650836, 0.00362360, 0.04995085, -0.00759019, -0.02483407, 0.08970519, 0.01678708, 0.08424677, 0.10278315, 0.03951918, 0.04387932, 0.03820205, -0.01800461, -0.06558833, -0.01547583, -0.10422823, 0.08505894, -0.03123603, 0.07689321, 0.01369407, -0.05341215, -0.05657664, 0.09199895, -0.00967916, -0.06077852, -0.03786548, -0.07415543, -0.08034433, -0.03164270, -0.02567231, 0.01486109, -0.01993527, -0.08898328, 0.09208558, 0.00149311, 0.02071245, -0.06928154, -0.07869881, 0.05185498, 0.04663007, -0.09468244, 0.08942736, -0.04217156, 0.04775174, 0.08629105, 0.05364524, 0.03396977, -0.00870184, -0.00530145, 0.03241632, -0.11082119, -0.01160202, -0.06286933, -0.03933976, 0.03449186, 0.05659845, -0.09218558, 0.01742987, 0.03748503, -0.04050997, 0.03059168, -0.08636387, 0.05846404, -0.09486799, 0.08861197, 0.00342612, -0.07664900, 0.04146576, -0.04015000, 0.09995386, -0.00291771, -0.03649567, -0.02328379, 0.10249440, -0.02146044, 0.08136452, 0.04611593, 0.08405767, -0.01879219, -0.01210902, -0.08225133, 0.08862854, -0.01009598, -0.00860908, 0.00316844, 0.06936561, -0.04004112,
  -0.10862422, 0.00126381, 0.02154300, -0.07802588, 0.03800355, 0.02602209, -0.01026966, 0.04341000, -0.11499740, 0.03039442, -0.13032253, -0.03440953, 0.01497490, 0.00643406, 0.03858183, -0.00519528, 0.01919280, -0.04337031, -0.04765040, -0.06126031, -0.02378166, -0.06219474, -0.03174226, -0.07257264, 0.01400503, 0.09657089, -0.10452628, -0.04410965, 0.00690503, 0.10000947, 0.04790041, -0.05487267, 0.04225727, -0.01654155, 0.01211730, -0.08350445, -0.03068560, -0.02407203, 0.00694430, 0.04730387, -0.04155533, -0.04604614, -0.02771636, -0.00802286, -0.09756944, -0.02554691, 0.05732508, -0.00041091, 0.05907667, -0.08658093, 0.09551999, 0.09990920, -0.04971007, 0.05018118, 0.07484004, 0.05396310, 0.07106695, -0.03902692, 0.06845864, 0.06574266, 0.04804977, 0.02159477, 0.02403233, -0.06257715, -0.02930380, 0.02405593, -0.00720314, 0.05014602, 0.00133380, 0.02457972, -0.06931874, 0.03620781, 0.04013820, 0.14221896, 0.01369884, 0.01999686, -0.06572426, 0.06330748, 0.02407411, -0.03353919, 0.02537997, -0.01038380, -0.06780200, -0.00526473, 0.10039243, 0.11042283, 0.05309340, 0.01766276, -0.06203271, 0.02648992, 0.10452443, -0.03874756, 0.05853393, -0.00200128, 0.04820559, -0.02700368, -0.00421162, -0.11024608, 0.06754052, 0.06623521, -0.06556325, 0.02241645, -0.08320822, -0.04573986, -0.12753934, 0.03607512, 0.05941292, 0.04531686, -0.01393601, -0.10394552, -0.09186429, 0.00461403, 0.07426363, 0.02272284, 0.00785028, 0.10891301, 0.07399590, 0.05736835, -0.00830779, 0.03544577, 0.03106750, 0.06554632, 0.03952976, 0.08469293, 0.16502845, 0.14922978, 0.11314072, 0.00231286, 0.08910438, 0.01915984, -0.01552176, -0.03235790, 0.02909325, -0.07290655, -0.05724974, 0.05036201, 0.06001185, 0.11128490, 0.16496980, 0.08485807, -0.02010575, 0.05897639, 0.10584613, 0.04673829, -0.02977066, 0.04311917, -0.04924778, -0.04310322, -0.08013207, -0.11350295, -0.09020646, -0.04650420, -0.03085528, 0.04796172, -0.03303776, -0.04663521, 0.08698991, -0.07794709, 0.05038173, -0.03471689, 0.06833501, 0.08099938, -0.03965887, -0.00762790, -0.04933989, 0.04099035, 0.00179231, 0.07731254, -0.03612398, 0.06490879, 0.09200542, 0.05009795, 0.03453460, 0.00046611, -0.04211272, -0.07558237, -0.12397185, -0.01257335, 0.00717888, 0.06670994, 0.15029424, 0.13244495, 0.08454598, 0.09242824, 0.06646497, 0.09705315, 0.07514392, 0.06710342, -0.11533225, -0.00772375, 0.05136869, -0.01965004, 0.08564297, 0.05030480, 0.00498371, 0.00300097, -0.11009099, -0.01520166, -0.02524927, 0.01284117, -0.06967974, -0.00383177, 0.00763136, -0.11220513, 0.07357686, 0.05904372, 0.00813476, -0.04804211, -0.07629516, -0.03176522, -0.03365732, -0.02430898, 0.07777841, 0.00962880, -0.06315022, -0.03968141, 0.00975832, 0.08925463, -0.03717073, -0.02632958, 0.01250504, 0.01786504, -0.06713191, 0.08653440, -0.05036288, -0.02047339, 0.07262751, -0.09047512, -0.02386941, -0.01006500, 0.00578147, -0.00432297, 0.05883321, 0.08803006, -0.02371342, -0.03261090, 0.00141697, 0.07265662, 0.08905980, -0.02639388, -0.10486872, -0.06767984, 0.00499749, 0.00968923, 0.12529457, -0.05185965, 0.04742171, 0.09336928, -0.08434546, -0.00313613, 0.04230167, -0.03346172, 0.10321660, -0.00818877, -0.03296978, 0.03471754, 0.07470706, -0.00890883, 0.00550702, -0.04817643, -0.08206973, 0.04468959, -0.06294695, -0.01470487, -0.07773577, -0.09436675, -0.02497422, 0.04994966, 0.08352190, 0.07096253, -0.03884122, 0.03573985, 0.05703810, -0.09818017, -0.08717241, -0.07707240, 0.06888491, -0.08292731, 0.04427421, 0.00219756, 0.04429934, 0.05033259, 0.08850347, -0.04181451, 0.08941512, 0.08654193, 0.02916237, -0.07962059, -0.05369227, -0.06053257, 0.05185177, -0.02523558, 0.02815152, 0.04214403, -0.08478274, 0.11369040, 0.05154430, 0.03792500, -0.01488662, 0.05217659, -0.12723121, -0.01226368, -0.01901856, -0.07986408, 0.01934034, 0.09037536, -0.07554342, -0.08056679, 0.15734765, -0.01862939, 0.09302003, 0.09702608, 0.03017637, -0.07356928, 0.04725525, 0.01420882, -0.02683613, 0.08885755, 0.03798434, -0.03943069, 0.04887414, 0.14231810, 0.01045455, -0.00613649, 0.07579479, 0.04678616, -0.02595466, -0.07983994, 0.05594099, 0.04047274, 0.03258796, -0.04138784, -0.08646887, 0.08714752, 0.09831632, -0.01134503, -0.03510462, 0.00732871, 0.06607733, -0.09482206, -0.07530876, -0.01092769, -0.01262470, 0.07577232, -0.04122338, 0.00515676, 0.02594444, -0.00003615, -0.04412920, 0.08519569, 0.09175913, -0.05202646, 0.04122416, 0.08012328, 0.10788528, -0.08532451, -0.06545623, 0.00127680, 0.04277735, -0.04493674, -0.01050060, 0.06680301, -0.06456025, 0.05017473, -0.10341641, 0.01686413, -0.02121856, 0.02227760, 0.03265710, 0.00809166, -0.09820501, -0.03035935, -0.04628648, -0.02484837, 0.00388492, 0.08086681, 0.09353706, 0.02980687, -0.07470817, 0.07831251, 0.00338156, 0.02357264, -0.09114809, 0.05958521, -0.00708635, 0.00427389, 0.05511037, 0.02051981, -0.03138791, 0.12502144, 0.00460412, -0.04437607, 0.01160084, 0.01359550, 0.03587035, 0.07078379, -0.05713693, -0.01653370, 0.01143701, 0.09663131, 0.01511640, -0.06464997, 0.05426831, 0.02655728, 0.08045319, 0.12559830, 0.12218193, -0.01097191, -0.00113465, -0.08854224, -0.05239765, 0.00355706, -0.00923957, 0.09632123, 0.01744140, 0.09167757, 0.04670352, -0.00497635, 0.01409630, 0.02748511, -0.06591826, -0.05942589, -0.07571362, 0.00912420, 0.05874251, 0.03066484, -0.04127786, 0.04613211, -0.05870884, -0.08004007, -0.08501718, -0.06279769, -0.06641990, -0.00199159, 0.02072919, -0.03864949, 0.03048793, 0.03639873, 0.02744350, -0.00471762, 0.04397319, 0.03463117, 0.04882913, -0.08812214, 0.10062335, -0.05567925, 0.06848182, -0.08323725, 0.07486486, -0.08329459, 0.04645107, -0.07045045, 0.02530801, 0.00747010, -0.00182579, -0.01157452, 0.00606765, 0.03879774, 0.11553740, -0.03874318, 0.01597377, -0.09246472, -0.02626677, -0.00375960, 0.05202496, -0.01747655, 0.08296683, 0.12419858, -0.03717822, 0.06006822, -0.02891442, 0.09181955, -0.03820117, -0.07280397, 0.02066361, -0.07319594, 0.02896494, 0.03069209, -0.05035518, 0.08414620, -0.00148533, -0.07721075, -0.09477213, 0.02820499, 0.05988094, 0.02891373, 0.07632886, -0.01773435, -0.06192517, -0.08135568, 0.09230271, 0.02896217, 0.07043785, -0.02708998, -0.06527610, 0.06511808, 0.07575549, -0.01067366, 0.08779539, -0.04165315, -0.06158213, 0.06607798, 0.09722068, -0.04084217, -0.06705265, 0.12442269, 0.06132251, 0.05376274, 0.04214756, -0.04655876, -0.07291044, 0.00107368, 0.04071144, -0.09177463, -0.03695918, -0.04958433, -0.06990255, -0.09320751, 0.01613967, 0.03905487, -0.01651071, -0.05785953, 0.02998138, -0.03190502, -0.09362328, 0.04498419, -0.07925153, 0.02604625, 0.05722879, 0.07964551, 0.04734387, 0.06804464, 0.03463857, 0.05238784, 0.05319833, 0.05094691, -0.05973288, -0.09612748, 0.05320600, -0.05316994, -0.06198641, -0.00218413, -0.03495666, -0.08606803, 0.10951174, -0.00374437, -0.02644800, -0.02311269, 0.05440370, -0.07030922, 0.05985777, -0.01195373, 0.01412308, 0.00240049, -0.07986143, -0.10066976, -0.08946134, 0.00576640, 0.00438837, 0.06480569, -0.03720222, -0.09967733, -0.01990778, -0.03100128, -0.03195165, -0.01004749, 0.05238644, -0.01305063, -0.05287366, 0.02622700, 0.13530257, -0.01660859, -0.01242524, -0.07175910, -0.05696454, 0.09084507, -0.06739485, 0.07530314, -0.05515744, -0.02087920, -0.03908189, 0.00099862, -0.04213613, 0.07872491, 0.02940382, -0.00874570, 0.03301793, -0.06062526, -0.02210632, -0.06130102, -0.01516613, -0.05937219, 0.06282956, 0.07242458, 0.01657414, -0.07726155, 0.03437283, 0.04747320, -0.02090366, 0.01736007, -0.04000530, 0.07184785, -0.05597396, 0.01998386, 0.04822921, -0.03135348, 0.04684638, -0.03259321, 0.07396128, 0.11188611, 0.07194267, 0.07492322, 0.05569210, -0.00410532, -0.05818471, 0.07910222, 0.10010128, -0.05576238, 0.07549424, -0.03476765, 0.03651949, -0.08625810, 0.00624668, 0.08796812,
  -0.10704633, 0.07644843, 0.08217300, -0.01453160, -0.00054044, 0.07882749, 0.06283823, 0.09417816, 0.01569818, 0.05369769, 0.03779588, 0.05396346, 0.04872367, -0.03131989, -0.01900329, -0.03490603, -0.10183120, -0.02706769, -0.04168738, -0.03589767, 0.04950913, 0.08504622, -0.00724861, -0.08429728, 0.00652559, -0.02502281, -0.01982964, 0.04148775, 0.06292022, -0.05043506, 0.04694550, -0.07221693, 0.00682563, 0.00800889, -0.06710741, -0.03754165, 0.02159883, -0.02503798, -0.07890254, -0.03615280, -0.07258340, 0.00972378, -0.02713657, -0.00544678, 0.02206502, -0.05640972, -0.01619046, -0.08259527, -0.07146330, 0.02945532, -0.01929746, 0.07210708, -0.07209250, 0.02420057, -0.00737773, 0.06099194, -0.02042848, -0.03309502, 0.05808067, 0.06518371, 0.10107879, 0.05204754, -0.01777156, -0.07117069, 0.06201792, 0.05764524, 0.00500610, -0.06189975, 0.04340217, 0.02844685, -0.07958380, 0.02800171, 0.04476772, 0.03354013, -0.02110440, 0.04218544, 0.08929303, -0.08750318, 0.03898970, -0.04063859, 0.03932840, -0.03141956, 0.06589244, 0.04132679, 0.08901755, -0.06367151, 0.10223445, 0.01490868, 0.03725649, 0.05430155, -0.02213241, -0.00058624, -0.07162631, 0.00604454, -0.05692891, -0.01937449, 0.09865427, 0.06944187, -0.03960191, 0.03535373, 0.04371568, 0.01766665, 0.09698629, 0.00387667, 0.01007174, 0.02832804, 0.08026462, 0.04916825, 0.00677975, -0.02210223, 0.06919225, 0.05758122, -0.05411896, 0.01256266, 0.07026214, 0.08273168, 0.06180686, -0.10545370, 0.04387099, 0.06966219, 0.02443619, -0.05635870, 0.01595831, -0.02738320, -0.06891681, 0.02355068, 0.05354915, 0.06799773, -0.00944713, -0.01448139, -0.01984239, -0.05152947, 0.04039824, -0.05617314, -0.04284832, 0.04783531, -0.06287103, 0.02698797, 0.06521180, 0.05241392, 0.03747807, 0.00676548, 0.03495631, 0.00030102, -0.03747985, -0.09818735, 0.02135765, -0.04282700, 0.00450414, 0.03337710, -0.04256501, -0.02986617, 0.03564520, -0.03141161, -0.02429302, -0.02775719, -0.07026424, -0.05657925, 0.02940126, 0.07405629, -0.04752400, -0.09055252, 0.01326503, -0.08125940, -0.09297609, 0.00778780, 0.03044657, -0.00101795, -0.02687530, -0.08639879, -0.09777209, -0.07442622, -0.06647304, -0.08597843, -0.08100804, 0.00846949, 0.06755449, 0.03027580, 0.01086476, -0.07446907, -0.02350685, 0.06447193, -0.03384022, 0.07044542, -0.02385525, 0.01260991, -0.04128987, -0.06611991, 0.06850979, -0.03799504, -0.08407500, -0.01356327, -0.06721573, -0.07350913, -0.03575766, 0.05031716, -0.03708116, -0.01564143, -0.04325707, -0.08241204, -0.06274450, -0.04747402, -0.02011883, -0.02388508, -0.08231694, 0.01636049, -0.00403219, 0.04830511, -0.00416286, -0.05345117, 0.06599262, 0.08409590, 0.04659035, 0.01975080, 0.01243075, 0.08032855, 0.05676495, 0.02941746, -0.00715419, -0.08847111, 0.00755595, -0.00630061, -0.09928102, 0.07992277, -0.07870308, 0.04036433, 0.01286166, 0.05381776, -0.00875330, -0.01420101, -0.09758832, 0.08358060, 0.05530798, -0.08530886, 0.05838202, -0.05008725, -0.05445191, -0.08903050, 0.07931709, 0.03210895, 0.06621891, -0.02371284, -0.02001552, -0.05778158, 0.06708220, -0.02207184, -0.01033997, -0.08659233, 0.07914121, -0.08646680, -0.05343980, -0.00397737, 0.05925385, -0.09301931, -0.01847535, -0.04424168, 0.06042043, -0.05651005, 0.06756383, -0.05654791, -0.03254171, 0.04104165, -0.04659827, -0.07949411, 0.00053087, -0.07224518, 0.03469668, 0.06622349, 0.07127522, 0.05956442, 0.05236197, -0.03909456, -0.07635733, -0.08159065, 0.04201441, -0.01234121, 0.04127505, 0.01906228, 0.02806697, 0.08734420, 0.05350501, -0.09861276, -0.04209397, 0.04130936, -0.06061361, -0.05708148, 0.02713488, 0.03622505, -0.05065693, -0.01283557, -0.09944353, 0.04373765, 0.06999049, 0.03715982, -0.02033235, 0.07955085, -0.04127917, -0.04225997, 0.00216121, 0.03458425, -0.09385484, -0.02086888, 0.05449151, -0.02434315, -0.10074086, -0.03417700, -0.05231397, 0.05225657, 0.04438178, -0.06878299, -0.10039143, 0.02142809, -0.10238713, 0.00289814, 0.01495894, -0.03199196, 0.03000853, -0.05703593, -0.06587353, -0.02542676, -0.06294294, 0.06902715, -0.10400596, 0.02440509, 0.04851356, 0.08050318, 0.08125287, -0.08454087, -0.08366491, 0.02123251, -0.08710824, -0.01773321, 0.07063634, -0.02109813, -0.04543585, 0.06641087, 0.06678226, 0.03365846, 0.07467989, -0.00031150, 0.03292247, 0.02808556, 0.00368642, 0.00455088, -0.03596174, 0.08522937, 0.03781130, -0.10732802, 0.04574155, -0.09947383, -0.07628617, -0.00939946, -0.07786909, -0.03754467, 0.02565815, 0.08504882, 0.08106140, 0.09571461, 0.00453402, -0.08162888, -0.03870457, 0.04683328, -0.08551785, 0.02173906, -0.01829599, 0.07891771, -0.04692733, -0.00239222, 0.09456301, -0.05322336, 0.01392326, 0.05573848, -0.02203180, 0.08594038, 0.08856127, 0.06131243, 0.06961632, -0.05862654, -0.07588284, 0.06273630, 0.04590205, 0.03517025, -0.07060479, -0.00000717, 0.03198659, 0.06955278, 0.05487606, -0.08187285, 0.08430719, 0.08220211, -0.07012545, -0.07730324, 0.03684664, 0.08522265, -0.08022184, -0.03888538, 0.09721202, -0.08336309, -0.03431106, -0.08780725, -0.04347348, -0.01320366, -0.09581065, -0.00575179, -0.04289797, -0.04305031, -0.07724262, 0.07141212, 0.01203309, 0.06800397, -0.00272678, 0.09194607, -0.06898511, -0.07102098, 0.01425711, 0.07352351, -0.07752331, -0.03136849, 0.01992330, -0.02208033, -0.08669569, 0.04912106, -0.06477220, 0.08245447, 0.03271782, 0.09466837, -0.02219047, -0.06168067, -0.00912775, 0.01829738, 0.00009961, -0.04902083, 0.01304578, -0.01277363, 0.08377305, 0.00999162, 0.02130157, 0.03126133, 0.02676190, 0.02725185, -0.02489033, -0.07515556, 0.02138734, -0.02363136, 0.00630002, -0.07438893, -0.04343137, -0.02531754, 0.06657308, 0.06531324, 0.05342976, 0.05135053, -0.02306993, 0.10605304, 0.08622506, -0.08688778, -0.02719458, -0.03627638, -0.03665616, 0.05880271, -0.08129168, -0.02894235, -0.01547530, -0.07991538, -0.00590428, 0.04406701, -0.07051173, -0.08538342, 0.09483363, -0.01385249, -0.00163951, -0.06345489, -0.08597628, -0.03507243, 0.01293642, -0.01378251, 0.02519509, -0.02662639, 0.06843266, 0.05650678, -0.01999217, -0.03140154, -0.07387247, 0.05314458, -0.06673758, 0.05324213, -0.01393250, 0.06302762, -0.06920004, -0.07291953, -0.06471314, -0.02458951, -0.00812792, 0.01730276, -0.02557029, -0.03035657, -0.00165832, -0.08639958, 0.02371066, 0.09578416, 0.04168790, 0.01478050, 0.05697871, -0.03031841, -0.01129433, 0.08599111, 0.05046031, -0.02082304, 0.08415073, -0.01182177, -0.08774129, -0.04138255, -0.00282051, -0.07425375, -0.03344205, 0.05812757, 0.05383566, -0.07666665, -0.02294097, -0.04110928, -0.04315919, 0.07766566, 0.03481572, -0.04197909, -0.02340917, -0.00360382, 0.02715507, 0.03974643, 0.04794985, -0.01880105, -0.00048032, 0.06176139, 0.08924648, 0.08279815, 0.07604002, -0.07296216, -0.06551806, 0.05017520, -0.03280455, -0.07761032, -0.06382507, 0.09464359, 0.02502138, -0.01376178, 0.00604579, 0.09021167, -0.02413763, -0.07062797, -0.00877002, -0.03794618, 0.10240287, 0.05054374, 0.10283976, 0.05442545, -0.02880589, 0.07049667, -0.02612222, -0.06556210, 0.04472335, -0.05688116, -0.06644328, -0.03802627, -0.00535946, 0.02951986, 0.02859488, 0.03425528, 0.06568094, -0.02660390, -0.07984389, 0.01347532, 0.04010808, 0.02307799, 0.07248137, 0.09076177, 0.00648795, -0.07654785, -0.03047202, 0.05559141, 0.03123135, 0.10186455, -0.07755554, 0.09481454, -0.08369395, 0.02674249, 0.06429353, 0.05891350, -0.07921114, -0.04473764, -0.08656035, -0.05828505, -0.02315483, -0.02747684, -0.06041094, 0.00829312, 0.06319103, 0.07960502, 0.10875638, -0.08161817, 0.03762951, 0.04752127, -0.03467841, -0.04435478, -0.02599765, 0.03855762, 0.02696455, -0.07369440, 0.02981448, 0.05009261, 0.09852961, -0.07250013, 0.01517551, 0.02636233, 0.06786676, -0.00752212, 0.08481108, -0.06367096, 0.08774281, 0.06443429, 0.02076537, -0.07318588, 0.03118951, 0.01785544, 0.08592177, -0.07145718,
  -0.03328377, 0.00034563, 0.00995081, 0.04137770, -0.08834687, 0.02856002, -0.00328240, 0.01286061, 0.08140913, -0.05611206, -0.02795790, -0.01454127, 0.05015395, -0.02273238, 0.07324482, -0.05677583, 0.00275712, 0.04679127, -0.01265883, 0.01929788, -0.03220314, 0.00299647, 0.02152351, -0.04365203, -0.03449254, 0.05907881, 0.00325763, 0.04609593, -0.01255888, 0.08127532, 0.05246316, -0.01898400, -0.00671744, -0.05899500, 0.01494995, 0.07102519, -0.04825746, 0.08162614, -0.05322371, 0.06122174, 0.06780679, -0.04190939, 0.01267078, -0.02260527, 0.10631130, 0.09872036, 0.07737367, -0.06193572, -0.06160771, 0.03088565, -0.03799295, -0.01180581, -0.09442304, -0.03800367, 0.08628683, 0.03752731, 0.12969397, 0.11772350, 0.02526638, 0.02181912, -0.05548257, -0.05261950, -0.02099632, 0.06849568, -0.00360092, -0.02316584, 0.04317117, 0.04077943, -0.01814920, 0.00599528, 0.06679584, -0.03681848, -0.07750016, -0.01642065, -0.04625587, -0.01559817, -0.04404747, -0.09174120, 0.03060432, -0.05288280, -0.02407900, -0.05798758, 0.03547599, 0.06158666, -0.03121739, 0.01416398, -0.09281924, 0.01396466, -0.04949005, 0.08592539, -0.03601586, -0.11205263, -0.07622986, -0.00913370, 0.01778306, -0.05476294, 0.02722765, -0.02579587, -0.14783666, -0.12787530, -0.07668991, 0.07643963, -0.05649994, -0.01174856, -0.09417267, -0.09807517, 0.03578922, 0.04818379, 0.00212939, -0.07579502, -0.05415010, 0.03710531, -0.07304001, -0.10980354, -0.01817227, 0.10570354, -0.03530698, -0.05816270, 0.04065881, 0.11799154, -0.05603662, -0.06680278, -0.00308024, 0.09068609, -0.04058611, 0.00151089, 0.09664056, 0.07442168, 0.00557800, -0.01001121, -0.00987150, 0.04714842, -0.03028372, 0.09504715, -0.00048577, 0.12184865, 0.08277467, 0.02529369, -0.02290959, -0.00898078, 0.04171748, 0.15799099, 0.06598934, 0.09206730, -0.01665964, 0.00717570, 0.01294352, -0.07141005, 0.04474572, 0.05261879, -0.02257491, 0.02596588, -0.08734877, 0.10237785, 0.08157419, 0.00969230, -0.08034873, 0.10865258, 0.10472581, 0.02026267, -0.00080531, 0.11642846, -0.07932541, 0.02019177, -0.03830656, 0.07104995, -0.05875034, -0.00422730, -0.07477440, 0.05262199, 0.06263117, 0.07520647, -0.03435845, -0.05439934, -0.01679285, 0.05409101, 0.00255928, -0.05885646, -0.01020063, -0.02155969, -0.10996062, -0.07088877, -0.02820857, 0.10971102, -0.01257320, -0.03160439, -0.01047460, 0.10107917, -0.08101012, -0.01572284, 0.04701586, 0.00316176, 0.03543288, -0.03692634, -0.09328526, 0.03114724, 0.10847844, -0.05785386, 0.09068491, 0.01582102, -0.05356290, -0.00900696, -0.07813618, -0.11768960, 0.05942708, -0.06687178, -0.09224151, 0.05124366, -0.03943824, -0.07686469, -0.03668940, 0.00936153, 0.03806119, 0.05122469, 0.02871972, 0.05783213, 0.03183019, 0.05552192, -0.05622491, 0.09666040, -0.03108324, -0.08358722, 0.03217626, 0.04785062, -0.10009614, -0.06085300, 0.07115155, -0.11762624, 0.04669805, -0.07473282, -0.10544702, 0.02819970, -0.08964325, -0.00150916, -0.11653462, -0.02538302, 0.02708710, -0.04715654, 0.07317945, -0.00867913, 0.06063268, -0.08069607, 0.04222843, -0.03126404, -0.01989106, 0.11482532, -0.02064382, 0.07062576, -0.05827593, -0.02637922, 0.05009183, 0.06499761, 0.05490115, -0.07145765, 0.01418012, -0.12107531, -0.06639455, -0.00550200, 0.04743785, 0.00963768, 0.00237120, -0.07782087, -0.07728165, -0.01344250, 0.04790739, -0.02627881, -0.04639910, -0.04333110, -0.08792624, -0.07419401, 0.00923468, 0.10475018, 0.00714018, 0.05029802, 0.00599300, -0.08917270, 0.00797171, 0.06711715, 0.08842865, -0.04192857, -0.01484654, 0.02626490, -0.07332913, -0.02371287, -0.01055846, 0.08034077, -0.05706356, 0.05284790, -0.05598744, 0.07061794, 0.12302423, -0.00678942, -0.05929968, -0.09823439, -0.14687999, 0.03163423, -0.08648959, -0.03561193, 0.08474237, 0.06201889, -0.03279031, 0.09215207, -0.04964110, 0.05571551, 0.13714667, 0.09134075, 0.04071826, 0.00246253, -0.09302017, -0.02722964, -0.04929019, 0.02139132, 0.11711562, 0.12859555, -0.03216989, -0.03920637, 0.10949506, 0.04886108, 0.04088511, 0.04984974, -0.09208608, -0.11729073, -0.00050513, -0.05811014, -0.08127633, 0.07389349, 0.11949115, -0.01143121, 0.12938024, 0.11693086, 0.11553454, 0.11151149, -0.06654478, -0.12846327, -0.09556635, -0.09499707, -0.03655506, 0.06287503, 0.07827792, 0.10097900, 0.11953797, -0.06181437, -0.00510357, 0.03681993, 0.11645579, 0.07853339, -0.05152052, -0.08205067, -0.04754717, -0.08316605, -0.06590641, -0.01980612, -0.01262517, -0.00268280, -0.08433365, -0.03980758, 0.04045863, -0.03047212, 0.05040898, 0.01750141, -0.04702277, -0.03069058, -0.03449662, 0.08035856, -0.02326848, -0.05555930, 0.04321576, -0.05766407, 0.06731349, 0.07728676, -0.06333368, -0.08264530, 0.00431390, -0.10754605, 0.03398197, -0.07911225, -0.08833045, 0.01609901, 0.05091627, 0.02276106, 0.03167193, -0.06056783, 0.04748301, 0.02636107, 0.07235710, -0.05948198, -0.11945176, 0.06643641, 0.07064041, -0.03951332, 0.01007472, 0.04037941, 0.03628498, -0.03214162, 0.09010721, 0.08723671, 0.00831392, 0.00941762, 0.03733727, 0.02349769, -0.09919664, -0.12236463, -0.11072864, 0.11789063, -0.00695460, -0.05931555, -0.04923163, 0.01501672, 0.07819527, 0.08974767, -0.04555875, 0.00770796, 0.03416718, -0.03329607, -0.06315483, -0.00095342, 0.12023129, 0.04059925, -0.01486392, -0.09294196, -0.04335866, 0.11166826, -0.02373057, -0.07004900, -0.10067390, -0.06118615, -0.08181713, -0.07103258, -0.01074637, 0.04707816, 0.02478102, 0.02754787, -0.00676068, -0.02378578, -0.02739813, 0.03860329, -0.01499314, 0.02536396, -0.10781772, -0.08155303, 0.04992247, -0.02896276, -0.07809224, 0.03073155, 0.04302308, 0.05083996, -0.05247775, 0.02550761, 0.00670362, 0.07980444, -0.10222133, 0.06047225, 0.08468677, -0.00267401, 0.03556292, 0.09886597, 0.08440454, -0.09744357, -0.03779616, -0.02212640, -0.07487237, 0.05427803, 0.05127658, -0.07962165, 0.08626507, 0.02520413, 0.01497723, -0.01484749, 0.08145963, 0.07096588, 0.09574223, -0.01384673, -0.06736455, 0.10748780, -0.04217621, 0.08222502, -0.08777992, -0.00920836, -0.05223947, 0.00838333, 0.01534534, -0.01329432, -0.05077272, 0.00895519, 0.03302842, 0.04162988, -0.06584913, 0.10449665, -0.08360831, -0.06811049, -0.02485011, -0.00089454, 0.09265932, -0.03326417, -0.04363630, 0.04167785, 0.05161541, -0.01849359, 0.07190017, -0.02178127, 0.00884334, -0.06318416, -0.07122839, -0.02047891, 0.03282890, 0.02905407, 0.05699167, 0.03543796, 0.07992397, -0.03298820, -0.04518415, 0.02932280, 0.02249793, 0.08108883, -0.01984474, -0.03930970, 0.03860765, 0.07571054, 0.01840312, 0.05743632, -0.09355231, -0.04941929, 0.04136511, -0.03146211, 0.03038377, -0.01808781, -0.05323929, 0.05662404, 0.02374242, -0.01097779, 0.10351302, 0.06629797, -0.08352322, -0.09976734, -0.00051611, -0.03017724, 0.00402903, -0.07151341, 0.00448153, 0.05576563, 0.03604670, 0.06714319, -0.03147633, 0.09283464, 0.03457903, -0.00177442, -0.00843250, 0.05371341, -0.05397897, -0.03360648, 0.06968740, -0.05721599, -0.08595665, 0.01031384, 0.07841649, 0.02811998, -0.03191085, 0.03395605, -0.05994581, -0.02028883, -0.07230268, 0.05392384, -0.03944556, -0.09058405, -0.03224059, -0.02522710, -0.04192194, 0.02812592, 0.09728710, -0.03633168, -0.04805058, 0.00247166, -0.08090746, -0.05461540, -0.05744495, 0.08144424, 0.04948043, -0.05109330, 0.09011262, -0.05977495, -0.06460809, -0.05922155, 0.03274069, 0.06045812, 0.01919351, 0.01272942, -0.05322381, -0.02098867, -0.06386648, 0.04508757, 0.05911487, 0.05103882, 0.01808197, -0.06163174, 0.06944636, -0.02095324, 0.09731153, 0.09133592, 0.02586834, 0.07312801, -0.06345885, 0.08605895, -0.04930684, 0.04261452, -0.08115628, -0.00332819, -0.01429249, 0.04989970, -0.08383476, 0.07330433, 0.06152958, -0.06595232, -0.00110511, 0.02529524, 0.06357599, -0.01574904, 0.01475584, 0.08864716, -0.03387454, 0.07459178, -0.02330415, 0.03798936, -0.05166673, -0.05864709,
