#define RED_PIN 13
#define BLUE_PIN 10
#define GREEN_PIN 12
#define RAND_PIN 2
#define PIN1 9
#define PIN2 8
#define PIN3 7
#define PIN4 6
#define PIN5 5
#define PIN6 4
#define PIN7 3
#define PIN8 30
#define PIN_BUTTON 11

#define BUFFER_SIZE 33
#define RECORD_DURATION_MS 1000
#define SAMPLE_RATE 8000
#define SAMPLE_INTERVAL_DIV 4
#define NUM_SAMPLES (SAMPLE_RATE * RECORD_DURATION_MS / 1000)
#define FRAME_SIZE 256
#define NUM_FRAMES 48
#define HOP_SIZE 164

#define MFCC_SIZE 13
#define DCT_MFCC_SIZE 6

#define NumberOf(arg) ((unsigned int) (sizeof (arg) / sizeof (arg [0]))) // calculates the number of layers (in this case 3)
#define _1_OPTIMIZE 0B01000000 // Highly-Recommended Optimization For RAM
//#define _2_OPTIMIZE 0B01000000 // NO_BIAS 
//#define _3_OPTIMIZE 0B01000000 
//#define Softmax                 // Comment this line to use Sigmoid (the default) activation function
#define ACTIVATION__PER_LAYER
  #define ReLU
  #define Softmax


#include <NeuralNetwork.h>
#include "arduinoMFCC.h"
#include "cnn.h"

volatile bool isRecording = false;
volatile uint16_t recordIndex = 0;
volatile int16_t audioBuffer[NUM_SAMPLES];
float all_mfccs[NUM_FRAMES][MFCC_SIZE];

volatile float firBuffer[BUFFER_SIZE];
volatile int bufferIndex = 0;
volatile int downsampleCounter = 0;

const float firCoeffs[BUFFER_SIZE] = {
  -0.0012, -0.0023, -0.0036, -0.0047, -0.0051, -0.0039, 0.0000, 0.0073,
   0.0176, 0.0301, 0.0434, 0.0553, 0.0635, 0.0669, 0.0650, 0.0584,
   0.0485, 0.0368, 0.0248, 0.0136, 0.0041, -0.0027, -0.0065, -0.0074,
  -0.0062, -0.0039, -0.0016, -0.0003, 0.0002, 0.0001, 0.0000, 0.0000, 0.0000
};

arduinoMFCC mymfcc(MFCC_SIZE, DCT_MFCC_SIZE, FRAME_SIZE, SAMPLE_RATE);
float mfcc[MFCC_SIZE];

const unsigned int layers[] = {624,32,3};
byte Actv_Functions[] = {0,1};
float *estimation;

float biases[] = {
  0.00977851,
  0.00566821,
  -0.00943272,
  0.00137426,
  0.01126040,
  -0.00653571,
  0.02563467,
  -0.00175313,
  0.00998087,
  0.01363312,
  0.00478597,
  -0.00957303,
  0.01144802,
  0.02484328,
  -0.01266344,
  0.02287023,
  -0.01339195,
  0.01323614,
  -0.01065243,
  0.02220459,
  0.00414384,
  0.01258405,
  -0.00564004,
  0.01171461,
  -0.00003786,
  -0.00985659,
  0.00048314,
  -0.00418420,
  0.00683782,
  0.00981450,
  0.02268540,
  0.02342785,
  0.01258496,
  -0.01447305,
  0.00408950
};

const float weights[] PROGMEM = {
  0.03472188, 0.08379122, -0.04693233, 0.03649140, -0.05718771, -0.06511449, -0.02908095, -0.12818016, -0.06026512, 0.02564207, 0.00261751, -0.15213814, -0.05158078, 0.10325663, 0.06718100, 0.04601254, -0.01116189, -0.00204217, 0.07379544, 0.00694827, -0.13488024, 0.05518412, -0.03942117, 0.00704116, -0.04434236, 0.05923995, -0.04925627, -0.04527514, 0.01622485, -0.05863120, -0.05470497, 0.01355563, -0.00464286, -0.13652539, 0.03532110, -0.07335961, 0.00753714, -0.12426306, 0.06387801, -0.03474399, 0.07178509, 0.03697901, -0.08505420, -0.06915338, 0.09204189, -0.02730628, -0.15487048, -0.10147747, -0.08793601, -0.04968473, -0.02691222, 0.01693971, 0.09183648, 0.06712955, 0.00180276, -0.04835200, 0.03311697, 0.00815780, -0.11392029, 0.00365615, -0.14177512, -0.13163434, -0.08474186, -0.05298458, 0.00136180, -0.04698144, 0.08441235, 0.08873033, -0.05946138, -0.10023925, 0.07017655, -0.07172737, -0.00716135, 0.02552901, -0.09914536, -0.08671147, -0.11276283, 0.06971904, 0.06518651, 0.10992301, 0.00515492, 0.00590942, 0.01841142, 0.11818356, -0.04329338, -0.06125546, -0.04176863, -0.06857225, -0.07377386, 0.01735302, 0.09209927, 0.00821885, 0.07677121, -0.02334677, -0.01307909, 0.01846815, 0.09276064, 0.01868002, 0.00823727, 0.07471715, 0.00342266, 0.06841608, -0.17399181, 0.07989350, -0.10145687, -0.07137723, 0.10484909, 0.10333366, 0.09574177, 0.04877312, 0.03747370, 0.13725397, 0.12726866, 0.01074655, -0.04174324, 0.07899752, 0.08461581, -0.08186872, -0.01844596, 0.00472181, 0.01976123, 0.00584563, 0.14455287, 0.10229934, 0.00128221, 0.08742101, 0.01765794, -0.05509872, -0.10693373, -0.08057696, -0.07060374, 0.06540933, 0.04256349, 0.17099500, 0.01493118, 0.13146378, 0.03617256, 0.08842605, -0.05249340, 0.07440931, -0.09581766, 0.01606606, 0.06627755, 0.04071382, -0.09422768, 0.09538909, 0.08205327, 0.08781487, 0.11946571, 0.00176005, -0.10999761, 0.00687564, -0.12139541, 0.00008413, -0.04835927, 0.05354978, -0.04447675, -0.03088611, -0.02482488, 0.10165954, 0.07912078, 0.04569125, -0.03391818, -0.13800581, -0.14261986, -0.15933660, 0.01047131, -0.04688498, 0.05047213, 0.07963936, 0.05494140, 0.01827289, 0.15395512, 0.05612548, 0.08563296, 0.08650196, -0.05657727, 0.00479103, -0.14841922, -0.05959497, 0.09649332, 0.00096156, 0.02346743, -0.00704000, 0.09971564, 0.10157286, 0.03586243, 0.07575712, 0.00710991, -0.10275695, -0.12402870, -0.13689406, -0.14049661, -0.08025748, 0.07160603, 0.00942574, 0.09203660, -0.04457673, -0.00515044, 0.01332090, 0.02674673, 0.02849875, -0.12943934, -0.13074027, -0.02269624, -0.01271758, 0.06120765, -0.01808270, -0.02082021, 0.03065982, 0.09249870, -0.05697575, 0.05542843, 0.15607740, 0.02727387, 0.03520888, -0.10345166, -0.11100637, -0.04935450, -0.03192690, -0.06185072, -0.00936115, -0.02833847, 0.07769779, -0.00065884, -0.03264628, 0.03844799, 0.11235910, -0.10049411, -0.02851958, -0.07128876, -0.05251455, -0.05842093, -0.06463626, -0.00277044, 0.05753255, -0.05074545, -0.05385321, -0.03191477, 0.05969895, 0.00994107, 0.02622630, -0.09327301, -0.01959201, 0.00750332, -0.04917288, -0.04294380, 0.02650435, 0.03151550, -0.00921477, -0.04939562, 0.02014576, -0.04017487, -0.00164274, 0.06016939, 0.02082301, -0.01181032, 0.04941907, -0.06189207, -0.05230017, -0.07366973, -0.07225451, -0.07747076, -0.08591531, 0.08219498, 0.08564437, -0.04471560, 0.03623941, -0.05269514, 0.11931753, 0.09936684, -0.06677016, -0.06843831, 0.09684899, -0.08151729, -0.03295155, -0.06661627, 0.02962433, 0.06777408, 0.05920393, -0.03410277, 0.08570641, 0.04877255, 0.14197627, 0.03569261, 0.04248060, -0.00627262, 0.03811476, -0.10715061, -0.01515023, -0.10269652, 0.01096349, 0.05787753, -0.03600750, 0.11409828, 0.09442775, 0.07534119, -0.00234560, 0.08357766, -0.08130801, -0.00499268, -0.01633314, 0.01120109, -0.09381852, -0.03811757, 0.00821908, 0.00737077, 0.09817794, 0.16818227, 0.15119027, -0.01180493, 0.03565988, -0.07003754, -0.07690626, -0.13077888, -0.11661277, -0.03750684, -0.02028338, 0.03115603, -0.04885694, 0.01787623, 0.08793443, 0.06643365, 0.09192835, 0.07320130, -0.05876854, -0.05400352, -0.17822863, -0.09965651, -0.07812883, 0.02685270, 0.03566288, -0.03393348, 0.08844889, 0.06378528, 0.07475413, 0.11285299, -0.03583734, -0.07664413, 0.00620672, -0.07182706, -0.04754888, -0.02860005, -0.08702056, -0.08923402, -0.00116701, 0.09320793, 0.12633555, -0.04324428, -0.06299156, -0.04289233, -0.03202162, -0.01755151, -0.06807125, -0.02863183, -0.11131813, 0.00580232, 0.02821575, 0.02231448, -0.03088305, 0.02353538, 0.08748968, 0.10978234, 0.03135210, -0.01358355, -0.10330594, 0.00269322, -0.00671793, -0.08272000, 0.06906224, -0.04016064, -0.00941752, 0.04293672, 0.01682802, -0.07540399, 0.07299685, 0.00413155, -0.06658754, 0.02431084, -0.10759576, -0.01771186, -0.10617213, 0.01435566, 0.01687021, 0.02970553, 0.02927799, -0.09285985, 0.02826088, -0.04468958, -0.00610262, -0.10657356, -0.10896865, -0.10360482, 0.05783983, -0.09448256, -0.05443839, 0.01881768, -0.08557054, 0.04083564, 0.08008475, 0.03033629, -0.03029005, -0.08046456, 0.09640950, -0.12946732, -0.09633702, -0.06770819, 0.03388721, 0.08306859, 0.01942283, -0.11064656, -0.02152152, -0.09408414, -0.06690390, -0.08134729, -0.02677099, -0.10297381, -0.08407325, -0.06438562, -0.07955091, -0.10300276, -0.03156463, 0.08014263, -0.01883098, 0.03282931, -0.08378167, 0.03677874, -0.01755037, 0.02821064, 0.04640361, -0.01426258, 0.02692608, -0.00944873, 0.04141702, -0.06371058, -0.01489768, 0.00750596, -0.09597615, -0.09997504, -0.04838683, -0.01200210, 0.01957926, -0.08683807, -0.04716655, 0.05779692, 0.07293799, -0.02429796, 0.00379004, 0.05494894, -0.04411210, -0.09292956, 0.06076503, 0.06529395, 0.02310988, 0.02198531, -0.08221250, -0.06472185, -0.08797131, -0.03184284, -0.08642895, -0.08474442, 0.00937097, -0.10045603, 0.05247378, -0.01663369, -0.09358932, -0.04828442, -0.02025916, 0.00268238, 0.01407494, -0.03817964, 0.06007656, 0.07411788, -0.03804841, -0.06513288, 0.02936324, -0.03278646, 0.07241961, -0.00223263, -0.10532686, 0.01520626, 0.00409626, 0.00690383, -0.01995447, -0.03094006, 0.07027285, -0.04510781, -0.00251776, 0.09340195, -0.00284489, 0.00725333, 0.05740599, 0.01475184, 0.05050150, -0.00375529, -0.03254065, -0.06207454, -0.03856372, 0.09286362, -0.04563362, 0.09145766, 0.06041950, -0.05098037, -0.00985734, 0.01471175, -0.05137309, 0.03282690, -0.02831239, -0.04512967, -0.04945661, 0.07591068, -0.04801535, 0.01298214, -0.01676099, -0.04836642, -0.03543693, 0.01306157, -0.06012446, -0.04213900, 0.03545079, -0.00199802, 0.00953238, 0.01808575, -0.06770553, -0.05145504, 0.08859567, -0.01114718, -0.02642898, -0.07370248, 0.00907657, 0.04233638, -0.02655214, 0.08301768, 0.03380487, 0.08837957, 0.07670562, 0.03288127, -0.01645711, 0.05303181, -0.07715521, -0.09695565, 0.08526700, 0.04062496, 0.06479418, -0.10994238, 0.03462204, -0.05321800, 0.00946236, 0.01318890, 0.08065761, -0.01923730, -0.01747371, -0.08969283, 0.06030369, 0.00612639, -0.06351346, 0.03324246, -0.12289929, -0.06022942, -0.05726252, -0.01317985, 0.07829680, 0.01104933, 0.09163775, -0.04721694, -0.05033178, 0.02139220, -0.00031240, 0.02198939, 0.06802767, -0.03236334, -0.01555956, 0.08271648, 0.00807661, 0.08200011, 0.03168985, -0.07366095, 0.09630962, 0.04532979, -0.06547436, 0.02721152, -0.01824843, 0.01873987, -0.01172092, -0.02040835, -0.00265913, 0.06792530, -0.01152272, 0.01576485, 0.05254142, 0.04429055, 0.10711104, -0.05297114, 0.02465313, -0.02376079, 0.04156569, -0.16882803, 0.03544702, 0.08192088, -0.04454006, -0.05262674, -0.01219499, -0.04470237, -0.00464280, -0.01151491, 0.05639095, 0.00943443, 0.00687530, -0.07193934, -0.07985447, 0.08751595, 0.09748473, 0.06746735, 0.08448914, 0.06101057, -0.02402000, -0.05578986, -0.02514197, 0.02261528, -0.08382832, 0.03690178, -0.02257506, -0.08900309, 0.04739528,
  -0.01012378, 0.08138973, -0.05111352, 0.00702148, -0.07510411, -0.02161971, 0.06670667, -0.02004907, 0.08048241, 0.04002261, -0.08716391, 0.16007519, -0.00400034, 0.00317287, 0.08349142, -0.00621306, 0.02481403, 0.05636277, 0.04894473, 0.04466156, -0.02615072, -0.10857031, 0.03517409, -0.03334379, -0.02065508, 0.02498180, 0.10349046, 0.08263495, 0.02401445, 0.08474963, 0.02976546, -0.06076026, 0.06582269, -0.01467544, -0.02087442, 0.00526673, 0.06690510, 0.04918529, 0.04889096, -0.07663257, 0.01761002, -0.07774596, 0.06084635, 0.07147890, 0.07270135, 0.10061964, 0.02467004, 0.05371501, 0.00895930, 0.09099296, -0.04463677, 0.06665699, 0.05300123, 0.03497968, -0.04557410, 0.06514587, 0.10327885, -0.02450243, 0.03092904, -0.02794353, 0.11077390, 0.08055967, 0.05033449, 0.14305528, 0.07382242, 0.00742904, 0.02845322, 0.04093332, 0.07804094, 0.09650308, 0.01350177, 0.07224986, 0.13723011, 0.00869732, 0.04749032, 0.10147323, 0.19638690, 0.00066429, -0.00225658, -0.01095773, -0.05737565, -0.08431783, -0.04874234, 0.04372767, -0.02517007, -0.02284277, -0.02494676, -0.02084332, 0.02433817, -0.01151135, 0.03905061, 0.11510364, -0.05578310, 0.02646588, -0.06072446, -0.10750967, -0.14381970, 0.00920868, 0.03524404, 0.02750248, -0.03804328, -0.01075620, 0.02300528, 0.07523621, 0.11090118, 0.02420711, -0.05556310, -0.10413107, -0.14730720, -0.07441978, -0.02504224, -0.10444348, 0.00503905, -0.10553957, 0.07759424, 0.08546171, -0.05869878, 0.03934804, -0.03186078, 0.01875122, -0.03799856, -0.10130596, 0.04121427, -0.00695359, -0.03964936, 0.13662398, 0.12724142, 0.12087200, -0.02475645, 0.02438552, 0.02206737, -0.03829882, 0.05209515, -0.00460253, -0.09878431, 0.01443064, 0.00722014, 0.13485417, 0.04660018, 0.08472987, -0.00049644, -0.05168344, -0.00052911, 0.08183499, 0.02588983, -0.00730659, -0.08189286, -0.01169776, -0.05422329, -0.06403043, 0.07709139, 0.11344417, 0.05488021, 0.01790504, -0.00278845, 0.04447248, 0.07349908, 0.03345387, -0.09040251, -0.09454992, -0.12626784, -0.09560364, 0.00127538, -0.00166544, 0.16422668, 0.07924531, 0.05819847, 0.05899660, -0.09336811, -0.00866326, 0.02143396, -0.06381033, -0.03990031, -0.06322476, -0.09072839, 0.01510506, -0.02627848, 0.03135562, -0.00707312, 0.14816286, 0.07672948, 0.06897714, 0.11571495, 0.08664421, -0.05371922, 0.03480161, 0.01866966, -0.11399972, 0.02044409, 0.10006879, 0.15802151, 0.09704305, 0.11169990, 0.13329874, 0.00103727, -0.08200378, 0.03572085, -0.07980067, 0.02098536, -0.06945599, -0.02014293, -0.02629163, 0.01334548, -0.00155119, -0.01441576, 0.14000724, 0.14294322, 0.03130113, 0.05402644, -0.02470707, -0.04470195, -0.06062441, 0.01113520, -0.06625163, -0.09032491, 0.11661030, 0.06666491, 0.11631534, 0.01423354, 0.06733531, 0.03222647, 0.08086996, 0.03008758, -0.04828992, 0.08490601, 0.02546248, -0.09169804, -0.04215257, 0.04745241, 0.13271707, 0.04384464, 0.06994367, 0.14668956, -0.05262915, -0.02364320, -0.07521617, -0.07483456, 0.04024317, -0.01065040, -0.06612315, -0.02317888, 0.00508507, 0.06188197, -0.04817092, -0.00185882, -0.00234234, 0.09838666, 0.02570548, 0.03951352, 0.04504737, 0.02059770, -0.04262555, -0.05670226, -0.01203101, 0.06383510, -0.04499778, 0.09231420, -0.00548404, 0.00977115, -0.04942375, -0.00746114, -0.01929639, -0.05892826, -0.06482428, 0.00839231, -0.09939119, 0.03629382, -0.01813689, 0.03313984, 0.07165319, -0.06854703, 0.05478251, 0.06770109, 0.05458186, 0.03195414, -0.01668099, -0.02673421, 0.01669210, -0.04177265, -0.00014612, -0.05242594, 0.06653015, 0.09573341, 0.07706041, 0.07771434, 0.08552627, -0.06407578, 0.06472033, 0.08229600, 0.09865514, -0.12924550, 0.01297255, 0.01847245, -0.05390318, 0.11265566, -0.07249874, 0.05884783, -0.08280219, -0.04993505, -0.04422048, -0.04940644, 0.01998423, 0.08201072, -0.09287233, 0.04044373, -0.00180656, 0.00950824, 0.01992046, -0.05021937, -0.11565169, 0.07452524, -0.02836672, 0.06346101, -0.04300720, 0.01109792, -0.02488394, 0.01174968, -0.00223125, -0.07477313, 0.05504158, 0.10171463, 0.05222391, 0.01413981, 0.00853742, 0.06669944, -0.00036266, -0.04883369, -0.02608968, 0.06244726, -0.11278194, -0.13394371, 0.00354604, -0.08227248, 0.08206566, -0.06802893, 0.03074974, 0.01289311, 0.02106034, -0.06822776, 0.01878198, -0.00649324, 0.06374766, -0.02385894, 0.03996712, 0.02282001, -0.01814094, 0.01549290, 0.07947233, -0.10119090, 0.07293401, 0.04253842, 0.02796915, 0.05169186, 0.03118652, 0.08974462, -0.12109394, 0.02494902, -0.10917055, -0.07614578, 0.05908298, 0.05981677, 0.05889140, -0.08567049, 0.02396152, -0.01832768, -0.06165255, -0.07827380, 0.11522605, 0.03454618, 0.01098762, -0.06723872, 0.07925142, 0.05272693, 0.05513055, -0.09795354, -0.02068094, 0.01479769, -0.10718545, 0.04946766, -0.05300284, 0.10173350, 0.08493265, -0.06879006, -0.05736925, 0.03661235, 0.09556531, -0.05183335, -0.04018691, -0.05253692, 0.09660446, 0.05285935, -0.02096393, -0.05680537, 0.04691833, -0.08359339, -0.04913951, 0.04529991, 0.08032878, 0.00275993, 0.03300302, 0.01871308, -0.05000077, 0.01028548, -0.02608056, 0.05346835, -0.02958581, 0.02979657, -0.02886200, -0.01344641, -0.08155113, -0.02079690, -0.03332036, 0.01591945, -0.06157087, -0.04378527, 0.07943381, -0.04192411, 0.04420114, -0.03113448, 0.02863770, 0.03307762, -0.06558891, -0.07956474, 0.09208713, -0.07764529, 0.09428393, 0.01076024, -0.04579877, 0.07161471, 0.01507560, 0.04129007, 0.08257722, -0.02123491, -0.06421619, -0.07684689, -0.09803155, -0.04370304, 0.04671461, 0.09116134, -0.00322712, 0.05877870, -0.01218477, 0.02377577, 0.01186690, 0.09725910, 0.03851757, 0.06636537, -0.00816363, 0.03781342, -0.07164945, 0.06455303, 0.01606899, 0.09688772, 0.04476585, 0.06543362, 0.03807892, -0.06212102, 0.02558427, 0.08760047, -0.04084349, 0.00053021, -0.02706378, -0.00316464, -0.05535703, 0.05203519, -0.10032283, 0.11484794, -0.05890556, -0.10057480, -0.10000189, 0.06390195, 0.02310969, 0.00027192, 0.01568640, -0.02233661, -0.05454542, -0.09079793, 0.06059520, -0.05245455, -0.01293757, 0.01973670, -0.08995447, -0.08623783, -0.02420479, 0.02120055, -0.04635099, -0.09508906, -0.01689849, 0.04334604, 0.08095372, 0.06419276, -0.11407693, 0.05800100, -0.02002226, -0.12484695, 0.06278676, -0.04657496, -0.07108743, -0.04023140, 0.05743410, 0.04842446, 0.09203493, 0.05113360, 0.07495619, 0.06060765, 0.16378899, -0.01682782, 0.02418969, -0.09532124, -0.05720278, -0.03771723, -0.02285868, -0.06613453, -0.01568860, -0.06303310, 0.01739698, -0.09748207, 0.01091541, 0.00606873, -0.07506353, -0.01491080, 0.06547543, 0.03568946, 0.05709018, 0.04314660, -0.07859669, -0.00689882, -0.01969652, 0.04273814, -0.01581463, -0.10681285, 0.02254729, 0.09455844, 0.04779149, 0.01113345, -0.00136584, 0.06066341, -0.02645895, -0.04222087, 0.00965038, 0.04126038, -0.03675753, 0.00227355, -0.01986548, 0.03002885, 0.10572144, -0.04065995, -0.08172613, 0.08311995, -0.10634657, 0.08744712, -0.00728965, 0.02549414, -0.03014006, -0.10159530, 0.00847890, 0.08291412, 0.17010465, -0.07771824, -0.10346316, 0.06088759, 0.06837292, -0.09069071, 0.00901439, -0.09715456, -0.09901936, 0.02109781, 0.07213024, -0.01869900, 0.01590588, 0.11571827, 0.07955890, -0.00908589, -0.10501835, -0.09641780, -0.04127372, 0.07514343, -0.03632454, -0.02330812, -0.02167238, 0.06983441, 0.02069121, -0.01055189, 0.11636239, 0.07066520, 0.03276931, 0.01482551, -0.00177661, 0.00044309, -0.00785785, -0.00644048, -0.01318259, 0.06395109, 0.05245610, -0.06117248, -0.08404174, 0.03125413, 0.07582933, -0.03802106, 0.02117013, -0.06396820, -0.04813085, 0.03745946, -0.01780710, 0.04521903, 0.05349252, 0.06000405, -0.05573368, -0.09524193, 0.12186740, 0.02404027, 0.03255266, 0.10268058, 0.01136926, -0.01391487, 0.05451349, 0.03399015, 0.07807189, -0.06182838, 0.08481938, 0.07330659, 0.01879250, 0.07458942, 0.06791098,
  0.04040438, 0.02252612, 0.01787635, -0.00939202, 0.07850740, 0.10584270, 0.07885432, 0.08749485, 0.08565713, 0.03222378, 0.11638039, 0.16257548, -0.09501537, -0.02061079, -0.01288488, -0.06687250, -0.11721950, -0.13919617, 0.02666334, 0.05057883, -0.02871304, 0.03326030, -0.07834085, 0.03728987, -0.14074980, 0.03111061, -0.06684047, 0.12115707, -0.02585544, -0.02068237, 0.01988595, -0.11416135, 0.10005295, 0.05573931, -0.02924207, -0.08498625, -0.05817457, -0.05416120, 0.05217550, 0.02534809, -0.07176294, -0.02899566, 0.06081596, 0.06170582, -0.03562894, -0.08229381, -0.06258910, 0.01842274, 0.06212218, -0.03628092, -0.03567816, -0.06462716, 0.07802355, 0.02832437, 0.02221503, 0.02343296, -0.02150320, -0.00800393, 0.00699012, -0.10489763, 0.01146995, 0.05257262, 0.07999322, -0.01343790, -0.05318980, -0.01947835, -0.05687921, 0.07127085, 0.00430091, -0.07575168, 0.01011825, -0.00315882, 0.03729156, -0.02116240, -0.04127907, 0.11769451, -0.03069016, 0.02376686, 0.05746919, 0.05389673, 0.06224624, -0.03157127, -0.05221734, -0.13924029, -0.06914873, 0.00009363, -0.06853265, -0.03550912, -0.01821676, -0.08987259, -0.02519249, 0.01303417, 0.07516552, -0.03110771, 0.02699758, 0.02156199, -0.02926260, 0.08016568, -0.09377348, -0.06445724, -0.04164929, -0.02822756, -0.00011953, 0.06721198, 0.01013279, 0.02461743, -0.05575154, 0.07659637, -0.02524757, 0.04154981, 0.03313830, -0.12469149, -0.08672504, 0.04163020, 0.01892234, 0.02793146, 0.05675808, 0.05832092, 0.02749953, 0.04390789, -0.07450537, 0.05644009, -0.09941886, 0.10174654, -0.13304447, -0.12051872, 0.04619233, 0.11971302, 0.07782701, -0.01438893, -0.00783367, 0.11889578, 0.03177330, -0.07817473, -0.05000744, -0.00399180, 0.10691489, 0.07024517, -0.14391007, 0.05716921, 0.02727783, 0.07772660, -0.06392418, 0.10256948, 0.03290374, 0.04567682, -0.05383457, -0.01755509, 0.01411735, 0.06939588, 0.10501580, -0.03268749, -0.04393488, -0.04350707, -0.08934110, -0.04697162, -0.03419466, 0.07217103, -0.04112313, -0.09653144, -0.09000424, 0.06104390, 0.01994773, 0.06625561, -0.04305133, 0.05574733, -0.00739153, -0.03850834, -0.12827738, 0.07051913, -0.08408070, 0.04778083, -0.09559256, -0.13058428, 0.04297181, 0.00601377, 0.10774188, 0.08998556, -0.07824925, -0.06150379, -0.08198070, -0.08413768, -0.04295263, -0.08026125, 0.00484753, 0.03831311, 0.01399259, -0.00740858, -0.00086032, 0.13354723, 0.05759373, 0.01330248, 0.01018380, 0.03775659, 0.07333156, 0.08910482, 0.08514693, -0.00537090, 0.00400155, -0.08629397, -0.06912145, -0.04220200, -0.00933279, 0.08486649, 0.00677486, -0.01919905, -0.02602177, 0.04167642, 0.01442573, 0.07239693, -0.02921526, 0.00519849, -0.03938377, -0.04669294, 0.04982558, -0.03061339, 0.04415563, -0.15838608, 0.05542864, -0.03454329, 0.03370574, -0.06537210, 0.07576732, 0.03465144, -0.01771027, -0.10518228, -0.09158537, 0.02962276, 0.01571808, -0.05196868, -0.15532453, 0.04706064, -0.08402278, -0.05944756, 0.03450756, -0.05733468, 0.01464841, -0.02564955, -0.02218637, 0.06724105, -0.00185593, 0.06504180, -0.04933938, -0.12933937, -0.09804441, 0.02216397, -0.04402045, -0.00079353, -0.01663950, -0.02364759, -0.00346135, 0.00343732, -0.09585507, -0.10602529, 0.00399353, -0.12176327, -0.18669084, -0.04051563, 0.00693453, -0.03224299, -0.02228164, 0.04336867, 0.06020558, -0.11468983, -0.10556252, 0.08998026, 0.06702008, 0.07238334, -0.11201023, -0.05104662, -0.01687458, 0.01610220, -0.10136380, 0.08476955, 0.04691158, 0.11979374, -0.04315535, -0.12182746, -0.01939610, 0.00511893, -0.03509334, 0.09331187, -0.14822429, 0.00268390, -0.03389531, -0.06613986, 0.00567153, 0.02108384, -0.02338005, -0.11173593, 0.04076503, 0.01139739, -0.10828057, 0.12482838, -0.04751261, -0.14459607, -0.03902271, -0.00207682, 0.06534123, -0.06281590, 0.00777197, 0.06903568, -0.00799991, -0.11536646, -0.07815939, 0.06508688, -0.06721282, -0.03369833, -0.06544109, -0.03139990, -0.00334399, 0.05067945, 0.03534143, -0.00909008, -0.00634304, -0.06208033, -0.12220477, -0.00402052, -0.03001060, -0.02065887, 0.05236440, -0.05605597, 0.00122045, 0.08253222, -0.10926389, -0.08816966, 0.03579662, 0.08617319, -0.04614742, -0.09337431, -0.12224134, -0.01302545, -0.06416959, 0.01630540, -0.10130432, 0.07701797, -0.10668920, 0.00427148, 0.00632083, 0.09683268, 0.01519142, -0.00256726, -0.01307108, -0.05574545, -0.08318238, 0.05924735, 0.02254652, -0.01848670, -0.06335212, 0.00803592, 0.04615572, -0.03129947, 0.03793253, 0.09263139, 0.01786770, -0.03879966, 0.01674075, -0.10518751, -0.08113546, -0.04268210, -0.14765722, 0.03394753, 0.04485307, 0.01559865, 0.11310547, 0.10563703, -0.02788271, 0.02619829, -0.08565578, -0.03778030, 0.07929944, -0.00336987, -0.01734172, -0.07967179, -0.03945426, 0.00423539, -0.09930360, 0.03405536, -0.00001385, -0.04376140, -0.02858041, -0.07295193, -0.03591214, -0.03290277, -0.07957873, 0.07496588, -0.12361778, -0.11890642, -0.16764139, -0.10313059, 0.10925814, 0.00351358, 0.03888337, -0.02921463, 0.05364591, -0.05645277, 0.01766080, -0.00318755, 0.01536363, 0.01319977, 0.03351991, -0.07415035, -0.09127742, 0.00492365, -0.07345870, 0.01386718, -0.06609016, 0.03394689, 0.03102015, -0.01053275, -0.03414042, 0.01179060, -0.12092358, 0.04424567, -0.15257068, -0.04975861, 0.02246824, 0.02610975, 0.04732424, -0.09869337, -0.12021083, -0.01801082, -0.00314256, -0.05816240, -0.06450958, -0.07031859, -0.02111716, 0.05097204, -0.05526156, 0.11639734, 0.01792304, 0.04417474, -0.10343318, -0.04271472, -0.09238712, -0.06118680, -0.07621315, 0.06444501, 0.00388589, -0.05875390, -0.09055284, -0.06354276, 0.02079552, -0.00171918, -0.00506638, 0.03064498, -0.00349978, -0.01004459, 0.01101668, -0.01755429, 0.05712680, -0.07418007, 0.09944759, -0.02626930, -0.01796146, -0.02470501, 0.06095642, 0.01691800, -0.01521382, -0.11340412, 0.03891497, -0.04291589, 0.07009974, 0.00070540, -0.07652219, 0.00630218, -0.03458006, 0.01069142, -0.04657377, 0.04516079, 0.00510058, -0.03026697, 0.06104170, 0.07371921, -0.04318295, -0.03475183, -0.09727495, -0.09823851, 0.02922901, -0.11285577, -0.06702636, -0.06369196, 0.03054319, 0.02416234, 0.04532681, -0.07261206, 0.00804150, -0.03215473, -0.04068957, 0.05883566, 0.02538704, -0.01600667, -0.11504926, 0.07269029, -0.07424788, 0.03410159, 0.07725325, -0.10575578, 0.03294104, 0.08267762, -0.10201219, 0.06708363, 0.04985813, 0.07981324, 0.04119299, -0.13915390, 0.05180018, -0.01967628, -0.01682899, 0.08675198, -0.06437360, -0.11088566, 0.00941190, -0.02741896, 0.07097729, 0.03994522, -0.05010431, -0.01149120, -0.05278303, -0.09170484, 0.02959471, 0.06887382, 0.05103195, -0.11733392, -0.11105066, -0.01402487, 0.03613928, -0.03382893, -0.02516562, 0.04631883, 0.10348625, -0.14359541, -0.01945849, 0.07038730, -0.05864402, 0.07393117, -0.10651856, 0.00272420, 0.04843388, -0.00320898, 0.06447892, -0.07421296, -0.04107175, 0.05408018, -0.03660133, 0.07526752, -0.01907369, -0.04021602, -0.06650530, -0.01065059, -0.00139258, -0.01385768, -0.05503989, -0.08176734, 0.03513889, 0.01976360, 0.01039529, -0.15654573, 0.01796852, -0.07538489, -0.04810909, -0.08463961, 0.04607911, 0.00016235, -0.01702597, 0.01092260, -0.02309491, -0.07767063, -0.02160764, 0.06078330, -0.12690347, -0.00317199, -0.02713725, 0.00339381, 0.07548909, -0.00236824, -0.01782979, 0.04657917, -0.02163886, 0.01049952, 0.06307845, -0.02395273, -0.01966125, -0.18285461, 0.01643456, -0.03265770, 0.08341727, -0.10142629, -0.00571564, -0.06286640, -0.04480680, -0.06266515, -0.02870361, -0.10233379, -0.09121655, 0.07461485, -0.17252740, -0.07085589, -0.08595357, 0.03465135, 0.01391854, -0.04039092, 0.07262842, -0.06786431, 0.04633775, -0.04924543, -0.07515896, 0.03418393, 0.04211402, -0.08072469, -0.07055660, -0.12884842, 0.06161157, -0.08317591, -0.03670755, -0.08311433, -0.05478095, -0.05874828, -0.04038094, -0.02963000, 0.05858563, -0.06702055, -0.03989167, 0.07718484,
  0.07945127, 0.02002215, -0.03920272, -0.01661541, -0.05213561, -0.08035604, -0.00369851, -0.08770619, 0.08696033, 0.06636425, 0.03144945, -0.00421512, -0.08453658, 0.08897224, -0.06509372, -0.00214081, -0.05897401, 0.04717658, -0.09228370, 0.05745625, 0.06376515, 0.03127022, 0.02356701, -0.05292995, -0.08737530, 0.04135334, 0.03464351, -0.02803084, 0.03034624, -0.13670984, -0.01468592, -0.04208352, -0.01726298, 0.06616582, -0.03496253, -0.10485618, -0.01565841, -0.02873255, -0.00260755, 0.11005124, -0.01261709, -0.00822025, -0.01259515, -0.01277445, -0.02915112, -0.10782167, 0.01850361, 0.00627074, 0.03730414, 0.01856337, -0.03990560, 0.06759352, 0.07762033, -0.02081580, -0.06177256, 0.00766143, 0.01838247, 0.07626800, 0.01197340, -0.10790274, -0.01887230, 0.06240096, -0.06903484, -0.07791042, -0.02811507, 0.07229955, 0.03294428, 0.08769260, -0.04207996, 0.02517476, 0.09201744, -0.05426948, 0.02133754, -0.12553751, -0.08481469, -0.06902032, -0.07378936, 0.00472282, 0.01635408, 0.04777740, 0.04745487, -0.08839279, -0.12411652, 0.00168209, -0.00812021, -0.12778273, -0.07673395, -0.11170026, 0.01562277, -0.06281831, -0.07975756, 0.12837675, 0.04513064, -0.03926430, -0.07247001, -0.09836639, -0.07187584, 0.00973627, -0.08343060, -0.09271204, 0.03922794, -0.03806457, -0.02965277, 0.08243292, -0.05734330, -0.03689137, 0.05362728, 0.11049706, 0.04505030, 0.06471071, -0.01731913, 0.01418168, 0.00762227, 0.07404677, -0.02421007, -0.07456040, -0.07897926, 0.01864421, -0.03600674, -0.01996700, 0.11367660, -0.00793181, -0.01959522, 0.02413632, 0.01088831, -0.02455940, 0.00215036, -0.04237692, 0.06026709, 0.06391985, 0.06315577, -0.08025008, 0.01464247, 0.05076720, 0.07728003, -0.03822790, 0.02909846, -0.06516384, -0.05468969, -0.10370394, 0.01966345, 0.06087454, -0.02023540, 0.00576775, -0.00570759, 0.01558110, -0.03591845, 0.09838066, 0.11590664, 0.10064171, -0.01226714, -0.11317218, 0.07048631, 0.08296387, 0.09488194, 0.03907627, 0.01462322, -0.07384571, -0.01042125, -0.05991076, -0.04577313, 0.06491624, 0.12206898, 0.04377507, -0.00167499, -0.03728582, -0.02832257, 0.03032077, 0.05378533, -0.08761010, 0.06447007, -0.07160231, -0.01917531, 0.06202316, 0.10507080, 0.00263709, 0.08480209, 0.02870478, -0.01476575, -0.09972293, -0.06296835, -0.08721019, 0.02864245, 0.07696239, 0.07950707, -0.01586903, 0.06950169, -0.05746748, 0.09615815, 0.08615576, 0.01831832, -0.04262676, -0.04465803, -0.04775591, -0.00515132, 0.00106812, -0.05434169, 0.08366434, 0.01447792, 0.03795981, -0.04661293, 0.01808272, -0.03463525, -0.05862338, -0.11943100, -0.00133031, 0.02289939, 0.07143745, 0.03739109, 0.06901598, -0.03064822, -0.03810930, 0.04047908, 0.07878342, -0.04907153, 0.02601869, -0.05015385, 0.00233263, -0.12202504, -0.05632438, -0.04355882, 0.09143940, 0.08549353, 0.09651707, -0.00520504, -0.08451124, 0.00688293, 0.00002887, 0.13221708, -0.02918150, 0.01452746, -0.04121440, 0.01638904, -0.07152725, 0.09252770, 0.04549206, -0.07500686, -0.11378161, -0.00535447, -0.06503460, -0.07021710, 0.03983195, 0.01027825, -0.06296638, 0.01588807, -0.07074638, 0.01831768, 0.04604943, -0.01823994, 0.06972191, -0.03363447, -0.11449048, -0.04057432, -0.08468333, 0.12513077, 0.00206640, 0.03121274, -0.08800381, -0.04841010, -0.07976267, 0.09382733, 0.10450006, -0.07849000, -0.07646497, -0.09432439, 0.01171477, 0.04170104, 0.06731942, -0.02796049, -0.05947145, -0.02072343, -0.04854989, -0.02524608, 0.09046727, -0.02339639, -0.05881317, 0.03153457, -0.10159896, -0.05159795, -0.06846127, 0.04385445, 0.05539038, 0.04938203, -0.00524829, 0.03631173, 0.06308115, 0.11162307, -0.03613242, 0.08642920, 0.02197128, 0.05643454, 0.01830249, -0.08558973, -0.01688476, -0.01483888, -0.11900840, -0.08075208, -0.07601531, 0.07837763, 0.12595952, -0.01909859, 0.08118607, -0.07670690, 0.06567059, 0.04125913, 0.04031125, 0.06962177, -0.00054432, -0.11950316, -0.01011011, 0.01066306, -0.05152576, 0.08505082, -0.01206348, -0.04467074, 0.03825480, -0.09893861, 0.08895242, 0.05405695, 0.07311594, 0.05202083, -0.09150944, 0.07021284, -0.07997375, -0.06267173, -0.00598651, -0.00479433, -0.06085423, -0.06900617, -0.01491001, -0.06518006, 0.00964211, -0.00508048, 0.06912147, -0.08046293, 0.05858149, 0.02633302, -0.04132398, 0.09200018, 0.06234956, 0.11067206, -0.06915215, -0.10009872, -0.02288244, 0.02312465, -0.06021279, 0.03439200, 0.01552117, -0.03198066, -0.01984686, -0.09636526, 0.03400380, 0.12402886, -0.08266933, -0.11289417, 0.02618024, -0.02133624, 0.02741074, -0.09546833, -0.12588567, -0.05129504, 0.04335259, 0.00650209, 0.00742053, 0.10335961, -0.01839003, -0.02722325, -0.10102716, 0.05403060, 0.04362943, -0.08570459, -0.00689250, 0.01093078, 0.03956474, 0.04457087, -0.03940398, 0.02395733, -0.01235819, 0.12185737, -0.03257789, -0.11131230, -0.05569397, 0.04315130, -0.03681826, -0.00267198, 0.00403194, -0.09089532, -0.12302052, -0.05650151, 0.02721653, 0.06525008, 0.03787378, 0.05961797, -0.12950590, 0.02770597, 0.03053988, 0.03392776, 0.01152695, 0.02228734, 0.01406389, -0.09498957, -0.05424785, 0.06943057, 0.09182708, 0.04137022, 0.04590419, -0.07558487, 0.04037161, 0.02802390, 0.06067357, 0.00049180, 0.04252194, -0.11081482, -0.00307603, 0.02201581, -0.09936108, 0.05661917, 0.07710777, -0.03871545, -0.03731484, -0.06723915, 0.05340676, 0.02177333, -0.01192536, 0.03493913, -0.04254530, 0.03617385, 0.04387758, 0.04932249, 0.03456473, -0.02249851, 0.08708619, -0.03055424, -0.09712692, -0.01226031, -0.02574269, 0.06909770, -0.09665350, -0.06056750, -0.01833241, -0.14097583, 0.05504031, -0.07116507, -0.03887393, -0.05046146, -0.00852348, 0.05702655, 0.01354559, -0.06409511, -0.10252137, 0.06271329, -0.07315618, -0.01775053, -0.12504447, -0.04793113, 0.02732931, -0.05612656, -0.00050500, -0.05426811, -0.05571479, 0.04175741, -0.05533938, -0.07324927, -0.01977694, 0.06177323, 0.06858601, -0.15666935, 0.03315888, 0.04973267, 0.07807694, -0.08582018, 0.00371523, 0.05213080, -0.06605896, -0.09000403, 0.01671675, 0.06876601, -0.00018030, -0.00516235, -0.05819063, -0.07537136, -0.04702630, -0.01197351, 0.02159266, 0.03527241, -0.03537052, -0.00835031, -0.07262000, -0.10864197, 0.06543495, 0.07387592, -0.05295800, -0.09873208, 0.04779289, -0.02410593, -0.07263488, 0.06030741, -0.09055232, -0.08962156, 0.03090838, -0.04063723, -0.08929919, 0.07807609, 0.02309318, -0.02623878, -0.15485013, 0.03352431, -0.03207362, 0.00627824, 0.02062989, 0.03287882, 0.02528618, -0.08540855, 0.06582446, -0.10752735, -0.00892346, 0.04768891, -0.07926428, -0.11108581, 0.00554288, 0.07164737, 0.03625636, -0.03710533, 0.07262031, 0.05945950, -0.07593437, -0.00473626, 0.06544887, -0.05751063, -0.02335708, -0.05768489, 0.01110629, -0.07467813, 0.07746840, 0.09637538, 0.03134372, -0.05246149, -0.00741153, 0.05214195, -0.08041976, -0.02201434, -0.00550941, -0.07224385, -0.05371899, -0.02004120, -0.00511225, 0.10710400, -0.04927326, 0.01784265, 0.03245526, 0.01447963, 0.00232818, -0.06539945, -0.02119025, 0.08360581, -0.04033373, 0.03701750, -0.10226172, 0.06408276, -0.05192744, -0.09400743, -0.03363952, -0.09380052, -0.06760246, -0.10402910, -0.05166368, -0.01385784, 0.00186926, -0.04554055, -0.08418317, -0.02737743, -0.01890220, 0.05516513, 0.07778253, -0.02082471, 0.03462498, 0.07537587, 0.06161606, 0.03367230, -0.06772304, -0.02487845, 0.06111059, -0.06356829, -0.14124693, 0.03876289, -0.02062006, 0.04685491, 0.03458058, -0.02224574, -0.01995128, 0.05929646, -0.03735178, -0.08590409, 0.07586420, 0.03390808, 0.05511682, -0.05899408, 0.00168618, 0.08502975, 0.01480755, -0.08239039, -0.06595168, -0.09669718, -0.06292748, 0.00529240, 0.07054560, -0.05986555, -0.02584434, 0.04696839, -0.10267249, -0.08070508, -0.06752028, -0.07064062, 0.02998641, -0.11499078, -0.03252378, -0.11081488, -0.07635470, 0.05217383, -0.09431125, -0.06681440, -0.09741537, -0.14452046, 0.00829355,
  0.01493938, -0.00166611, 0.06377181, -0.04363280, -0.05962275, -0.07016610, -0.00236709, -0.06466185, -0.10805331, -0.01730086, -0.07397655, -0.10590894, -0.08209089, 0.01979905, 0.07731206, -0.02686250, -0.01066920, -0.06105418, 0.05564373, 0.09517507, 0.03452767, 0.08675647, -0.02465808, 0.05544051, 0.02262957, -0.01876925, -0.05008060, -0.01693717, -0.01818083, -0.00637987, -0.05226443, -0.10526422, 0.05741840, -0.06831533, -0.01454460, 0.09825210, -0.06411711, 0.09824836, -0.05080499, -0.06138804, -0.06596863, 0.01901456, -0.05945347, -0.10722306, 0.07838675, 0.01804764, 0.10997369, 0.10266913, 0.05408864, -0.08315699, 0.06804428, -0.03720437, -0.06586673, -0.00139956, 0.00520721, -0.04822109, 0.02181083, -0.07643239, 0.06764392, 0.02322563, -0.00388635, 0.10418295, 0.01392412, -0.00413644, 0.01074492, -0.08588295, -0.01233856, -0.09099582, -0.12197051, 0.03918595, -0.06202891, 0.04033774, 0.04132234, -0.00074412, 0.06375936, -0.01170246, -0.03250954, -0.05952547, -0.06944108, 0.05299396, 0.03871705, 0.02536899, -0.06584665, -0.06246838, 0.00889782, 0.14624938, 0.02199661, 0.02597175, 0.01824225, -0.03082415, 0.01367034, 0.05563626, 0.02248952, 0.00360597, -0.06971634, -0.01516173, -0.01532846, 0.04059463, 0.07772890, -0.02568769, 0.07110961, -0.02690101, 0.05179828, -0.06901321, -0.05509020, -0.05081622, -0.10199574, -0.02713099, -0.06821026, 0.06096372, 0.08167267, 0.02413950, 0.06778203, -0.04415859, -0.08889853, -0.01172024, 0.01463968, 0.02991721, 0.02825995, 0.00557822, -0.09405175, -0.05555415, 0.04058769, -0.04746844, 0.09934246, 0.05751942, 0.01879659, 0.08334350, -0.00857458, -0.04872762, 0.01576615, -0.07621636, -0.05354144, 0.05001103, 0.05868872, -0.01981648, -0.03223361, 0.21241112, 0.06922045, 0.05104427, -0.01431371, 0.02420137, -0.03182803, -0.06003860, 0.08200099, -0.02373431, 0.00467453, 0.04801674, -0.00453728, -0.04948350, 0.11214059, -0.04100319, -0.05175076, 0.14620768, -0.02129532, 0.01714169, -0.04682017, -0.00746881, -0.04384375, -0.11412885, -0.09485918, 0.00460138, -0.06662665, 0.01899180, 0.02384997, -0.05527106, -0.02306456, 0.05420464, -0.07457789, 0.00306702, 0.03569415, 0.06225118, 0.01571484, -0.03225376, -0.10070257, -0.03322511, 0.08073271, -0.01328910, 0.09856807, 0.03136574, -0.01100582, -0.04994991, -0.04811484, -0.09747026, 0.03140036, -0.09522652, -0.14225589, -0.01399094, -0.00147100, -0.06737874, -0.04910009, -0.00769119, 0.11912758, 0.06563391, 0.08640557, 0.10099410, 0.01048963, -0.08043087, -0.08807205, -0.08181886, -0.09197126, 0.05329419, 0.01384807, -0.07991984, -0.03629540, -0.00773932, -0.10042083, 0.02019672, 0.04830526, -0.07989893, -0.09524425, 0.01930740, -0.14883624, -0.07662129, -0.00660889, 0.06875043, -0.02388703, -0.01970954, -0.01260964, 0.04726933, 0.10811195, -0.03698650, -0.05723790, -0.01399681, -0.12219371, -0.12230102, -0.04415512, -0.03378277, 0.02383580, -0.10050897, -0.06016772, 0.01014684, 0.06014574, 0.02021236, -0.03710736, -0.03933613, -0.04386532, -0.03250145, -0.07656603, -0.10112913, -0.08742765, -0.02546246, -0.07953480, -0.05029288, 0.05500434, 0.01946705, 0.09159101, -0.02198266, 0.02505342, -0.01890633, 0.04802231, -0.00935833, -0.13566732, 0.03450179, 0.10698748, 0.05076079, 0.01988165, -0.03667429, 0.04107845, 0.09372164, -0.05273853, 0.01665314, -0.08299833, -0.13349590, -0.14394180, -0.05452959, -0.02725484, 0.01702319, 0.11481819, 0.08027712, -0.01510396, 0.11765284, -0.00256731, -0.03703376, 0.04221298, -0.02172140, -0.10254292, -0.14632243, -0.13213399, 0.08073684, 0.09826125, 0.11053777, 0.11722506, 0.13626879, 0.04406973, 0.11480842, -0.10511194, 0.03748192, -0.07072596, -0.04709063, -0.13428083, 0.02137563, 0.04346250, 0.06675517, 0.06887639, 0.05214833, 0.14022017, 0.12156351, -0.05677584, 0.02152216, 0.04403959, -0.01849928, -0.07659309, 0.02611928, -0.05664483, 0.09744538, 0.06367914, 0.14657541, -0.00440961, -0.01249436, -0.02728432, 0.04807841, -0.05875047, 0.07079069, 0.06013241, -0.01825383, -0.07513954, -0.13659161, -0.00721264, 0.11618090, 0.07931649, -0.00371462, -0.06792057, 0.03562474, -0.02049178, -0.06991363, 0.02576079, -0.00330112, -0.02660593, -0.04869152, 0.06959137, 0.08905472, 0.06949805, 0.05374375, 0.05206212, 0.03638442, -0.02380501, 0.08316778, 0.04710090, 0.10449286, 0.00081839, 0.04265296, -0.10573748, -0.05438680, 0.08700348, 0.11322687, -0.02981165, -0.00474672, -0.02798339, -0.02058098, -0.00449449, 0.02054208, -0.04007189, 0.02157844, -0.04879182, -0.05496450, -0.16751935, 0.02937197, 0.02154434, 0.09139973, -0.01459374, -0.08383644, 0.06004333, 0.08841465, 0.09129716, -0.05662629, -0.05410900, -0.03610640, -0.06292532, -0.01669918, 0.03530962, 0.01867235, 0.13158897, 0.00615866, 0.08460316, 0.04852577, -0.03476978, 0.06460000, 0.00853922, 0.01119738, 0.02543492, -0.07642462, -0.03033464, -0.09432244, -0.01188303, 0.08138946, 0.11135847, -0.10980278, -0.07111342, -0.06600856, 0.10059756, -0.04273904, 0.03591143, -0.02593914, -0.05877452, -0.00512994, -0.06756677, -0.01222960, 0.08532193, 0.06032752, -0.08161991, 0.03686536, 0.01645982, 0.01247938, -0.04139547, 0.10186053, -0.02597016, -0.02374822, -0.08575112, 0.01986456, 0.09163044, -0.06984106, 0.11501862, 0.00650763, -0.12254581, 0.06557383, 0.07829586, -0.06378746, -0.05097081, 0.04291163, -0.08469118, 0.00081550, -0.07252379, -0.07198757, -0.07904557, 0.01583073, -0.06357762, 0.06333871, 0.02599954, -0.00332915, 0.02434451, 0.00447572, 0.06541596, 0.01655500, 0.01175185, 0.00195846, -0.09821169, 0.07271480, 0.03938525, -0.09998546, -0.00893611, -0.09212602, 0.07818763, -0.05977448, -0.01342933, 0.01563029, 0.01360265, -0.03727120, -0.02496568, 0.01506851, -0.04345441, -0.07715963, -0.06914995, -0.01681142, 0.08077000, -0.06305771, -0.06743640, -0.05184481, 0.09898663, -0.08458769, -0.01754438, -0.00626351, 0.03912125, 0.02592726, -0.11058994, 0.00550280, 0.04423172, -0.04233674, 0.07340636, -0.03164142, 0.09733420, -0.01665631, -0.02065498, -0.00120913, -0.03873157, -0.01742294, -0.14015979, -0.01531548, -0.06121096, -0.08386426, 0.00758754, 0.05922512, -0.06568258, 0.09199940, 0.02762887, 0.02255726, 0.01947394, 0.04987239, 0.05609362, -0.09259593, -0.00873837, 0.00977585, 0.02617830, -0.04717734, -0.03455001, -0.04830598, -0.05021530, 0.06850568, 0.03973845, -0.03629694, 0.05937479, -0.01938735, -0.12239244, -0.03696509, -0.06574652, -0.02645130, 0.04499336, -0.09336770, 0.02313578, 0.08766737, 0.06779031, -0.01773554, -0.04652283, -0.03079307, -0.00196523, -0.03106472, -0.10280664, 0.02459401, -0.09252632, 0.02161440, 0.05245777, -0.02372622, -0.00103745, -0.06769048, -0.06539110, -0.03380679, -0.00188838, -0.04390734, -0.01477516, -0.13051149, -0.01164122, 0.06896877, 0.07422432, -0.12521702, -0.09442629, 0.01341438, -0.06430101, -0.07791568, 0.02562989, 0.08094672, 0.06506667, -0.04806849, -0.03629755, -0.07041473, -0.00572286, -0.07672653, -0.06176901, -0.04387895, -0.06186019, 0.07480685, 0.03307515, 0.03523619, -0.05189792, -0.08939737, -0.10360372, -0.00788464, -0.10730430, -0.03186669, -0.05605202, -0.01672853, 0.04869507, -0.04149377, -0.04773023, 0.00757956, -0.07888268, -0.10268278, -0.05002930, 0.07328543, -0.04185436, -0.01789006, -0.05550819, -0.06828803, -0.00721108, 0.04261868, -0.07611120, 0.05484341, -0.08373671, -0.07321486, 0.01125448, -0.04123083, 0.03656279, -0.00147458, 0.07383095, 0.03694376, 0.01317698, 0.06832769, -0.04549956, -0.04073980, -0.10873173, -0.04394231, -0.07105043, 0.01310347, 0.06084772, -0.05563064, -0.01513108, -0.00372926, -0.02839054, 0.03940919, 0.02011158, 0.04358105, -0.00045742, 0.06693172, -0.05796006, 0.00940673, -0.08158089, -0.03369480, -0.09427944, -0.00238277, 0.04189939, -0.01350931, 0.08550359, -0.05507851, -0.08871533, 0.02162727, -0.08736853, -0.10795522, 0.00739607, -0.08391134, -0.03792413, 0.06229264, 0.00604652, -0.01745974, -0.05887910, -0.06205900,
  0.06992587, -0.01627064, -0.07358152, -0.07002898, 0.10516269, 0.08971570, -0.05244314, 0.07937796, 0.07144881, 0.02730822, 0.04512903, 0.22290976, -0.06139339, -0.05323896, 0.12056950, -0.03404570, 0.02496146, -0.01267797, -0.06954614, -0.00353568, 0.00120577, -0.08452566, -0.01734692, -0.05064516, -0.11071048, -0.03006208, 0.02796219, 0.06984661, 0.04732142, -0.08335484, 0.01420534, -0.02482111, 0.06448268, -0.02008622, -0.06001296, -0.05753943, 0.03895012, 0.14453812, -0.08659754, 0.02737600, -0.02817427, -0.05059297, -0.04781042, -0.04625450, -0.05326385, -0.02159711, -0.03967155, 0.07298457, 0.09595432, -0.07192678, 0.09576370, -0.02709897, -0.06370697, 0.04045856, -0.05517146, 0.01612060, 0.03716213, -0.01750332, 0.02889095, 0.07544279, -0.06738109, -0.04752754, -0.02936820, 0.16073020, -0.02355118, -0.02850317, -0.04034473, 0.00001268, 0.05558042, -0.02736619, 0.03242702, 0.06896007, -0.02928663, 0.04787574, -0.05833595, -0.03037718, 0.07078724, -0.02707036, 0.03572372, -0.06921070, -0.02812961, 0.08323475, -0.06678869, -0.03508374, -0.04533060, -0.03931277, 0.06625333, 0.02849798, 0.05951286, 0.00990620, 0.01695742, 0.08987638, -0.06950434, -0.08526901, -0.00918482, 0.01778410, -0.04279307, -0.02293889, -0.11939885, -0.08922953, -0.01229939, 0.07784349, 0.09629741, -0.03722521, 0.05320299, -0.06137814, -0.07806573, 0.02619340, -0.08267067, -0.00793919, 0.00099808, -0.00428782, -0.02838321, 0.05802312, 0.09663375, 0.01875538, 0.06486504, -0.02505053, 0.08796328, -0.03794182, -0.04770575, 0.03126178, 0.05821025, 0.03893319, -0.06161515, -0.15456146, 0.03584944, -0.02726493, 0.12952562, -0.07412802, 0.04770921, -0.01628258, -0.04063996, -0.08278837, -0.11658366, -0.09820534, 0.06112353, -0.15816370, -0.28493744, -0.15965709, 0.02338718, -0.00939651, -0.08774842, -0.06219158, -0.02978288, -0.06438757, 0.07497205, -0.02593696, -0.02420885, 0.02729328, -0.01641173, -0.18406995, -0.01770204, 0.14849535, 0.10809700, 0.10915762, -0.05456338, 0.00346533, 0.05685617, -0.10067347, -0.08188672, -0.08223522, -0.02352915, -0.00460311, -0.00374855, -0.01006809, 0.00818741, 0.03307569, 0.00232961, -0.05939664, 0.04726632, 0.07376127, 0.06547043, -0.13186124, -0.04622909, -0.00991119, 0.14202859, 0.06106363, 0.09833033, 0.08125593, -0.05410207, -0.03859066, 0.06037134, -0.07729959, -0.10337739, -0.10429233, -0.01841833, -0.02066525, 0.07182907, 0.01723402, 0.03644378, 0.03657145, 0.02738909, -0.12118136, -0.08199394, -0.02368899, -0.01535012, 0.07056305, -0.05449277, -0.04985137, 0.00720721, 0.01161271, 0.08599890, 0.11595725, -0.06364700, -0.04204995, 0.05856217, -0.02157111, 0.02012800, -0.01227774, -0.06078142, -0.02660435, -0.10865812, -0.05214595, -0.04703801, -0.02377311, 0.13621993, 0.08169960, 0.04394085, -0.06253680, 0.06013799, 0.10075072, -0.01820548, -0.08651549, -0.00915802, -0.07772508, 0.00922789, 0.02256015, 0.01838043, 0.12380688, 0.05016463, 0.07847375, 0.03040814, -0.02539573, 0.04766298, 0.08000331, -0.03851277, -0.09195963, -0.02069820, -0.05921070, 0.08764003, 0.14565557, -0.02879655, -0.06114222, 0.05106958, -0.06327007, -0.06299433, 0.04758480, 0.07923999, 0.00827702, -0.04375831, 0.02591184, 0.06099590, -0.05658622, 0.03722955, 0.07767647, 0.06669468, 0.01599990, 0.03800942, 0.02590567, 0.07501788, 0.11986888, 0.10816841, -0.01229108, 0.06343140, 0.06893162, 0.01888559, 0.08553097, 0.02292218, 0.04152838, 0.06978068, 0.05439173, 0.05611836, -0.04583264, 0.03878692, 0.11643651, 0.01042438, -0.00510328, 0.03363925, 0.06189188, 0.13612422, 0.14799263, -0.07027403, -0.06377749, -0.02415047, -0.05861972, 0.12365908, 0.06682959, 0.12086034, -0.03345897, -0.00871635, 0.02667218, 0.06116284, 0.02723936, 0.12641448, -0.05640587, -0.03518891, 0.09662953, 0.03208242, -0.06135315, -0.03926332, 0.04367210, -0.08870450, -0.05026172, -0.02800707, 0.04158170, 0.00362554, 0.07179213, -0.11490301, -0.01785867, 0.08189677, -0.00451134, 0.03788931, -0.01822843, 0.08798587, -0.03410878, 0.04541949, -0.00269371, -0.04131038, 0.03104471, 0.01589722, -0.10407095, -0.05656344, -0.08419065, -0.09568322, -0.04749471, 0.09207386, 0.03526565, -0.02999932, -0.05084713, -0.03775422, 0.02012676, 0.04569773, 0.02512759, -0.03676148, -0.02328065, 0.08051030, 0.00055297, 0.12598015, -0.00149638, 0.01153966, -0.04400633, -0.03768013, -0.05072112, 0.07998648, 0.08778345, -0.06373604, -0.13280049, -0.00979172, 0.00483706, -0.02542173, 0.08137458, 0.13597654, 0.08355959, 0.08734370, -0.09486395, -0.10901766, -0.07981600, -0.05218524, 0.01122884, -0.15305474, -0.03547535, -0.06969443, -0.00623112, 0.03791030, 0.03249623, 0.03271788, 0.02763486, -0.02894290, 0.05715716, -0.04791264, 0.02810290, 0.02731246, 0.06189336, -0.04255391, -0.06540680, 0.01700416, 0.06849773, -0.01610958, 0.05332154, -0.03116887, 0.01514567, -0.05183311, -0.03327033, -0.06535810, -0.01006432, -0.01917329, 0.03952492, -0.14655057, 0.06468735, -0.07246553, -0.06147312, 0.03868122, 0.02957372, -0.07541217, -0.02775203, -0.04248443, 0.02743015, -0.07156063, 0.05448816, -0.05375246, -0.04060650, -0.00152632, 0.01486191, 0.10064778, -0.04855200, -0.00173228, 0.00412327, 0.02088578, -0.05435079, -0.11693199, 0.04991198, 0.00375984, 0.04186101, -0.05440144, -0.05057748, -0.04792979, 0.03079152, -0.04919958, -0.07944068, -0.10349333, 0.01519420, -0.10074942, 0.00048417, 0.06459216, -0.04024974, -0.04620901, -0.03339797, -0.01296005, 0.01942912, -0.06476834, -0.03937577, -0.05005321, -0.02391066, -0.04332076, -0.08200134, -0.06514322, 0.00448931, -0.11065638, 0.03542290, -0.03630523, 0.04711643, -0.10039138, -0.04516592, -0.02620513, 0.00117982, -0.02629433, 0.03853273, 0.03941359, -0.08716077, -0.07108781, 0.01203652, -0.01227689, -0.03773097, -0.02335008, 0.08659078, 0.05331609, -0.02292502, -0.08314145, -0.01344872, 0.05264051, -0.08371570, -0.08883653, 0.07582717, 0.04214150, -0.06320168, 0.11059701, -0.03147564, 0.01814877, 0.02165609, -0.04512323, -0.06324024, 0.08293751, -0.08716422, 0.01644425, 0.08535209, 0.06186620, -0.00865214, 0.03587194, 0.02751959, 0.07887394, -0.11981318, 0.00565442, 0.01412927, 0.02054230, -0.09831020, 0.04900955, -0.07083044, 0.07767284, -0.05432286, 0.07619837, -0.06296249, 0.08762187, -0.07255311, -0.00976863, 0.04995276, -0.08223608, -0.07878685, -0.03951454, 0.02449627, 0.06416938, -0.01730216, -0.09214076, -0.01736806, 0.02901696, 0.07382233, -0.08822973, -0.06939128, -0.10399579, 0.03117547, 0.01222043, -0.07206615, -0.09254748, 0.04497413, -0.06505004, 0.06692176, -0.01378282, -0.05147214, 0.03871875, 0.05695188, -0.00655151, -0.08168702, -0.00165892, 0.07910423, -0.04486614, -0.02021720, -0.07318212, -0.09035566, -0.00516287, 0.04920583, 0.09464391, -0.12390147, -0.00442919, 0.05795437, -0.05587102, -0.01677576, -0.05435411, 0.08709107, 0.06550881, -0.06301072, 0.05041365, -0.04806013, 0.07801150, 0.03266653, 0.11091042, -0.01404578, 0.06832471, 0.05195424, -0.02938053, 0.00751897, 0.03586960, -0.04931400, 0.07550702, 0.00651313, -0.08255587, -0.08869646, 0.03761538, 0.06165785, 0.06942397, 0.00112660, -0.04547440, 0.05159543, 0.04933159, 0.01769880, 0.07417603, 0.04290916, 0.05872518, -0.05930785, -0.04714397, 0.06278846, 0.09285694, -0.02977580, 0.06981663, 0.03260643, -0.07735014, 0.07780668, 0.05866099, -0.00799172, -0.05227826, 0.01776780, -0.10108749, 0.03423067, -0.01964699, -0.07858496, -0.00314146, 0.06219302, 0.05974611, 0.01019168, 0.05526941, 0.05713728, -0.00265767, -0.02140597, 0.03107105, -0.01520431, 0.02156566, -0.03528805, -0.02068125, 0.00133436, 0.02911193, 0.02615871, -0.02310703, 0.07875036, 0.06246604, 0.05203051, 0.02865157, -0.00045881, 0.00545261, -0.03945819, 0.09556767, -0.03866477, -0.03709206, -0.12068237, 0.03651985, -0.04763986, -0.07923210, 0.02179549, -0.05836836, -0.02863242, -0.04170101, -0.02130262, 0.05763708, 0.01369037, -0.02765425, 0.04426749,
  -0.04767840, -0.09229774, 0.09463622, 0.06368791, -0.01017774, 0.01124603, -0.00162433, -0.03365018, -0.00433128, 0.03179485, -0.01047383, -0.05804323, 0.09294493, -0.02826511, 0.00488505, -0.00455235, 0.00837806, 0.10325149, 0.06885647, -0.04991528, 0.05429942, -0.02938071, 0.03840807, 0.05999979, -0.04219681, 0.05815419, -0.05524422, -0.05107920, -0.01385553, 0.10157121, 0.01825844, 0.06492270, 0.03427181, -0.05573908, 0.03438082, 0.07898913, 0.03611564, -0.00850465, 0.05413448, 0.05000171, -0.05848404, -0.01243065, 0.11150177, 0.00110385, -0.10254686, -0.01503505, -0.02981063, -0.02514751, 0.04119041, -0.07017525, -0.05357660, -0.00344369, 0.07140637, -0.03788462, 0.01306249, 0.03992550, 0.09867807, 0.04233053, -0.01537777, -0.01507802, 0.00270275, 0.07230357, 0.06749845, 0.00333498, 0.02521446, -0.00379363, 0.01927451, -0.07278562, 0.00103807, -0.09619745, 0.03028794, -0.06115871, 0.07350148, 0.01717131, -0.02968226, -0.07549474, -0.08742063, 0.04001446, -0.04096891, 0.07599613, -0.07395698, 0.09033490, 0.04426476, 0.05697294, 0.01484427, 0.05166478, -0.00861140, 0.08985912, -0.03151444, 0.12175963, 0.09713728, -0.08529159, 0.07182103, 0.03671170, 0.08494407, 0.10136058, 0.07983690, 0.04836241, 0.01833873, -0.03916113, 0.09599032, -0.03818801, -0.10135464, -0.02453051, -0.06156398, -0.07472070, -0.00387793, 0.03419827, 0.05527450, 0.02255920, -0.11815189, -0.00374023, 0.14435190, -0.03872173, 0.01578241, 0.05838023, -0.06399801, 0.01062626, 0.04267445, 0.05625558, 0.04314827, 0.07077543, 0.04033317, -0.04432902, 0.07660213, 0.00079255, -0.05395887, 0.08990297, 0.08656519, -0.05848651, -0.05328857, -0.00671607, 0.01516774, 0.10668400, -0.06054798, 0.10122249, 0.06926001, 0.08210804, 0.06209971, 0.11389952, 0.06947815, -0.00662952, 0.01009290, -0.05390314, 0.06768553, 0.01944452, 0.00687627, -0.07164162, -0.08125260, -0.11415932, -0.01446775, -0.04936835, 0.05479217, 0.08820440, 0.02952439, -0.06904661, -0.03073508, 0.03997718, 0.05575410, -0.00222702, -0.07601144, 0.03726121, 0.04513852, 0.02031519, -0.07192062, -0.07216317, -0.04775863, 0.04914882, 0.09456426, 0.06833103, -0.02319232, -0.06145679, 0.00214112, 0.11503084, 0.05779994, 0.03063599, -0.13184264, -0.02314481, -0.02926129, 0.10324271, 0.09190012, -0.04604606, -0.05994950, 0.00282533, 0.04381594, 0.06149044, 0.00845371, 0.07489727, -0.01731180, 0.03499575, -0.00692459, 0.09682503, -0.01010681, -0.00313305, 0.08676376, -0.01860169, -0.09292565, 0.02598603, 0.10404944, 0.01216291, -0.02370387, 0.03708585, -0.12210681, 0.04805618, -0.02623681, -0.00309560, -0.03904147, 0.13346885, 0.02988407, -0.08541695, -0.06270977, 0.02587275, 0.11286225, -0.03476333, -0.07514754, -0.11599156, -0.06359681, 0.04271565, 0.07719455, 0.15017942, 0.13264625, 0.01887940, -0.01007609, 0.10446721, 0.02320821, 0.07726117, -0.01631624, 0.09044558, 0.00892829, -0.07212348, -0.03884744, 0.04952025, -0.04686401, 0.10724543, 0.04405211, -0.00136916, 0.08137605, 0.00832394, 0.09990504, -0.03487663, 0.05304689, -0.01685730, 0.01550499, 0.08577575, 0.12406914, -0.04486612, 0.09603257, 0.00325685, 0.06198714, 0.07465100, 0.13615355, -0.00819586, 0.01691364, -0.00564003, 0.03616231, 0.05244444, 0.14297427, 0.09430493, 0.10021424, -0.03101171, -0.09204739, 0.07569007, 0.01323438, 0.11028332, 0.08416580, -0.09773711, -0.06856308, -0.11867636, 0.04521657, 0.00593879, 0.10977960, 0.05440193, 0.09696256, -0.06890161, -0.07620412, -0.06004164, 0.04388422, -0.03550196, 0.01844083, 0.03688123, -0.00374762, -0.03353230, 0.01751946, 0.09631683, 0.00834417, -0.05486783, -0.06410095, 0.05245897, 0.03547973, -0.02811182, 0.01812283, 0.03320972, -0.04743453, -0.00865528, -0.02304277, 0.00255757, -0.05803659, -0.04020512, 0.02230701, 0.07933747, -0.03947354, 0.04900864, 0.03576318, 0.12148380, -0.04668296, -0.04794166, 0.07304803, -0.02522132, -0.00089239, 0.11550537, 0.00190813, 0.02400033, -0.05633516, 0.00905727, 0.05321841, 0.00536200, 0.06386996, 0.05010310, 0.11297025, 0.05365981, -0.06703818, 0.06416878, -0.00142986, -0.03590618, 0.02303807, -0.09021023, -0.07828465, -0.07248217, 0.11577664, 0.04263560, 0.02097631, 0.00071604, 0.10683308, 0.09562226, -0.03404084, 0.07062342, 0.02750006, 0.11214630, 0.07777973, -0.12662676, -0.10013738, 0.05062875, -0.02473411, -0.02185325, 0.08159889, -0.05835155, 0.06088108, -0.01352371, 0.05267118, 0.07850875, 0.00840512, -0.00459888, -0.12276871, -0.04545960, -0.05830887, 0.00171244, -0.01456501, 0.04188253, 0.09083110, -0.01927808, 0.01358835, 0.07657085, 0.07261782, -0.06999823, -0.11422162, -0.14689426, -0.02688540, 0.02210490, -0.04390122, 0.00774613, 0.10163601, -0.05515010, 0.08589299, 0.01762058, 0.03309634, -0.06689663, -0.02820325, -0.10215630, 0.01253418, -0.02642119, 0.06294334, 0.01874191, -0.04889695, 0.01379860, 0.00797586, -0.05065273, 0.06269808, -0.09363548, 0.01412820, -0.04256786, -0.06953020, -0.06879649, -0.08796107, -0.04553042, 0.04651144, 0.00313086, 0.05392412, -0.04626330, 0.08865976, -0.07528444, 0.02915425, -0.07084214, 0.08390419, 0.04680748, -0.10443164, 0.08136891, -0.03154668, -0.08766817, 0.04724655, -0.07474314, 0.08722679, 0.01790304, 0.02203377, 0.01885514, 0.01805347, -0.05123165, -0.09728781, -0.01945346, 0.05310347, -0.06740452, -0.07485913, -0.00116354, 0.06278045, 0.00330634, -0.07899855, -0.06740455, 0.04832332, 0.03939449, 0.11820852, 0.00948004, -0.12573776, -0.02019854, -0.09674303, 0.07604602, 0.06875892, -0.01128658, 0.02575604, -0.03991399, -0.00538083, -0.07311903, 0.00319725, -0.00331051, -0.08906837, 0.01269342, 0.02663913, -0.01246366, -0.03420544, -0.01137235, 0.01811961, 0.03468499, 0.02641346, -0.02858374, 0.06259500, 0.07675401, 0.07028449, 0.03312039, 0.00443748, 0.03251012, 0.01250571, 0.04781969, 0.06642153, -0.06245038, 0.04692848, 0.02353448, -0.03835748, -0.02685588, -0.05401685, -0.00128503, -0.03132768, 0.05076828, 0.08093812, 0.05499510, -0.06470872, 0.02589832, -0.07911765, -0.06024437, -0.02090747, -0.02091604, 0.03834014, -0.00371032, -0.00108080, 0.09506193, 0.06958832, -0.01055659, 0.07853115, -0.01549250, -0.09327326, 0.03902123, 0.01814553, -0.01838080, 0.04252172, -0.06450419, -0.00731646, 0.01957590, -0.05836162, 0.01809630, 0.01402568, -0.05636800, -0.06537035, 0.04892729, 0.07304772, -0.08813706, 0.06700628, -0.06446094, 0.01571842, -0.03327977, 0.11552171, 0.06905130, 0.05830619, -0.09956990, 0.07192793, 0.04824542, -0.00980736, 0.05945114, -0.07549495, 0.04351183, 0.06330330, -0.01152561, 0.06579416, -0.00251535, 0.01861349, 0.01994557, -0.02754879, -0.10907497, -0.03538269, -0.00024613, -0.06881949, -0.03234504, -0.06933487, -0.09078323, -0.04999050, 0.14242779, 0.09249817, -0.05234570, 0.01875740, 0.07931536, -0.04389428, 0.05534971, 0.04155665, -0.02398206, -0.04101873, -0.05022558, -0.02793243, 0.04066509, -0.01791343, 0.05965332, 0.05199419, 0.00886984, -0.02527627, 0.01857798, -0.09247769, -0.04606307, -0.05339575, -0.00249157, -0.07646079, -0.06376394, -0.02151629, 0.12699503, -0.03347274, -0.02597172, 0.04605176, -0.10973287, 0.01627479, -0.03766060, 0.04561928, 0.01642874, 0.02662350, 0.00527556, 0.06665059, -0.00998765, 0.05094507, -0.06509897, -0.04221357, 0.02857671, -0.10990965, -0.00774430, 0.01751180, -0.02890966, 0.05080587, 0.05582919, 0.06103297, -0.05300933, -0.04908641, 0.03069781, 0.01282717, 0.06597024, 0.04551677, 0.07112093, 0.01182856, -0.04424233, -0.09862261, 0.02750790, -0.07961372, 0.06824890, -0.06997672, -0.03078806, 0.11948666, -0.00585239, 0.04954061, -0.03084511, 0.06839529, 0.02734714, 0.05952486, 0.02223331, 0.07275769, 0.04363263, 0.05722330, 0.03838824, -0.07875606, -0.02840766, -0.00478125, 0.09217202, 0.09287466, 0.04890494, -0.02748644, -0.01973736, -0.05695093, -0.01098249, -0.04639184, 0.05519336, 0.02896957, -0.04812248, 0.04740355, 0.02274883,
  0.01634050, -0.05509018, 0.03607876, 0.07756516, -0.05066896, -0.06734027, 0.01319836, 0.07528328, -0.05682241, 0.08389287, 0.03052475, 0.07340334, 0.07235821, -0.03720386, 0.08227931, 0.07447247, 0.04287954, -0.00374521, -0.10642163, -0.08133498, -0.07224113, 0.08000264, 0.05336740, -0.03825246, 0.04019151, -0.09596115, -0.06812175, 0.10846305, 0.04399570, -0.01708834, -0.01750377, -0.04100451, 0.02501827, 0.07540730, 0.02289342, -0.03734676, 0.05612785, -0.01778804, -0.02934942, -0.03922860, 0.08840867, -0.03606863, -0.04254927, -0.10449050, -0.00054229, -0.06534606, 0.02557912, -0.04042701, 0.00742601, 0.04269516, -0.09072271, 0.06726010, 0.03858856, 0.05123192, -0.01988669, -0.05219517, -0.11474007, -0.00966663, -0.05610260, -0.02847923, -0.08319433, -0.04481048, 0.06095487, -0.08603993, -0.05687914, 0.00166045, 0.08870807, -0.02010310, 0.00363808, 0.04508894, -0.05573299, 0.06790642, -0.02856588, -0.10371532, 0.03999098, 0.04765977, 0.02246581, 0.00364306, 0.10144041, 0.01873779, 0.13393028, -0.08452877, 0.03295816, -0.07181887, 0.01209866, -0.09564126, 0.03023235, 0.06912268, 0.02019928, -0.04708514, 0.03856326, 0.07808580, -0.07450208, -0.08664984, -0.04228364, -0.01952754, 0.00970296, 0.07717186, -0.00305340, -0.04634990, 0.01156579, 0.05590532, 0.00472893, 0.08314650, 0.03739795, 0.04081778, 0.09782228, 0.00392359, 0.00782272, -0.00298076, 0.11279739, -0.06231432, -0.00570629, -0.00340048, -0.00168684, 0.07067668, -0.07232087, -0.00857565, 0.00083633, 0.03772904, 0.01454288, 0.01352155, -0.06376293, -0.02036288, -0.14288658, 0.00642112, -0.12609139, 0.06883261, 0.00336640, 0.00008840, 0.00469044, 0.00924609, 0.04764410, 0.06816375, 0.03714707, 0.10243687, 0.01314276, -0.05471800, -0.04351130, 0.02085818, 0.00554984, -0.09183039, 0.03823939, 0.04665112, 0.06005313, -0.06148121, 0.02277419, -0.02598009, 0.04204566, -0.03367054, -0.08269475, -0.06388937, -0.12118223, 0.04895372, -0.09231678, 0.06819636, 0.08321971, 0.01649583, -0.02581564, 0.05389052, 0.10098008, 0.03369288, 0.11032013, -0.00121606, -0.06546831, -0.12299994, 0.01225497, -0.05813710, 0.02908345, -0.09578720, 0.07046142, -0.07408877, 0.06956684, 0.05516559, 0.00872857, -0.02842408, 0.03134520, 0.01198363, -0.02897631, -0.09160428, -0.07589063, -0.07820527, 0.09196834, -0.06055723, 0.08305373, 0.02335120, 0.02372329, 0.11737695, -0.05064574, 0.08550260, 0.01581294, -0.10330489, 0.00460336, -0.11670271, 0.00582823, 0.03498997, 0.08868831, -0.06595881, 0.01263172, 0.08949973, -0.03942932, -0.04753919, 0.03878540, 0.04310256, -0.01296757, -0.02115426, -0.13366291, -0.01884322, 0.09436935, -0.00854278, -0.06963810, -0.03635476, 0.04867635, 0.06172664, -0.05722338, 0.07454017, 0.03313805, 0.05140747, 0.01001354, -0.04973817, 0.06236900, 0.04961805, -0.00390770, 0.06850918, 0.04714682, 0.06883095, 0.09813227, -0.00181798, 0.07322366, -0.10327218, -0.03860047, 0.03116288, -0.00168945, 0.03707705, 0.04625317, 0.00636466, -0.03481952, -0.04344709, -0.05309943, -0.06787726, 0.05659667, -0.02715196, -0.01300876, 0.02949755, -0.05987785, 0.04368170, 0.02162914, -0.04638319, 0.07237735, 0.08044536, 0.02777652, 0.00815390, 0.01326198, -0.02146266, 0.07593277, -0.05407810, -0.11063641, -0.11378840, -0.03325731, -0.04212227, -0.04162700, 0.05965298, -0.01976050, -0.08533646, 0.04312713, 0.05340675, 0.03552394, 0.04196467, -0.03566838, -0.05915322, -0.03198376, -0.02828737, -0.01614928, -0.06923040, 0.04177319, 0.01630962, 0.05155742, -0.10689911, 0.03847498, -0.00981518, -0.04454885, -0.08650727, 0.04115007, -0.06669179, 0.07142681, -0.00011546, 0.03123678, 0.01937766, -0.07609019, 0.01602023, -0.06110363, 0.02468782, 0.08768177, 0.10876676, -0.04701174, -0.07295351, 0.03828822, -0.03491904, 0.07116472, 0.08581343, 0.00152386, 0.09345467, -0.01729672, 0.05706245, 0.07248863, 0.02072983, -0.04302279, -0.02900238, -0.03755325, 0.05599790, 0.06301580, 0.02683911, -0.02210036, 0.10159429, 0.10364185, -0.04285490, 0.04478101, 0.06089040, -0.02233312, 0.04585833, -0.00552790, 0.04336426, -0.05540142, -0.04151202, 0.08123527, 0.09197499, 0.03963042, 0.01206744, 0.02409898, -0.11107755, 0.08432594, -0.08214397, -0.07025888, -0.00663499, 0.04495905, -0.04362915, 0.07305539, -0.09056298, -0.04315631, 0.03237179, 0.02645306, -0.03034236, 0.01908065, 0.02668665, 0.01049186, -0.06829795, 0.03668353, 0.02700407, 0.00811967, -0.00988710, -0.08564550, 0.05386855, 0.01505243, 0.11113270, 0.01960914, -0.03027095, 0.01573437, 0.00490351, 0.01044448, -0.06958319, 0.03771233, 0.06336595, -0.08061710, -0.04783303, 0.03193478, 0.11909004, 0.02809353, 0.05180046, 0.03048984, 0.00235044, -0.03458541, -0.07101981, 0.06893133, -0.04294629, -0.05126565, 0.04669366, 0.05023969, 0.11260508, -0.04535559, 0.09582219, -0.07386556, 0.03170207, 0.01990215, -0.07852904, 0.02116512, 0.06888288, 0.00853385, -0.02641958, -0.14632772, 0.08213944, -0.02186083, -0.02581303, 0.00137099, -0.11448672, -0.03646909, -0.06712379, -0.05355169, 0.05265473, -0.02494593, -0.09720788, -0.02009396, -0.04882461, -0.02715364, 0.04745239, -0.01770722, 0.01373981, -0.01329130, -0.10260995, -0.07617891, -0.07904462, 0.04253666, -0.02567395, -0.06044680, -0.00207343, -0.08869734, -0.00113088, 0.02226783, 0.10869361, -0.01837476, -0.07877190, -0.02908596, -0.09008544, -0.08750549, -0.09950338, 0.00849141, -0.01949757, 0.02920666, -0.00949089, 0.01696373, 0.01815275, 0.00099022, -0.03594021, -0.01122048, -0.08322199, 0.05229874, -0.09482725, -0.08664023, 0.01791336, -0.01943274, 0.05187682, -0.10851713, 0.01517196, -0.03741021, -0.02169981, -0.02261993, -0.08668153, -0.03683329, -0.05289344, 0.01382779, 0.05589393, -0.03742796, -0.11188266, -0.03811540, -0.12198250, -0.00862618, -0.00594871, 0.08002277, 0.05424714, 0.01786904, 0.06158655, 0.03494260, 0.07948264, -0.00339248, -0.01882667, -0.07972372, 0.05947356, -0.07764205, -0.02347845, 0.09793549, 0.06040407, -0.06983105, -0.09677783, -0.00847557, -0.08899895, -0.06507391, 0.02024029, -0.00197797, 0.03131052, 0.04348671, 0.00348160, -0.01586381, -0.02703202, 0.08430036, -0.00176420, -0.10890523, -0.05208493, 0.00388934, 0.06220961, 0.05145832, -0.04324272, -0.07827053, 0.05362921, -0.14276685, 0.08510064, -0.01293355, -0.07020965, -0.02457532, 0.02766632, -0.02219136, -0.06221922, 0.06351178, -0.04843201, -0.04142280, -0.05735350, 0.03858775, -0.14187536, 0.00374532, -0.07448971, 0.09273520, 0.06767066, -0.09346090, -0.08805953, 0.06778309, -0.06935233, -0.00348029, -0.01661955, -0.00207236, 0.02027215, 0.05371488, 0.08023264, 0.00190746, 0.00898758, -0.04091358, 0.06425241, -0.04431638, 0.07429619, -0.09112015, -0.09320381, 0.07266100, -0.03751976, 0.01526990, -0.00749333, 0.06799345, -0.03370556, 0.10065795, -0.09618598, -0.02828405, -0.03994463, 0.02254917, -0.08144473, -0.08535781, 0.09410229, -0.05602572, 0.00502875, -0.10049567, 0.06052798, -0.01586171, -0.08530908, -0.06876763, 0.02754648, -0.06930388, 0.08516321, 0.07698390, -0.01115243, 0.02446407, 0.07974123, 0.05879255, -0.17310956, 0.05845793, -0.01362000, -0.07108381, 0.02152977, 0.06714881, -0.00803658, -0.04378366, -0.07930253, -0.09665671, -0.09240517, 0.03245400, 0.06404685, -0.08264332, -0.04995818, -0.06998555, -0.02494031, -0.08681070, -0.05171859, 0.03069655, 0.00543166, 0.00961994, -0.09372569, 0.02447775, -0.05964304, -0.01305645, -0.12290144, 0.06223775, -0.04674138, 0.05141223, 0.01006705, -0.02809992, -0.02916104, 0.02115552, 0.00658271, 0.02887697, -0.06690697, -0.09419735, -0.04084719, 0.02785822, -0.00358878, -0.01734385, -0.00589526, 0.04332234, -0.09378139, -0.07281745, -0.02553458, -0.04048768, -0.01437516, 0.01311444, -0.00674305, -0.03748425, -0.03515693, 0.06723561, -0.01746873, 0.02066156, 0.07054444, 0.02857992, -0.10944383, 0.04447739, -0.09962684, 0.05620303, -0.07291511, -0.03177288, -0.03075850, 0.00962099, 0.02338433,
  -0.03187130, -0.06655350, -0.09222773, 0.08817326, 0.07298878, -0.02319565, -0.00055105, 0.02075556, 0.00277426, 0.03371628, 0.01504822, 0.05235006, -0.02277139, 0.06428760, -0.11604474, 0.06447138, -0.00968398, -0.05878342, -0.06183958, -0.05439338, 0.04353619, -0.00775714, 0.08911882, -0.02219256, 0.08282135, 0.03278043, 0.00428970, 0.03672568, -0.05352830, 0.07737262, 0.07014261, -0.03982235, -0.07847986, 0.15780368, -0.00668765, -0.03628852, -0.08502622, -0.00111734, -0.07424107, 0.01077514, 0.01086761, -0.00202068, -0.04372479, 0.00331568, 0.00598256, -0.01677883, 0.18020312, 0.02757522, 0.07725730, 0.01110158, 0.05957092, -0.08704910, -0.08608925, -0.06461421, 0.06427921, -0.07030955, -0.03326797, 0.02592462, 0.02916947, 0.17095701, 0.07325715, -0.03702579, -0.01423871, -0.09252057, 0.09711768, 0.07943740, 0.05309031, 0.04776204, -0.06080298, -0.02771040, 0.04400871, 0.04527782, 0.10163154, 0.10070338, 0.03239572, -0.09402883, -0.09248015, 0.02024647, -0.04886463, 0.04152112, -0.05031475, 0.08653678, -0.03464053, 0.05768896, -0.04439982, 0.15581404, 0.01161481, -0.00533838, 0.06584628, 0.02806660, 0.04104759, -0.01976406, -0.02724051, 0.04622423, 0.05908192, 0.07960525, 0.01381866, 0.03828122, 0.05228821, 0.14244303, 0.07804377, 0.02500856, -0.01704470, -0.00477962, 0.05364019, 0.04209019, 0.06769948, -0.00118527, -0.03616727, 0.03942142, -0.01299095, 0.05923654, 0.05863246, -0.02587064, 0.01561270, -0.10511789, 0.00871458, -0.02421804, -0.07894144, 0.05097915, -0.11423901, -0.05848202, -0.07316143, 0.01546394, 0.04161389, 0.00771264, 0.02741932, -0.06681541, 0.07482731, 0.09876701, 0.06520085, -0.12812777, -0.10947996, -0.06363941, -0.06008812, -0.05682920, -0.07347348, 0.08951303, -0.05362383, -0.09105519, 0.05239641, -0.04362572, -0.07754371, 0.08107727, 0.00708311, -0.07921086, -0.05604553, -0.03302753, -0.00395905, -0.06969202, -0.04214618, -0.00698164, -0.02449744, -0.01114550, -0.11226935, -0.00644835, -0.09132631, -0.01946660, -0.10054681, 0.04473887, -0.02287974, -0.01546706, -0.07290939, -0.02302499, 0.06028894, 0.09078412, 0.05372239, 0.04775149, -0.06364610, -0.05418973, 0.08661964, -0.03428685, 0.02750792, -0.03470570, 0.03524974, -0.04650873, 0.06069135, 0.00132416, 0.07015170, -0.06139872, -0.02320302, -0.00625270, 0.11671349, 0.01559778, 0.04435386, 0.01646084, 0.08273442, -0.03666944, -0.03818084, 0.08661401, -0.05330373, -0.02775222, -0.00477377, 0.01986524, 0.05996991, -0.01118026, 0.06128980, 0.05201998, -0.04086967, -0.11133452, -0.06281669, 0.00654983, -0.03327512, 0.08104965, -0.01589401, 0.01597822, 0.02612201, -0.01358849, 0.03993465, 0.02311599, -0.07886535, 0.01705133, -0.08240393, -0.10379048, -0.03290285, -0.11060964, 0.01407125, 0.02587432, -0.07434892, 0.10208335, 0.04738461, 0.02390173, 0.00322864, 0.02455912, -0.01463912, -0.02076032, -0.03506162, 0.03976356, 0.05094814, 0.04546646, 0.08508404, 0.04562294, -0.00674777, 0.03726831, 0.10139856, 0.00394914, 0.08822349, 0.02234517, -0.07114493, 0.08811022, -0.06306299, -0.02316121, -0.05538632, -0.01539778, 0.04902344, -0.06275451, -0.02504717, 0.06553391, -0.07838505, -0.06437433, -0.04826567, 0.08039719, 0.05016713, -0.09203108, -0.02470590, 0.00377662, 0.12738101, 0.09604461, 0.06416991, 0.07049393, 0.00366625, 0.02349629, 0.08949089, -0.05398403, 0.00555785, -0.07075552, -0.05284242, 0.01060150, -0.00532195, 0.05205301, 0.08936501, -0.02798587, 0.07499503, 0.01950875, 0.07135846, 0.10970173, 0.01888305, -0.08272284, -0.12017248, -0.03776297, -0.07572433, -0.07756377, 0.06090206, 0.04936265, -0.03596143, 0.06530509, -0.02280290, 0.06017218, 0.08915929, 0.00092056, 0.06000038, -0.09111103, -0.08973441, -0.07898895, 0.04734222, 0.02169600, -0.01658028, 0.10800949, 0.08433963, -0.08435844, 0.07605641, -0.04549170, 0.12651996, -0.03255600, 0.00615930, -0.13034607, -0.03632786, 0.06474830, 0.07915578, 0.08969251, -0.04013046, 0.07735239, -0.10311445, 0.02828391, -0.06469861, -0.01259912, 0.00790255, 0.00789815, -0.04160767, -0.10468331, 0.07412372, 0.10865860, 0.00790128, 0.11593994, -0.07315028, 0.01608022, 0.03073546, -0.00264975, 0.10723940, 0.06970221, 0.05571918, -0.13296416, -0.10492916, 0.01080688, 0.12643407, 0.06098376, -0.01664836, -0.07482906, -0.03597515, 0.06146720, -0.07211869, 0.02036591, 0.03646138, -0.07516794, -0.07462352, -0.11479332, 0.09807441, 0.11696460, 0.00311643, 0.08940337, 0.05632129, 0.07812747, -0.00500886, -0.03003799, 0.09294969, 0.08893025, -0.05228901, -0.04248235, -0.00450964, 0.06600846, 0.15665875, 0.05201234, -0.01370737, 0.02905740, -0.11957350, -0.01749746, -0.02764520, 0.09358371, -0.08114393, 0.01517182, -0.02100186, -0.03822718, 0.07744630, 0.06412479, -0.01827389, 0.05296954, 0.07263410, 0.06208619, -0.03162656, 0.06845421, 0.14098048, 0.11011481, -0.02927378, 0.11202231, 0.01065663, 0.13598876, 0.06831890, -0.01203377, 0.17200412, -0.06596667, -0.00431411, -0.08049195, 0.02767272, 0.06114738, -0.01738872, -0.06247550, -0.01098246, 0.02157839, 0.06178461, 0.02020058, 0.05856022, 0.07301037, 0.02243319, 0.06454011, 0.04330707, 0.06068883, -0.00471013, 0.12702118, -0.00776927, 0.02784070, 0.00650938, 0.11446919, 0.00572074, -0.06292957, 0.06278145, -0.04553571, 0.01755150, -0.08664137, 0.09672260, 0.02761277, 0.05832556, -0.06622749, -0.04548901, -0.01651887, 0.02195145, -0.04637510, -0.00020168, -0.00754875, 0.01745374, -0.12717706, -0.09399837, -0.00688338, 0.04071955, 0.01816526, 0.05510029, -0.02830509, 0.07606674, -0.03324809, 0.06692684, 0.01588046, 0.07987475, 0.00244144, 0.04408129, -0.07567707, 0.05268346, 0.09524158, 0.02527163, 0.05672855, 0.05606832, 0.06137070, -0.01743510, 0.03059668, -0.05598950, 0.01325709, -0.01895929, -0.03503888, -0.01246266, 0.06103023, 0.01863185, 0.04725982, -0.05752799, 0.08884507, 0.08288759, 0.09001011, 0.02488931, -0.01094352, -0.02761522, 0.02851049, -0.06997988, -0.06781673, -0.07562903, 0.01335998, 0.04048736, 0.05513746, -0.06860115, 0.04160260, 0.05191826, 0.04417021, -0.08929582, 0.10641316, 0.00895853, -0.01795783, 0.00444180, -0.10579909, -0.01363673, 0.02839381, -0.03501970, 0.07052378, 0.02826735, 0.03193015, -0.07609287, 0.05516098, 0.08576927, 0.08364487, 0.02125395, -0.07734791, -0.02175126, 0.02226519, 0.03061662, -0.04219809, -0.01647935, 0.04170661, -0.00421664, -0.08235659, -0.09803337, 0.06357647, 0.09777188, 0.01013513, -0.01407828, 0.01843022, 0.09943634, 0.09576410, 0.02409247, 0.02447312, 0.02716909, 0.05705568, -0.02920411, 0.00761486, 0.06779965, -0.00244137, -0.09097259, -0.05202505, -0.05664472, -0.06953640, -0.03117549, -0.09552687, -0.07955711, 0.05134203, 0.05160893, -0.03919090, -0.01624732, -0.03175518, -0.07991264, 0.02899520, -0.10860823, 0.04587479, 0.03992554, 0.01748571, 0.08364142, -0.08674282, -0.05996419, -0.01470813, 0.03495556, -0.04727834, -0.06168409, 0.07958823, 0.05109530, 0.04624822, 0.08401408, -0.07238661, -0.07547833, 0.00218736, 0.05674886, 0.03824305, -0.07088820, -0.09344475, 0.06340660, 0.06424560, -0.00944940, 0.03889116, -0.11004633, 0.02946628, 0.02137885, 0.02688882, 0.07709274, -0.05355044, 0.01496595, -0.07936150, 0.06105777, 0.01974471, 0.06449582, -0.05295763, -0.00985048, 0.02984787, 0.00312134, -0.01642229, -0.00073542, 0.02248528, 0.06743589, -0.00043174, 0.06652250, -0.08308753, 0.01471738, 0.09891043, 0.00832640, -0.05126689, 0.02745005, -0.09482040, -0.02352664, 0.05501274, -0.00373728, 0.04065287, -0.08596103, -0.02862513, 0.04692991, 0.01517596, -0.02866289, 0.01412683, -0.11197852, -0.02238360, 0.02119982, -0.04895756, 0.00542104, 0.00346296, 0.07953845, -0.03334354, -0.07163873, 0.06839367, -0.00106694, 0.01958493, 0.03301993, 0.01439421, 0.07349313, 0.04127696, -0.04898699, -0.05577715, 0.05118498, 0.00095466, 0.06945746, -0.07548586, -0.00497908, -0.00912956, -0.02369411, -0.07735463,
  0.08697896, 0.07524290, 0.09395585, -0.05574337, 0.09416415, 0.04964731, 0.01090762, 0.01095198, -0.09781376, 0.03195308, 0.00753384, -0.11469866, 0.00292603, 0.03561805, 0.05948136, -0.03499811, -0.04019766, 0.03866875, -0.06486453, -0.02586167, -0.10004622, -0.07649720, -0.03232668, 0.00319360, 0.00307266, 0.09353578, 0.04835020, 0.01893961, 0.00670693, -0.00425877, -0.02388725, -0.02276221, -0.01186271, -0.01336593, -0.08096069, 0.06642234, 0.06468233, -0.11042853, -0.04313239, 0.03215957, 0.02876805, -0.00916804, 0.05371658, -0.08971817, -0.01845296, -0.03566039, 0.01952307, -0.04314269, -0.00061945, -0.11710823, -0.05309387, -0.00646577, 0.00569241, -0.06753041, -0.07204416, 0.01619598, -0.01805442, 0.05377109, -0.02094313, -0.11854234, -0.09071007, -0.00022872, 0.00585721, -0.08617982, 0.01268834, -0.00485745, 0.06840279, 0.14107807, -0.08105547, -0.02890197, -0.04043982, 0.05650458, -0.07814856, -0.04259832, -0.05616421, -0.04221032, -0.06073103, -0.05265792, 0.01870459, 0.06046224, -0.04382271, 0.07489478, 0.06046836, 0.03679639, 0.03692326, 0.00687764, 0.02245249, 0.07466929, -0.01485426, -0.06324548, 0.01268130, -0.09754124, 0.05260935, 0.01842392, 0.04432504, 0.10642557, 0.15694472, 0.02884306, -0.11300245, -0.08914220, 0.05925385, 0.06712111, -0.11051526, 0.07362275, -0.05315897, 0.03464653, 0.00170614, 0.10401804, 0.04006822, 0.02221139, -0.03543431, -0.08490097, -0.06337631, -0.05906065, -0.07101717, -0.07433634, -0.00264563, -0.05675699, -0.08873412, -0.03152619, 0.07969873, 0.10031983, 0.07429710, 0.01578393, -0.13735142, -0.10350083, -0.03471705, -0.08440259, -0.11023231, 0.10062493, -0.11822259, -0.05635090, 0.01705659, -0.00565740, 0.09659321, 0.12568952, 0.09355615, -0.07420705, 0.02930985, -0.05960016, -0.00341787, -0.01903279, 0.10995368, -0.09157124, -0.09893146, -0.04445533, 0.07901480, -0.00513400, 0.09327959, -0.03885049, -0.06465405, -0.04652736, -0.11498951, -0.03160962, -0.05243851, -0.03452100, -0.11250098, 0.03590394, 0.09104232, 0.11787792, 0.05930877, 0.15380704, 0.07426996, 0.01075342, -0.04167958, 0.00124899, 0.03349805, 0.03246065, -0.00170282, 0.04423217, -0.02421074, 0.02128300, 0.10017392, 0.03011766, 0.14200005, 0.06118749, -0.07653815, -0.05048542, 0.02539264, -0.11976077, -0.10618369, 0.10113218, 0.04638993, -0.07620199, -0.00649863, 0.11095562, 0.01554756, 0.16202596, 0.08613652, 0.01082805, -0.13175455, -0.13365708, -0.14245895, -0.12121427, 0.09748760, -0.03510585, 0.08886418, -0.07602402, 0.03400557, 0.07949508, -0.01665519, -0.03935662, 0.06836531, -0.14535964, 0.00594952, -0.08768456, -0.00776062, 0.07485145, 0.06924430, -0.05318018, 0.01120668, 0.06765483, 0.02225144, 0.00338308, -0.00298071, 0.01876760, -0.04521753, -0.03934390, -0.13923977, -0.11960992, 0.05253115, 0.05121873, 0.03578297, -0.02014617, 0.03510828, 0.05698806, 0.04979580, 0.01588984, -0.08635838, -0.13882197, -0.05171177, -0.07008385, -0.13499613, 0.06037337, -0.00006496, 0.05222892, -0.00005040, -0.10398906, 0.06144463, 0.02896639, 0.07208521, 0.05549702, 0.03724176, -0.01186197, -0.06509414, 0.04337088, 0.04828176, -0.03077932, -0.02459682, -0.00776508, 0.05078974, -0.01639023, 0.10268542, 0.05229897, 0.04259145, -0.06983318, -0.11076275, -0.05483387, 0.05763028, -0.06696725, -0.03630022, -0.06732000, -0.04050349, 0.06389389, -0.03690131, 0.11516216, 0.02777106, -0.05159323, 0.05326262, -0.01556895, -0.02916923, 0.03541706, 0.00412067, 0.13479838, 0.02794509, 0.05370558, -0.05978990, 0.07725727, 0.14459173, 0.09981652, 0.00785537, 0.00153829, -0.00900398, -0.05263440, -0.04317325, -0.06484640, 0.02435811, 0.12690185, -0.07536620, -0.14043687, 0.06694650, 0.08731148, 0.09353241, -0.08083199, 0.04081523, 0.03844880, 0.07551716, 0.00438492, 0.02334396, 0.05488257, 0.09347748, -0.06672700, -0.05673835, -0.02116500, -0.02942927, 0.00209859, 0.01397525, -0.06003814, -0.07442712, 0.03707598, -0.04983045, -0.07725503, -0.03458440, -0.02669055, 0.02999101, -0.12587059, 0.06368113, -0.05634672, -0.03104916, 0.05081628, -0.05863222, 0.03029669, -0.04708287, 0.09360164, -0.07520615, 0.03927657, 0.05643826, -0.05714247, -0.07309919, -0.04704413, 0.07601441, -0.02532383, -0.05605649, 0.04084941, 0.05729798, 0.05747749, 0.06710315, 0.07272354, 0.07911063, -0.04648153, -0.07280517, -0.07033121, -0.08079301, 0.04422659, -0.04302424, -0.06072886, -0.01963330, 0.00459574, -0.03222679, -0.01225783, -0.08858331, 0.11446237, 0.03564552, -0.05137072, -0.15022960, 0.06399827, 0.08492616, 0.06518656, 0.07375576, 0.01023527, 0.03168498, -0.02794387, -0.02912651, 0.05897830, 0.11465091, 0.04722305, -0.08080687, -0.08109386, -0.07922391, 0.07948339, -0.01699234, 0.02041408, 0.05749498, -0.10772396, 0.01896328, 0.05770101, -0.08152878, 0.04934228, 0.01103573, 0.01137244, -0.00098928, 0.05147318, 0.02110354, -0.00016465, -0.10584962, -0.07949795, -0.08618636, 0.04244358, 0.02606010, -0.00617804, 0.04838331, 0.00428235, -0.10758193, -0.10411286, -0.05346176, -0.02492754, -0.03518098, 0.07882906, 0.06835192, 0.00763540, -0.03238338, -0.07306417, -0.01395771, 0.09884483, 0.00130329, -0.08671623, -0.12134706, 0.02428774, 0.02541252, -0.02245646, -0.09503302, -0.07600302, 0.05531938, 0.03717045, 0.00383673, -0.07351950, 0.11987434, -0.05511544, -0.02590142, -0.09104301, -0.08487929, 0.02818437, 0.07666926, 0.00059784, -0.00350014, 0.05154559, 0.00028831, -0.08520005, 0.02792650, 0.02986968, -0.01035154, -0.09720157, 0.03619727, -0.10640650, -0.09716678, 0.03629413, -0.05453090, 0.05857186, -0.05530415, 0.07782719, -0.01857733, 0.06674353, 0.09315099, -0.06289526, -0.08690103, -0.08113877, -0.01277937, 0.04517933, -0.01228506, -0.00748236, 0.03871277, -0.08331223, 0.06670114, -0.01653252, 0.03616090, 0.05361962, -0.06054324, 0.01870801, -0.00684610, -0.04160489, -0.02530556, 0.01940081, 0.01633955, 0.05931703, 0.02649362, -0.10509566, -0.14603873, 0.03248740, 0.04123649, 0.02586195, -0.02165447, -0.05567695, -0.02991169, 0.03362975, -0.01087154, 0.04689565, -0.02589037, -0.01958615, 0.06979010, 0.02821897, 0.10633396, 0.08379556, -0.05240779, -0.00713740, -0.01755448, -0.03336861, -0.03046055, -0.07555474, -0.02818914, -0.03266242, 0.02309336, 0.02467567, -0.04145743, -0.08146239, -0.04738300, -0.02089468, -0.08148883, -0.07953900, -0.07250648, 0.03208414, -0.00102565, -0.04599207, -0.04083385, -0.07451874, -0.06684043, -0.15609913, -0.06974977, -0.00206193, 0.06680222, 0.05208068, -0.10683255, -0.09852466, -0.05411985, -0.07323036, -0.06319043, -0.02282466, 0.01462105, -0.04382230, -0.11067369, 0.07766444, -0.06965962, 0.04752601, -0.09753320, -0.02544422, -0.10621375, -0.03269347, -0.02911732, -0.10330141, -0.04466143, -0.08368349, 0.04670580, -0.14172013, 0.08622652, 0.02606571, 0.00914619, -0.04230161, -0.09664948, 0.02140755, 0.00301720, -0.09713580, -0.01608795, -0.08159098, -0.01351506, 0.00606892, -0.09242633, 0.01865612, 0.01996370, -0.06346310, 0.07254400, 0.04412533, 0.03961277, 0.00288513, 0.07569005, -0.07737406, 0.08496317, 0.05860749, 0.01005034, -0.14410762, 0.07308269, 0.07428136, 0.01686771, -0.03119852, 0.02043851, -0.05548830, -0.02020330, -0.10071959, -0.00170379, 0.06058408, 0.03897764, 0.05605941, -0.09771878, -0.04784867, 0.09534357, -0.00561624, 0.07989656, 0.03542726, -0.07510279, -0.10242898, -0.07430299, -0.03804035, -0.06703572, -0.02554456, -0.11137429, -0.14439061, 0.02901354, 0.05401573, -0.03480419, -0.06819037, 0.05125104, -0.07578252, -0.04258626, 0.04870381, 0.06511272, 0.04489899, 0.00063739, -0.05878991, -0.05942488, 0.00204641, -0.02274278, -0.03875823, -0.01071769, 0.00011136, -0.06760705, -0.01084400, -0.09841584, -0.06152945, -0.09260884, 0.04881299, 0.06942904, -0.06266904, -0.08190585, -0.05609407, -0.11523231, -0.02325216, 0.01017893, -0.10008978, 0.04963396, -0.09014183, -0.11068694, -0.01004228, -0.08102579, 0.06726435, -0.01175946, 0.02488781,
  -0.02047178, -0.10801098, -0.05967180, 0.02006440, 0.07191633, 0.04635610, -0.08987488, 0.01075616, 0.04211721, 0.08757279, 0.04558783, -0.03635221, 0.05816579, -0.06963780, -0.01538080, -0.05656280, -0.07518971, 0.01122996, -0.02531580, 0.02491594, 0.06091201, -0.03050270, -0.03752293, 0.06159044, 0.09698872, 0.04043718, -0.06990039, -0.10672297, 0.02139118, 0.03350331, 0.03589781, -0.09283438, -0.07706016, 0.04449009, 0.07134066, -0.05576503, -0.08165701, -0.06394021, -0.08668242, -0.07909878, -0.04508405, -0.05043107, -0.02381868, 0.01378570, 0.08214932, -0.00262145, 0.05001379, 0.10779667, -0.05062236, 0.02369329, 0.05951388, -0.01012823, -0.02394275, 0.01229503, 0.02123024, 0.09803909, -0.06072965, -0.02180965, 0.04668863, -0.00390226, 0.02844448, 0.00729492, 0.05374747, -0.04794660, 0.04807279, 0.01499193, 0.08291911, 0.04718139, -0.05527627, 0.06663940, 0.00143315, -0.02812872, -0.02169860, -0.01504746, 0.01502828, -0.03496679, -0.01561295, -0.06009923, 0.02435074, -0.02899099, -0.00554018, -0.05359546, 0.09822753, -0.08074437, -0.04580649, 0.05745649, -0.06177594, 0.00721398, -0.00226196, -0.03200407, -0.00788930, 0.08191524, -0.06479099, -0.00059370, 0.00007758, 0.10553901, 0.05465386, 0.09138802, 0.08128001, -0.02765360, -0.06654726, -0.10933305, 0.02047497, 0.06401729, 0.01008608, -0.09348219, 0.06315322, 0.04663977, 0.03196266, 0.00799878, 0.00600490, 0.10137139, -0.08285622, 0.01891045, 0.01793743, -0.01100835, -0.08831934, -0.06746721, 0.05026459, 0.09222279, -0.07734435, 0.05025484, -0.05527830, -0.05353130, -0.05367687, -0.00227442, -0.07476361, -0.06822930, -0.08133934, 0.09408335, 0.04235177, 0.02460546, -0.00832261, -0.06672135, 0.03329279, 0.04507349, 0.04129125, 0.10078581, -0.03879537, 0.06475013, 0.05156893, 0.02243503, -0.04578128, 0.04069059, 0.02551137, 0.02173659, 0.05392217, -0.09265934, 0.05857885, 0.06978548, -0.06772107, -0.02066994, 0.01721959, -0.04538072, 0.06417540, 0.09635956, 0.03300812, -0.06346758, -0.01366597, -0.01411186, 0.00664606, 0.00228377, -0.04351193, -0.00313299, -0.01450860, 0.07792433, 0.02456826, -0.01868233, -0.01584715, 0.03882551, 0.06527912, 0.00318648, -0.07563917, 0.06396895, -0.09147289, -0.05344924, -0.11186065, -0.05796282, -0.00728666, -0.06210008, -0.09778028, -0.00909230, -0.06633134, -0.01137488, -0.01985811, -0.04943531, -0.09499591, -0.02913265, 0.01416648, 0.03478695, 0.04221154, 0.04909373, -0.02025892, -0.02857920, -0.01131534, -0.10660261, 0.05917710, -0.00439435, 0.04469136, -0.08726313, 0.04887452, -0.04380431, -0.11429003, -0.05881615, -0.03024247, 0.06233267, 0.10116084, -0.05391438, -0.00064414, -0.00874002, 0.09431943, 0.04402215, -0.07615940, -0.02724979, -0.03875883, 0.06178025, -0.09725162, 0.03285149, -0.03823188, 0.01366869, -0.02463283, -0.02290421, 0.07895739, -0.02202297, -0.00725855, 0.09887680, 0.01435254, 0.05374816, -0.07968898, 0.07348427, -0.06591522, 0.05043722, -0.10005149, -0.02687629, 0.09685614, -0.01228710, 0.01615212, 0.03298451, -0.00951674, -0.02932136, -0.06038776, -0.00961877, 0.02602071, -0.05085779, 0.09928578, -0.00813315, 0.09063432, -0.03863010, 0.09477615, 0.07306870, -0.00087803, -0.02864402, -0.01304527, -0.07601652, -0.08469892, 0.02943353, -0.04519674, 0.06538025, 0.10649218, 0.06229810, -0.03910285, -0.06994800, -0.00655136, -0.01055851, -0.03111671, 0.08205622, -0.01694559, -0.04700664, 0.08196226, 0.01646306, -0.01278323, -0.00002710, 0.09975089, 0.00344873, -0.02774914, 0.02063319, 0.05597147, 0.06127245, 0.01729597, -0.03969086, -0.02528748, 0.05822157, 0.07856292, -0.04806066, 0.08798074, -0.04811290, 0.06620138, 0.07651081, 0.07906611, 0.07681995, 0.03967613, -0.06210365, -0.07352114, -0.12362820, 0.00138375, 0.05823770, -0.03142863, 0.01542029, -0.07283261, 0.03035985, 0.02423119, 0.02252704, 0.05712583, -0.02434991, 0.02293686, -0.02004540, -0.01264881, 0.00704476, -0.02122363, 0.04509707, 0.09403178, -0.07579372, -0.00737931, 0.03277178, 0.10175463, -0.00053239, -0.01344537, 0.02434401, -0.04449857, 0.02517635, 0.03213889, -0.03742095, 0.05521913, 0.02173994, -0.06247374, -0.01519376, 0.02503200, 0.04998535, -0.01446546, -0.02241219, -0.03682741, -0.01387230, 0.03188198, -0.03045258, 0.02271679, 0.11118621, -0.05492862, 0.08156149, 0.02975437, -0.04973902, -0.05782868, 0.12144237, 0.03362992, -0.05642622, 0.07098550, -0.00751812, -0.00187267, 0.08434450, -0.01875382, 0.04281997, 0.00231616, 0.09044047, 0.00575519, 0.08098346, 0.02088084, 0.00412359, -0.01169108, -0.01096363, -0.02147359, 0.03764820, 0.09718020, 0.13011034, 0.04702518, 0.00426728, -0.05262288, 0.04639527, -0.02025207, 0.13512936, 0.03630554, -0.00695836, 0.04719593, -0.02176429, 0.08082656, 0.12408364, 0.12665704, -0.09175423, 0.03716648, -0.06362452, -0.08196771, -0.03336370, 0.02289521, -0.00478507, 0.11694723, 0.12281418, 0.04694359, 0.01311862, -0.00136546, 0.13488300, 0.00685601, 0.07704735, -0.00124206, 0.04267642, -0.01774396, 0.01874711, 0.06549203, 0.02353880, 0.06395913, 0.04503176, -0.05288538, 0.08413686, 0.08473848, -0.05380556, -0.06433406, -0.02107639, -0.01624613, 0.06485939, 0.13780552, 0.00111945, 0.03829690, -0.03821328, 0.08557736, 0.07536212, 0.13535455, -0.03358972, 0.01143759, -0.02568230, 0.02518058, 0.00468782, -0.00751419, -0.01266783, 0.05480832, -0.04255067, 0.06036163, 0.08746742, -0.06881706, -0.03905812, 0.03396945, -0.05663064, -0.06315115, 0.08142637, -0.04487395, 0.07715015, -0.01519203, 0.03437879, 0.01241490, 0.09806579, -0.00900087, 0.09414627, 0.11489858, 0.04272735, 0.15505260, 0.10449661, 0.00209485, -0.01539073, -0.04341583, 0.11248872, 0.04949205, 0.05919138, 0.02656695, 0.00198915, 0.06582181, 0.11180444, -0.07248243, 0.05269155, -0.03419539, 0.03223337, -0.06393946, 0.02660361, 0.02668500, -0.05412807, 0.09593270, -0.06934306, 0.07650299, 0.10398228, 0.03552812, -0.07343195, 0.05683906, 0.07021663, -0.02319386, 0.03964590, 0.07057220, 0.06060448, -0.03869765, 0.09117343, 0.03211238, 0.07508019, -0.02312791, 0.05077497, -0.06876054, -0.04401524, 0.06867386, 0.07712218, -0.06913598, 0.06286396, 0.10649670, 0.09080275, -0.00263156, -0.05584002, 0.03595116, 0.06381468, 0.00501034, -0.05362490, -0.09215719, 0.03646107, -0.02589698, -0.02195832, 0.01304634, -0.00943845, 0.06950032, 0.00331351, -0.00670421, -0.06124697, -0.02408132, -0.03122817, -0.00006949, 0.08724780, 0.01346757, 0.04350390, -0.12294370, 0.05064148, -0.01758413, -0.05808335, -0.04825294, 0.02193846, 0.07596377, -0.00445569, -0.07358517, -0.04676411, 0.05458856, 0.07966202, -0.08864703, -0.09643246, -0.02676655, 0.00975747, 0.00755079, 0.10067837, 0.02563128, 0.04358590, -0.00351075, 0.09789614, -0.03581063, -0.03581300, 0.04597999, 0.04335438, -0.04318677, -0.01596084, 0.10227275, 0.08201008, 0.06414495, -0.01744047, 0.00068790, -0.07714499, 0.04760351, -0.01867375, -0.01185836, -0.00124434, -0.10006443, 0.00985659, -0.00672258, 0.08611518, 0.09677386, -0.08512233, 0.07150891, 0.05941034, 0.01855684, -0.01112826, 0.08816139, 0.07858130, -0.03627688, -0.05562899, 0.03885560, 0.06073739, 0.08023360, -0.02387546, -0.08002018, -0.08143920, 0.01160889, 0.09561006, 0.04784487, -0.01636387, -0.04303757, 0.08560156, 0.03849630, -0.10170770, -0.04799550, -0.06002297, -0.01293626, -0.00466140, 0.02447577, 0.00653411, 0.00804409, 0.03791254, -0.01871221, -0.04635354, -0.05395812, 0.05253807, -0.00918946, -0.03377029, -0.05529672, -0.07486978, -0.09239119, 0.00172145, 0.02666609, -0.03879927, 0.05405463, -0.08952808, -0.08835299, 0.07499634, 0.00787949, -0.03488714, -0.10026617, -0.08159740, -0.02601542, 0.06746893, 0.03225715, 0.06696723, 0.09567601, 0.09194819, -0.05320047, -0.06704465, -0.03944516, 0.01865142, -0.02745309, -0.10251912, 0.00076818, -0.08248796, 0.06613964, -0.09687285, 0.01287047, 0.08752651, -0.00402864, -0.06968649, -0.02550724, -0.01867527,
  -0.07499163, -0.08661043, 0.01808937, 0.04637277, 0.05903066, 0.00431053, -0.04215990, 0.06286301, 0.00332891, 0.02460461, 0.00755240, -0.03748272, 0.01115090, 0.01085594, -0.00408556, -0.04820463, 0.03158514, 0.01069307, 0.06060188, -0.07979605, 0.02677346, 0.02783362, 0.05663944, -0.03836167, -0.04697347, 0.05692470, 0.00414266, 0.08304998, -0.03715800, -0.08725167, 0.08805580, -0.02457124, -0.04186103, -0.05016105, -0.03800416, 0.03808984, 0.05714009, -0.05459280, 0.03073608, 0.03666721, -0.08093849, 0.04943710, -0.02911793, 0.01367615, 0.04642221, -0.06459836, 0.08315825, 0.06042555, 0.01143391, 0.06124629, 0.07186934, 0.04209348, -0.07343323, -0.09113950, 0.04945985, 0.05784699, -0.08730586, 0.06630261, -0.03595792, -0.02990270, -0.06611958, -0.03313168, 0.03627268, -0.06519403, 0.02418372, -0.08114403, 0.00375944, 0.02463793, 0.00225989, 0.03212308, 0.00499872, -0.07857715, 0.03243379, -0.02377428, -0.07721526, 0.06753001, 0.02226977, 0.06315070, 0.00558293, 0.09036355, -0.04308177, -0.06154285, -0.04886467, -0.01864703, 0.03343755, -0.07596053, -0.09272768, -0.04363739, 0.05833628, 0.01508075, -0.01971671, -0.02462381, 0.00346722, -0.02269187, 0.02850143, -0.04792935, -0.05265153, -0.00343379, 0.08397407, 0.00692839, 0.00179062, 0.04889797, -0.06599146, 0.02560691, 0.01797834, 0.08693300, -0.05467923, -0.00285555, 0.03819106, 0.08828077, 0.03780745, 0.06893732, 0.06249094, -0.06282171, 0.08548841, -0.07098430, -0.06356177, -0.02386138, 0.07137587, -0.08780020, -0.02026404, -0.01818581, 0.03835584, -0.06730101, -0.00511783, 0.02898615, 0.03643863, 0.00432306, 0.04222787, 0.01160093, -0.04933730, 0.02965308, 0.06206575, -0.08178750, 0.05169697, -0.05317308, -0.07592367, -0.03357291, 0.09203535, 0.01111032, -0.07131505, -0.01041911, -0.08923201, -0.06167028, -0.09238848, 0.00221583, -0.08328637, 0.04857532, -0.07582343, -0.03308798, 0.02810314, -0.01911354, 0.05329332, 0.06890722, -0.03765604, -0.06653947, 0.08973803, -0.01026753, 0.03853558, -0.03682563, -0.02048187, -0.08260886, 0.00771757, -0.08363356, 0.02902918, -0.02602567, 0.07126059, 0.04224121, -0.08792186, 0.05192651, 0.06956760, 0.05070700, 0.04163937, -0.06719147, -0.02121288, -0.07054830, -0.04617210, 0.00186396, 0.06711620, 0.05156848, 0.07710245, -0.08491258, -0.07338032, -0.04872140, 0.02575429, -0.06029187, 0.07132907, 0.00939753, -0.03284376, -0.02732544, 0.01802554, -0.02509576, 0.09981128, 0.02398962, 0.06151948, 0.05448323, 0.01039245, -0.02909738, -0.08830974, 0.03427505, 0.04760066, 0.02603525, -0.09430678, 0.03185829, -0.00688973, 0.00835383, 0.08079582, -0.02935272, -0.09690815, 0.07897832, 0.06316300, -0.04111041, 0.01631011, -0.03413936, -0.05823446, -0.02818200, -0.00579993, -0.02349530, 0.08835930, -0.00105225, 0.05436854, -0.05847532, -0.08639982, -0.00682193, -0.04576586, -0.08248473, 0.00098601, 0.01262920, 0.07326414, 0.03393814, 0.06642832, -0.07663096, 0.03392472, -0.02150849, -0.09578649, 0.08607160, -0.02194485, -0.04643597, -0.00027337, 0.02999180, -0.06052551, -0.05048757, 0.04066452, -0.07127921, -0.00737974, -0.09546021, -0.09658308, -0.04797249, 0.02518553, -0.00635778, -0.03514711, -0.07104577, 0.06583952, -0.06321708, -0.09081735, 0.07673985, 0.05375589, 0.01957410, -0.01107476, -0.08055899, -0.01744025, 0.02521050, -0.00745846, -0.04700004, -0.04408783, -0.07164661, 0.05317098, 0.03976892, -0.03895343, 0.02407899, 0.06552524, 0.02358640, -0.06997367, 0.02739053, 0.00148835, -0.02371714, -0.04246271, 0.07832728, -0.05349907, 0.06512087, -0.07587031, 0.05741159, -0.04553512, -0.03177346, 0.03129490, -0.05512590, -0.02579636, 0.02043705, 0.03311630, -0.06260918, 0.03727896, 0.06061884, -0.05918997, -0.05537436, -0.01474618, 0.01584530, 0.03557166, -0.06170822, 0.00520502, 0.03277126, -0.06216575, -0.05136653, -0.03354954, 0.06750548, 0.07396086, 0.02854423, -0.05082319, 0.02975360, 0.00480932, -0.06285033, -0.04366348, 0.06781447, -0.09177137, 0.06486727, -0.03580891, 0.03357512, 0.10002740, 0.06583454, 0.03662002, -0.05088089, 0.07524802, 0.10238831, 0.03143894, -0.04606344, -0.01215002, 0.08265851, -0.09133576, 0.00666704, -0.02375458, 0.06307966, -0.08940518, -0.06553473, -0.03311256, 0.08038216, -0.05891516, -0.00717734, -0.03240231, -0.01753584, 0.07883836, -0.01915660, 0.07005181, -0.09530549, -0.02385860, -0.01079945, -0.06564214, -0.03224263, -0.09068061, -0.00233155, -0.02567095, -0.07905354, -0.09049858, -0.09292439, -0.02192841, 0.02016296, -0.02155298, 0.00859652, 0.02344280, -0.08107324, -0.08234084, -0.00544033, 0.07356816, 0.07290132, -0.05843851, 0.04314557, 0.06725857, -0.10406435, -0.04733080, -0.08349736, -0.01270074, -0.07857750, 0.01179861, 0.08600291, -0.07022395, 0.07462122, -0.04827575, 0.08401719, -0.07927801, -0.01611945, -0.04401342, -0.07500391, 0.07253581, 0.00078689, -0.07053336, 0.09044908, 0.02776622, 0.07565372, 0.01534130, 0.04414668, 0.08076531, -0.03174785, -0.07550997, -0.00498403, 0.02258977, 0.05112758, 0.04470653, 0.04863995, 0.07412785, 0.00420078, -0.04332173, -0.04754578, -0.07394016, -0.08228604, -0.08197970, 0.01306609, 0.02303455, -0.02417528, -0.00695841, -0.06018087, 0.09950439, -0.03813329, 0.05462000, -0.05200520, -0.03719332, 0.02688085, 0.04076906, -0.00582161, 0.05570465, 0.01715239, -0.01803546, 0.02332396, 0.07482262, 0.07051736, -0.05468110, 0.02450612, 0.07042325, 0.07128736, -0.02812538, 0.06597827, 0.00435094, 0.05606393, 0.08003855, -0.03211164, 0.00411670, -0.08452883, -0.02975610, -0.06168587, 0.09137902, 0.06894449, 0.01135055, 0.07222847, -0.04909157, -0.05812621, -0.05610264, 0.08617621, -0.06692653, 0.08953142, -0.02282379, -0.00841383, -0.03649594, 0.10137121, -0.01846861, 0.01337403, -0.06910306, 0.07376317, -0.10171963, -0.07995227, 0.05885367, -0.01027714, -0.05940901, -0.07138036, 0.00728791, -0.07402890, -0.02232271, 0.08881973, 0.01816488, -0.04381109, 0.08381731, -0.00617642, -0.08734211, 0.06498276, 0.01742102, 0.00294033, 0.07272980, -0.02618702, 0.01318068, 0.10257224, -0.01382138, -0.04792438, 0.04138372, -0.06499172, 0.02056221, 0.03562356, 0.00101906, -0.09044449, 0.07420680, -0.07696141, 0.09179219, -0.04285068, -0.05084200, 0.02677180, 0.01482199, 0.08118109, 0.00799047, 0.06965600, 0.01086646, 0.00207913, -0.08473915, 0.05605208, -0.02284769, 0.06874452, -0.03977128, -0.06471950, 0.09815791, -0.02680195, 0.01953441, 0.08157323, 0.00860240, 0.02515426, 0.03901248, 0.00035693, 0.01371994, 0.03983311, 0.03192702, 0.08049697, 0.01378148, -0.00809372, -0.02516866, -0.08348859, -0.08813255, 0.07015315, 0.04698001, 0.00179262, 0.03070735, -0.06930566, 0.06550734, 0.00412599, 0.02297636, 0.09316942, -0.00233864, -0.02969980, -0.05438907, -0.07918569, 0.05569683, 0.02783935, -0.01938880, -0.02092569, 0.00926337, -0.02852070, -0.07547548, 0.06998349, 0.04459649, 0.02427139, 0.01451039, 0.03300459, 0.01721091, 0.05205670, 0.06977749, -0.04735350, -0.08656683, 0.01118146, 0.00881503, 0.05476371, -0.02354229, 0.01952559, -0.04484036, -0.01471421, 0.07016899, 0.01119776, -0.06360226, 0.05727875, 0.06807597, -0.05985193, 0.05495102, -0.05003644, 0.08090340, 0.03811358, -0.06333387, -0.04645211, -0.05395872, 0.07839119, 0.05036854, -0.10021711, 0.02643033, 0.04941269, 0.01860165, 0.00440442, -0.01620709, 0.07769280, 0.04919574, 0.05408406, 0.01854083, -0.05823729, 0.02301933, 0.04938417, -0.09489226, 0.03289461, 0.01457909, 0.03739961, 0.05613688, 0.02471473, -0.02525316, 0.02657803, 0.01504807, 0.02489530, -0.06368045, -0.07102866, -0.08850215, 0.05785583, -0.03139424, -0.08225731, 0.05277666, -0.04336535, 0.07062078, -0.07306617, -0.00032952, 0.10441966, -0.00800879, 0.04275557, 0.03907134, 0.09554483, 0.05244583, -0.00818928, 0.01635681, 0.00567705, 0.07026389, -0.00931484, 0.04017418, 0.01023054, 0.06955727, -0.01938165, 0.08883382, -0.02118477, 0.01032858, -0.10035321,
